9101 26
0.494854375462 0.364923007246 0.521885521887 0.668046059737 0.671906415645 0.585202863961 0.499516240498 0.472283813749 0.361138451444 0.310802618817 0.259956377736 0.259957870548 0.269623493543 0.328976388169 0.391820415643 0.502708750442 0.588062311237 0.650753514716 0.663807037176 0.702143719806 0.642821985232 0.508457024508 0.470161834118 0.327425175124 0.57354200732 0.369267823393 2
0.388915046748 0.27830615942 0.295837159472 0.377833753149 0.445805154453 0.489737470166 0.511264685557 0.528182985179 0.447424540682 0.414464112512 0.351361176185 0.351461764331 0.328817556878 0.352750389207 0.371288159593 0.432870097751 0.48092513114 0.51279457874 0.475195822454 0.504679951688 0.422805578341 0.301001035553 0.327714093055 0.364996815963 0.413299073425 0.426089804384 1
0.381314320306 0.254189311593 0.357973676156 0.610831234258 0.798025955036 0.813524264121 0.728541810645 0.636013537168 0.502952755905 0.430407371484 0.361055012521 0.362887782459 0.403083383668 0.493740269851 0.543959018783 0.646802496761 0.673899221109 0.700212400122 0.69700360562 0.736111111108 0.663986874487 0.482050396964 0.372892784896 0.212269157293 0.317137740404 0.209186493179 4
0.65016479451 0.740828804348 0.758187940006 0.427851745235 0.199963443612 0.147812251392 0.135452660678 0.100828568094 0.0648786089239 0.0495877788554 0.0334033443735 0.031182177965 0.0281588863002 0.030617540218 0.0389404856108 0.0541750088328 0.0806707995549 0.120562354607 0.159641924655 0.264643719806 0.344380639869 0.42319641008 0.658968307483 0.786775631502 0.788834384489 0.863055477848 5
0.155848523576 0.0764266304343 0.167431894705 0.303526448363 0.444525680863 0.602545743836 0.71361437457 0.820632512547 0.726295931758 0.697199321048 0.578156555457 0.591759223797 0.567262058848 0.635768033213 0.638124193078 0.723707454952 0.734859322841 0.692525538586 0.663931368894 0.6038647343 0.448892534866 0.218156713842 0.1491908294 0.108363404798 0.193334890602 0.096770671997 9
0.600860967242 0.297780797101 0.548209366393 0.750809643761 0.802595503567 0.772792362769 0.70960608155 0.61547438441 0.486712598427 0.406401551891 0.324622344293 0.289608068429 0.26605689303 0.277406590555 0.311523884886 0.377281827817 0.443967572724 0.55497117427 0.691906005222 0.862771739129 0.910254306809 0.824301001036 0.637053270397 0.286457227764 0.607334734874 0.30683733275 3
0.546848725364 0.250679347826 0.378634833178 0.587081684059 0.791994150981 0.882577565634 0.813821700069 0.767417434939 0.569553805774 0.470417070805 0.356854350109 0.31654538491 0.277763396324 0.298618318631 0.332764149765 0.4364032505 0.502463837228 0.609082633762 0.670893945045 0.721467391304 0.677276456111 0.507939247497 0.462913014159 0.34323922734 0.601494977808 0.292686421538 7
0.540525997175 0.410892210146 0.37725742271 0.576646275639 0.700785962348 0.685600636435 0.562819626816 0.489438674291 0.356053149606 0.292192046557 0.215122384684 0.191242180518 0.175338683234 0.191975869227 0.223480904585 0.292898362973 0.36711174694 0.479417416809 0.539350988438 0.657306763284 0.658244462674 0.532619951674 0.463587322995 0.491827637444 0.646967219496 0.511172669773 6
0.623461357368 0.224524456523 0.403734312825 0.564591579705 0.676475964177 0.719490851233 0.772771250867 0.827517796709 0.763287401575 0.686651309409 0.476977138702 0.348397804162 0.277274426899 0.257297612871 0.272208571072 0.309680838535 0.379907804801 0.434813391322 0.490488623648 0.578200483091 0.63872026251 0.604073179152 0.588671611599 0.35831033751 0.570038153079 0.295054004079 8
0.460953790273 0.324388586956 0.512702785429 0.612090680104 0.680679948823 0.653460620526 0.614236351073 0.615591084142 0.489583333333 0.451139670223 0.36650779546 0.372015830461 0.364828716887 0.354145044111 0.338511515556 0.362560358026 0.414242568748 0.509254576717 0.624020887729 0.731582125604 0.773748974569 0.680876769073 0.608395144978 0.314476756529 0.472397414934 0.306202793337 7
0.449788121341 0.166440217392 0.319865319864 0.525008996043 0.725827088285 0.834526650754 0.806634416033 0.781538102464 0.616305774278 0.5189742968 0.410332013894 0.393942295417 0.404521529035 0.466852620655 0.522510516013 0.646390295607 0.739707518678 0.822393041368 0.784906129554 0.828502415457 0.736997538966 0.564549534004 0.417228590693 0.181171725748 0.367126060889 0.143064757134 9
0.27006120939 0.23290307971 0.183807774717 0.25836631882 0.356790349114 0.444232299126 0.470214236352 0.538102462365 0.485564304462 0.489270126091 0.422166572421 0.417177326695 0.394655851813 0.411650233525 0.408354504185 0.454186786008 0.466698458114 0.474967128554 0.451075469352 0.416666666667 0.324692370796 0.192267863307 0.220498988537 0.317766928466 0.30133146461 0.417615632867 1
0.703975247191 0.515625000001 0.606519742885 0.703490464198 0.698592579053 0.59888623707 0.511264685557 0.415451044463 0.278543307087 0.206656159069 0.157201712578 0.13835695136 0.129634423448 0.142254800208 0.165923951522 0.226357319514 0.288666348751 0.379387073935 0.457913713788 0.59088164251 0.669073010663 0.733172247155 0.722859069453 0.547972829548 0.810947597914 0.543629701903 6
0.386224524113 0.306272644927 0.395622895622 0.54839870457 0.622555291537 0.595067621321 0.571112646856 0.518146808264 0.427411417323 0.37481813773 0.319169561354 0.317726286225 0.323064975407 0.386254540738 0.447003456749 0.558826993286 0.628437450326 0.67846667341 0.674623896557 0.687499999998 0.577850697291 0.428028995511 0.350809170601 0.300679261303 0.455812504866 0.331331918697 2
0.437478980291 0.225769927537 0.39822467095 0.493522849947 0.552915371961 0.607478122514 0.695369730478 0.80697864395 0.807250656168 0.780310378274 0.569836012602 0.460806842845 0.363304282797 0.294174883239 0.282245637416 0.334530679543 0.386584008902 0.416708809549 0.467984582867 0.591032608695 0.672846595568 0.66379012772 0.594571813892 0.310337507961 0.49443276493 0.251611934798 8
0.517118450258 0.352241847827 0.486838077745 0.514213745955 0.507402668618 0.483214001589 0.455286800277 0.420702532386 0.34809711286 0.30722599418 0.264157040148 0.288044172093 0.345183651163 0.381713803841 0.418683103578 0.500883288188 0.557383563821 0.589966622839 0.625264204901 0.690519323669 0.648236259229 0.53624439075 0.470498988538 0.288579919337 0.39056295258 0.37901789674 4
0.673034236901 0.412930253625 0.636210590756 0.726160489388 0.678121001647 0.555767700876 0.502695231513 0.460497140856 0.374015748032 0.316864694472 0.245415623233 0.207902463935 0.182701987516 0.1947327452 0.243596684853 0.322282416676 0.375854395167 0.465055122888 0.550167847818 0.71708937198 0.81230516817 0.788919571973 0.681220498988 0.374973466357 0.681850035037 0.445521721034 3
0.640075334633 0.666666666666 0.737679828588 0.541381792014 0.412356059224 0.341766109785 0.292743607464 0.242385342514 0.157480314961 0.124151309408 0.0865174892964 0.0730243840164 0.0738631460866 0.07657628438 0.0875015617842 0.125485808503 0.161103163249 0.239000708002 0.286584607734 0.420440821254 0.544708777687 0.61632723507 0.765003371543 0.651347909148 0.78852293078 0.721703294828 5
0.299051590772 0.216372282608 0.237220691766 0.326016552717 0.442149515631 0.51630867144 0.572218382861 0.598436223597 0.506807742782 0.475630455867 0.421924226513 0.427709689775 0.476601374867 0.55024001038 0.614593311399 0.684960546461 0.715943411221 0.699605542632 0.636205395997 0.603260869564 0.477932731748 0.299792889197 0.209710047202 0.165039269796 0.226037530172 0.235407299249 4
0.317279881617 0.126924818841 0.233700642791 0.387009715728 0.542862365199 0.64693715195 0.742639944713 0.792157778036 0.741715879266 0.69732056256 0.591768317311 0.550204264011 0.511116863692 0.485242605087 0.483195202198 0.539924626075 0.577173740263 0.635986649135 0.645654606491 0.67059178744 0.62493847416 0.465481532621 0.327545515845 0.16843557631 0.28420151055 0.142034483463 7
0.516580345732 0.321897644928 0.379706152433 0.540662108673 0.735514531167 0.707716785997 0.637180373188 0.56856109231 0.434875328085 0.374515033948 0.285443089102 0.26417081578 0.257025340121 0.295537104307 0.348132106118 0.462077493817 0.519790176443 0.581774046729 0.605371130178 0.68327294686 0.659885151765 0.515878494993 0.395987862442 0.326576098492 0.525578135949 0.384981202622 1
0.575502791417 0.514492753623 0.472298745026 0.599136379993 0.643940778652 0.576770087509 0.493711126471 0.417668339364 0.317749343833 0.24545344326 0.189918410211 0.167496489212 0.161618776425 0.169628956928 0.202782058223 0.259863384761 0.302336671435 0.379184788106 0.45032947905 0.593599033816 0.656767842493 0.64256127028 0.622892784895 0.525047760562 0.70372965818 0.545888116373 6
0.492163852828 0.313745471016 0.44582185491 0.659769701331 0.687808444529 0.697374701672 0.64961990325 0.596218928698 0.445538057743 0.382274490786 0.298166249293 0.308693986978 0.307331665084 0.3828814219 0.458331598018 0.572782946649 0.615085042122 0.679478102561 0.701728210867 0.745923913042 0.659721082855 0.506040731792 0.394470667567 0.293143706221 0.490228139842 0.288674494926 2
0.704378825586 0.432631340581 0.637434955616 0.637279596977 0.593858526778 0.518854415273 0.47588113338 0.439841288365 0.352116141733 0.305164888458 0.22542208579 0.187986722839 0.160612074668 0.165931499741 0.188080463121 0.247850665411 0.298601176283 0.401537372307 0.510257366657 0.669384057968 0.728630024612 0.695374525372 0.658968307483 0.42092973891 0.718913026552 0.508661804138 3
0.507230779579 0.206295289856 0.317875726967 0.593378913278 0.81264851033 0.929673826571 0.886523842435 0.7901738826 0.57783792651 0.45768671193 0.362912997819 0.336078130984 0.349670664711 0.415282823042 0.494981466827 0.627075727241 0.713400095373 0.790330737333 0.761904761907 0.793176328503 0.713535684987 0.542285122542 0.416722859068 0.2256421142 0.403721871836 0.184739668265 9
0.37055222977 0.146286231884 0.255280073462 0.42371356603 0.61634070554 0.67987271281 0.749550794748 0.809779437509 0.812664041994 0.829776915616 0.652395185394 0.569768926338 0.46547012972 0.427769849508 0.420807130065 0.499411141208 0.547369257669 0.612723778699 0.604376476439 0.665911835746 0.596226415094 0.451501553333 0.382670262981 0.18881341541 0.330063069377 0.130974393264 8
0.631129346876 0.67821557971 0.698959289868 0.50143936668 0.36391884482 0.291169451074 0.243676572219 0.185202474034 0.137057086614 0.112572744908 0.091849099281 0.0904506574749 0.0886185175598 0.092760768033 0.100412311024 0.138499587799 0.162374821173 0.206736118135 0.25463135646 0.336352657004 0.39524200164 0.509147393857 0.68509777478 0.692952663979 0.746320953049 0.745078908045 5
0.460550211878 0.217278079712 0.372972145699 0.625584742716 0.833120087736 0.828003182182 0.780234968902 0.755280662855 0.64812992126 0.55777158099 0.459810970191 0.412230307673 0.3754422297 0.380643487286 0.396901420183 0.473089153221 0.537513908758 0.608172347528 0.660201417383 0.776871980676 0.754716981132 0.611839834311 0.450438300743 0.23752918701 0.426535856109 0.206457291403 7
0.386426313311 0.255548007245 0.385062748699 0.592479309105 0.624200329008 0.610501193315 0.617415342088 0.588166647216 0.470062335958 0.419253152279 0.359600937071 0.387112217542 0.464377139241 0.550758951739 0.578359918371 0.652455541161 0.679860117627 0.661980378275 0.613950018651 0.654891304345 0.563248564397 0.445806006214 0.351820633851 0.233071534706 0.326637078565 0.212386482263 4
0.585794040491 0.38088768116 0.48469543924 0.632781576108 0.657283860356 0.597136038185 0.532273669663 0.486871280197 0.380249343833 0.325715324926 0.249414330722 0.222296693477 0.199326947968 0.225025947069 0.256132605889 0.34253915911 0.414242568748 0.511682006676 0.546437896307 0.615338164248 0.619360131257 0.583189506385 0.545178691839 0.437274464021 0.595110176749 0.46623636252 1
0.51758929172 0.298573369566 0.513927150288 0.65563152213 0.688356790353 0.631503579952 0.597650310989 0.520714202358 0.40223097113 0.34602327837 0.288391630988 0.290661304737 0.31161733828 0.375162169175 0.431718795552 0.538570250854 0.606580829756 0.63730150703 0.644784284473 0.726298309178 0.683182936834 0.540559199171 0.445380984491 0.305879855656 0.511329128708 0.316553291075 2
0.167350507836 0.0668025362308 0.1734006734 0.302626844189 0.511423871321 0.642959427206 0.722460262615 0.821449410666 0.733021653543 0.712596993211 0.61394296793 0.622590322993 0.595909914574 0.65477426051 0.665903127733 0.741196561065 0.751390875854 0.690907251948 0.651746860624 0.592542270529 0.451681706317 0.245253710735 0.146325016858 0.0998726385059 0.182511874173 0.0592305015592 9
0.612564740701 0.540647644928 0.45806550352 0.601655271684 0.622189727656 0.539697692918 0.455148583275 0.377523631697 0.276164698163 0.214779340447 0.161644720898 0.139474020171 0.133258549774 0.15406071614 0.183540877098 0.236309033094 0.276029248132 0.379892788511 0.446848190975 0.605374396134 0.629860541429 0.570417673457 0.555630478759 0.583103375079 0.673051467725 0.588825283324 6
0.593731082263 0.264945652175 0.445515763697 0.54318100036 0.626393712302 0.640731901352 0.660953697307 0.728556424321 0.658628608924 0.584565955384 0.402657726796 0.306268351845 0.250035953634 0.246205241308 0.248802632127 0.310328583206 0.376172309649 0.448669970669 0.466119607114 0.518417874395 0.551927809681 0.54245771488 0.54956169926 0.377626830822 0.583819979755 0.374050749507 8
0.57610815901 0.302649456521 0.495408631771 0.622526088524 0.665509047705 0.628957836119 0.589910158949 0.561559108415 0.477772309712 0.427921920466 0.350068664674 0.289225073407 0.255874823827 0.271017125065 0.304568739328 0.372276528088 0.473772055317 0.593203196117 0.642670645281 0.743055555556 0.706644790814 0.577839143942 0.524106540794 0.325514752707 0.630927353421 0.357382149655 3
0.691733369206 0.765964673914 0.774104683194 0.434148974454 0.239261560958 0.190135242641 0.164063579821 0.136655385693 0.0989993438321 0.0719568380213 0.0537200096938 0.0467253925699 0.047775189116 0.0518617021278 0.062054891508 0.0853256389118 0.114528691782 0.176494386568 0.218948153674 0.345259661833 0.435110746515 0.495512599241 0.679366149697 0.757694756952 0.744607957641 0.805667187489 5
0.625479249344 0.328577898552 0.666819712273 0.84580784455 0.832571741912 0.653460620526 0.627643400137 0.593534834872 0.458661417323 0.382153249272 0.300266580499 0.276873483978 0.268329162711 0.280131032694 0.296197576111 0.357555058296 0.404466698457 0.485081420046 0.58398607485 0.759963768114 0.848892534866 0.824818778047 0.667060013486 0.347590745064 0.557813594954 0.338905453628 7
0.747965292258 0.585484601451 0.616161616162 0.563512054695 0.481630414915 0.39952267303 0.340843123706 0.292216127903 0.221866797899 0.184044616877 0.140762581792 0.117579471467 0.116547300601 0.137227555786 0.162925325892 0.224119656106 0.263551104753 0.342874481644 0.373368146215 0.518417874395 0.542739950779 0.546945115639 0.581591368846 0.572702186372 0.723195515067 0.628460116126 1
0.529158539046 0.303781702899 0.50887664524 0.674883051461 0.661670626945 0.608910103421 0.540704906705 0.484887384761 0.399032152231 0.352994665374 0.293319331125 0.30144899783 0.34434952685 0.43912169175 0.482653783683 0.588093275233 0.633603560641 0.66329523617 0.672510257368 0.688103864734 0.571944216572 0.50069036935 0.421105866489 0.257164084058 0.414778478549 0.297380648594 4
0.56507701621 0.512681159421 0.610498928682 0.582943504858 0.507402668618 0.443118536197 0.379129232898 0.337845722956 0.275754593177 0.237633365664 0.196259794814 0.194625303205 0.202634682313 0.232518162948 0.292116113448 0.416323165704 0.519869655062 0.620410640234 0.662688051723 0.769474637678 0.686136177196 0.570245081118 0.479602157787 0.396624920398 0.569181655377 0.477371505768 2
0.221900854241 0.107223731885 0.186562595653 0.345807844548 0.551453116433 0.704057279235 0.737525915688 0.802077255222 0.692339238846 0.627061105723 0.521205266985 0.519596578578 0.528288319383 0.606253243384 0.671942026572 0.766870804381 0.78779208393 0.756245574999 0.690911351487 0.640398550722 0.523379819526 0.324818778047 0.22218476062 0.116217363617 0.192634119753 0.0953105490462 9
0.469832514966 0.222826086958 0.359810223448 0.539042821159 0.653811003472 0.669053301512 0.653213545267 0.634846539854 0.554625984253 0.533098933074 0.425801761047 0.367387973956 0.325337245089 0.342598598858 0.364166423723 0.445412790014 0.509457955809 0.567917467383 0.614944672387 0.686292270531 0.632649712881 0.53123921298 0.453135536075 0.323073657399 0.522852915984 0.296132038781 3
0.68419990583 0.541553442029 0.560912151821 0.684958618208 0.636446719065 0.528241845664 0.405252246028 0.343447310071 0.238927165355 0.195865664404 0.167339849745 0.156964126133 0.15385279144 0.168720809549 0.182458040065 0.223354139678 0.275631855032 0.356225346414 0.465995275396 0.639341787439 0.735028712058 0.693303417329 0.649022252193 0.548397367863 0.737522385736 0.55502411932 6
0.6235958835 0.323256340581 0.489592898683 0.50143936668 0.557667702431 0.537151949085 0.594747753974 0.678258840005 0.622867454069 0.554619301648 0.384804911544 0.294938082472 0.23746656312 0.223371821484 0.205947274166 0.246672947828 0.284136067398 0.344593911198 0.404202412037 0.500905797101 0.574077112386 0.593199861925 0.676500337156 0.390893653152 0.600327026395 0.423053567408 8
0.672630658506 0.87703804348 0.59657177839 0.173983447284 0.0343630049353 0.0248210023867 0.0320663441604 0.0217061500759 0.0153379265091 0.00969932104746 0.0087244527021 0.00686199412737 0.00782351080046 0.00823819408407 0.0108700179085 0.0239076669414 0.0313940549992 0.0537068878326 0.0574412532639 0.115036231884 0.139950779327 0.174490852606 0.446392447741 0.869348333687 0.70528692673 0.976262767545 5
0.589022667653 0.512341485508 0.515916743189 0.502518891689 0.439773350394 0.400795544946 0.364892881825 0.348465398529 0.272555774278 0.232177497575 0.191089748768 0.186390910252 0.177409612564 0.198559937727 0.233601266086 0.280885643623 0.327292958194 0.388186507537 0.412035310208 0.463164251207 0.485643970469 0.44874007594 0.487525286581 0.502547229887 0.565677801136 0.594686244139 1
0.693280419721 0.621490036231 0.7782369146 0.653652392948 0.50813379638 0.391408114559 0.338355217692 0.284864044813 0.200049212599 0.167798254122 0.129210760158 0.113111196221 0.118560704116 0.13125973015 0.152638374079 0.190731362619 0.237323160069 0.32335389906 0.414148949397 0.508152173914 0.628547990155 0.676044183637 0.817430883343 0.576629165781 0.66433076384 0.622469518227 7
0.644245644717 0.553894927538 0.621518212427 0.505937387549 0.398464631697 0.308830548926 0.270767104354 0.270043178901 0.207841207349 0.186651309408 0.165037563616 0.166762415422 0.194638594069 0.231869486248 0.272333513806 0.335237310094 0.388332538546 0.418023667442 0.465124953375 0.544082125604 0.574241181296 0.553158439765 0.605192178017 0.457333899385 0.493576267228 0.574653903098 4
0.610076007263 0.28181612319 0.400979491887 0.703310543361 0.887040760375 0.881463802704 0.776641326885 0.648850507646 0.501066272965 0.418161978661 0.314039906293 0.281756670497 0.258175856415 0.265146600934 0.29644746158 0.358615004122 0.42099825147 0.54698088399 0.625264204901 0.808876811594 0.815750615258 0.676734552986 0.537424140255 0.377096157929 0.591061278517 0.33018565395 3
0.629044191833 0.591938405797 0.586317722681 0.476250449803 0.398281849754 0.345107398569 0.275604699378 0.260590500642 0.201033464567 0.180104267701 0.146821229502 0.142474147836 0.157649495211 0.18033212247 0.217358710591 0.292486161818 0.352885073916 0.411145949228 0.457292055204 0.545591787438 0.528630024612 0.486365205384 0.523432231963 0.508596900871 0.638635832749 0.614220505857 2
0.188941951973 0.129642210146 0.134833180288 0.22040302267 0.369036739171 0.512649164678 0.654595715272 0.739642898821 0.700213254594 0.671253637245 0.598109701914 0.598429720414 0.581212068916 0.624610793982 0.657407021781 0.722176422094 0.741615005563 0.697076969759 0.629988810148 0.585597826085 0.433470057424 0.23610631688 0.161328388402 0.115368286988 0.199330374524 0.105749745843 9
0.73673236026 0.709352355074 0.666054484236 0.591399784096 0.489307256445 0.424343675419 0.337111264686 0.263741393395 0.17249015748 0.125606207565 0.0933435657161 0.0808438656964 0.0741220122529 0.0880254281271 0.104118945483 0.148392415498 0.187807979653 0.255385860221 0.345144846451 0.493810386472 0.591468416735 0.688643424231 0.739716790291 0.650604967099 0.822704975474 0.672031822491 6
0.652855317145 0.903872282609 0.711509029691 0.213026268442 0.014074209468 0.0092283213999 0.0172771250865 0.0141206675223 0.00885826771655 0.00539524733268 0.0050084821068 0.00465977275629 0.00402680702965 0.00544888427609 0.00545583274333 0.0114238605582 0.0152598950883 0.0351977343988 0.0325749098595 0.0727657004829 0.0797374897455 0.11080428029 0.405428186107 0.932180004246 0.696021178852 0.987950574154 5
0.678280756037 0.472146739131 0.608050198958 0.500719683339 0.40541034546 0.388385043754 0.435245335177 0.474967907575 0.416420603675 0.343840931135 0.228734146539 0.186039831482 0.155204648086 0.144622470161 0.149598100871 0.190731362619 0.236448895247 0.270355011632 0.316797214969 0.404589371979 0.495488105004 0.604418363825 0.700944032368 0.493313521545 0.639336603597 0.587522089475 8
0.442321921034 0.283288043478 0.291398836852 0.437027707809 0.533723268141 0.54399363564 0.481686247407 0.478352199791 0.402395013124 0.364391367604 0.322562404071 0.321651985191 0.31803146662 0.344641930463 0.380408979218 0.460016488046 0.500397393102 0.561646606656 0.526544821586 0.550120772946 0.459721082855 0.331032102177 0.313047875928 0.352260666525 0.415167795687 0.426021574339 1
0.642564068069 0.632019927535 0.574074074072 0.385930190719 0.279108024128 0.227207637231 0.190186592951 0.185785972692 0.147883858268 0.1351842871 0.11002504241 0.119366781566 0.131705352777 0.162136741048 0.185873141476 0.24007772936 0.287553648068 0.348235056134 0.385055327616 0.428140096619 0.480721903199 0.454780807732 0.583614295347 0.536404160477 0.517636066339 0.703090138712 4
0.221362749714 0.135303442028 0.115549433731 0.220582943505 0.383476512522 0.529355608593 0.651831375259 0.72038744311 0.683891076116 0.664949078565 0.585467323693 0.568651857527 0.562659993671 0.625875713545 0.654949814668 0.725827346603 0.728421554601 0.698897542229 0.598657217457 0.559027777778 0.423625922889 0.22437003797 0.164194200944 0.127467628953 0.206182356146 0.120971868752 9
0.522903073922 0.448029891305 0.532139577595 0.565491183882 0.582891610311 0.474940334127 0.436351071182 0.38592601237 0.307168635171 0.285584384093 0.238912674691 0.240871951998 0.253027295999 0.292715360665 0.3540877098 0.439759745614 0.514544587505 0.580863760495 0.643167972151 0.674516908213 0.608039376537 0.526924404555 0.501180040458 0.375928677562 0.555321965273 0.432414729501 2
0.682249276921 0.687273550726 0.767217630855 0.607232817562 0.436848839338 0.312808273667 0.275051831376 0.240168047614 0.186761811024 0.160341901067 0.121980773891 0.114292097536 0.112405441942 0.130092112092 0.138936320853 0.172241196561 0.212764266413 0.279660159805 0.323138132539 0.446859903381 0.538802296963 0.627718329308 0.771746459877 0.617066440245 0.661683407304 0.660596467047 7
0.762292325283 0.373414855074 0.637434955616 0.741093918677 0.686346188996 0.592203659507 0.513752591571 0.481619792274 0.386318897638 0.338203200776 0.241659261653 0.192806076855 0.172376103777 0.181564608199 0.211861230269 0.288305264398 0.354713082181 0.486092849197 0.532015417133 0.636020531398 0.668908941757 0.651881256475 0.659474039108 0.418382509022 0.737600249162 0.459010800815 3
0.681240330934 0.793251811595 0.793847566575 0.44404462037 0.19320051179 0.149244232299 0.12605390463 0.0981444742679 0.0686515748032 0.0447381183318 0.0293238549155 0.0243521000894 0.0259153795265 0.0262714063311 0.034026071384 0.0634200918619 0.0770942616435 0.121472640842 0.1519333582 0.254528985507 0.314027891714 0.396789782536 0.666554281861 0.853215877735 0.792416102156 0.857453791201 5
0.710365238447 0.440557065219 0.544995408632 0.46491543721 0.47943703162 0.478440731902 0.480718728405 0.501225347181 0.434793307087 0.36166343356 0.251029970111 0.195199795736 0.167572698248 0.159639335756 0.164049810504 0.196502178778 0.239310125577 0.289268736726 0.351734427454 0.489583333333 0.587202625103 0.606144287196 0.669925826028 0.491827637444 0.670014794052 0.54904716743 8
0.729669738346 0.720788043479 0.552647689013 0.524829075207 0.462803874979 0.395385839299 0.343469246717 0.290232232466 0.202263779528 0.147854025218 0.10336052993 0.085375973446 0.0771421175252 0.0861442656985 0.111074091042 0.158108585562 0.196868542362 0.285526448871 0.354842720378 0.490640096616 0.572108285482 0.618570935452 0.672791638569 0.643281681173 0.849567857977 0.670981079809 6
0.29064370754 0.275475543479 0.209825528007 0.262324577187 0.371778468289 0.433890214797 0.490532135452 0.510211226515 0.438976377954 0.418646944715 0.358268034574 0.350695774288 0.345960249661 0.377594706799 0.407771438091 0.480803203392 0.502861230329 0.537979164559 0.482655725477 0.456672705314 0.347826086956 0.211253020366 0.234322319623 0.318509870515 0.31184302733 0.450584390329 1
0.599717495123 0.390624999999 0.516528925621 0.522670025188 0.512520562968 0.479713603819 0.433863165168 0.383825417201 0.306840551181 0.286311833172 0.240851441958 0.228201200051 0.254005234849 0.301148157759 0.359335304652 0.446531621717 0.510491177873 0.578942045109 0.597413900288 0.658212560386 0.600492206727 0.531584397653 0.494605529334 0.333899384421 0.41695865452 0.450693558402 4
0.529024012913 0.341598731884 0.560606060607 0.715725080968 0.725644306342 0.68846459825 0.636765722186 0.554090325594 0.428067585302 0.377000484967 0.300226189514 0.287405847058 0.282768142203 0.298099377271 0.343842405564 0.436344364621 0.503894452391 0.625366643066 0.696257615318 0.794384057971 0.764725184578 0.70003451847 0.598111935268 0.30736573976 0.488670871291 0.33281251066 7
0.40263671218 0.341485507245 0.405111723294 0.533645196113 0.568086273079 0.562291169453 0.527436074639 0.504726339129 0.410761154856 0.386517943744 0.337547459407 0.339110174901 0.341933442632 0.390600674625 0.451084919411 0.551701801908 0.619535844857 0.684939819966 0.691657341789 0.681763285022 0.571452009845 0.417155678288 0.333277140932 0.276162173638 0.459783539672 0.323505932602 2
0.479720185645 0.202332427537 0.378940924396 0.604713925875 0.71723633705 0.74399363564 0.751347615759 0.746411483253 0.598999343833 0.49842386033 0.387793844414 0.375781948168 0.402536888428 0.44557602491 0.493523801591 0.588152161111 0.673740263869 0.725295843027 0.711053089643 0.750754830916 0.694175553734 0.583879875734 0.514329062709 0.223731691784 0.349840379973 0.184726022256 9
0.580009416829 0.265511775362 0.415212733393 0.606153292553 0.725644306342 0.706284805089 0.707947477542 0.672540553158 0.517716535434 0.472053831232 0.368002261896 0.320822162646 0.264618747662 0.272963155164 0.304943567532 0.374160876221 0.457002066443 0.535248305857 0.582991421111 0.656853864733 0.621657095982 0.591128753886 0.533041132838 0.357779664614 0.550961613329 0.344807352468 3
0.570659850676 0.223958333333 0.334098561369 0.481288233176 0.61030890148 0.703420843279 0.79557705598 0.925195472052 0.817995406824 0.72278128031 0.525971403183 0.397580748117 0.305951045531 0.247567462377 0.255549539794 0.32063361206 0.393101255763 0.480125417215 0.573666542335 0.666515700482 0.70697292863 0.682257507767 0.59035738368 0.306410528551 0.534610293546 0.260024699276 8
0.656689311898 0.647531702898 0.773339455157 0.637999280318 0.476878084445 0.376770087508 0.300760193504 0.251838020773 0.165600393701 0.131304558681 0.0883350836093 0.0719392314567 0.0690309776511 0.078035806954 0.0900837116322 0.135143092686 0.169766332856 0.236674420956 0.301877408928 0.430404589373 0.524692370796 0.600966517087 0.744268374918 0.683506686478 0.780892314879 0.70780483478 5
0.673101499966 0.574501811595 0.525711662075 0.636919755308 0.639736794006 0.575338106601 0.468832066343 0.402380674526 0.278871391077 0.208777885549 0.158413442119 0.141644325291 0.133833807921 0.146957706279 0.163758277456 0.213402426098 0.265140677158 0.371902498231 0.448215839861 0.607789855073 0.673174733389 0.666206420435 0.671948752529 0.548397367863 0.794129097563 0.562379318109 6
0.37283917401 0.277400362319 0.342209978573 0.434508816123 0.514713946263 0.531105807478 0.513890808569 0.545804644649 0.483677821522 0.444774490785 0.38537038533 0.394452955445 0.420657520062 0.502983912819 0.557994252634 0.646802496761 0.71244635193 0.725801557601 0.665423349499 0.636322463768 0.512551271533 0.352433551951 0.269386378962 0.19507535555 0.265592151366 0.257752638796 4
0.531647272482 0.317255434783 0.423018059383 0.6156890968 0.756534454396 0.696260938742 0.639391845197 0.609405998367 0.465141076116 0.384578079535 0.286735600614 0.257915230435 0.244801104495 0.291126102751 0.325017700221 0.439406430339 0.530440311557 0.613735207849 0.656471465871 0.692783816424 0.624610336343 0.477217811528 0.396325016858 0.332307365741 0.533053024993 0.379529622073 1
0.337391538306 0.1553442029 0.282522191612 0.47013314142 0.604459879364 0.657120127288 0.706012439533 0.741976893453 0.67593503937 0.640215809893 0.522295823572 0.476956466233 0.437598872494 0.432732226259 0.464203906543 0.541691202449 0.599586711175 0.645898654801 0.659331095362 0.702445652172 0.642821985232 0.48066965827 0.33833445718 0.196879643387 0.344779257184 0.191944760955 7
0.507230779579 0.256793478262 0.439240893785 0.620367038506 0.753975507221 0.73015115354 0.706565307533 0.673940949937 0.517388451444 0.417252667313 0.325510945957 0.314566577301 0.324963327293 0.397898287494 0.448211236516 0.581144741491 0.670084247338 0.760999291999 0.774462265325 0.793629227054 0.673831009022 0.464100793927 0.380141604855 0.256845680322 0.4499727478 0.249837953644 2
0.605300329589 0.314764492755 0.387205387205 0.637099676145 0.770608663866 0.749403341287 0.682377332412 0.649667405765 0.528871391077 0.431195441319 0.328944179659 0.28000127665 0.239767595708 0.253729891022 0.289492316022 0.365563537864 0.452710220951 0.594214625265 0.682829789879 0.754076086957 0.732075471697 0.639627200553 0.503877275794 0.366907238379 0.618702795296 0.345551059953 3
0.507230779579 0.218523550725 0.359044995407 0.58672184239 0.768049716691 0.802227525854 0.786316516933 0.734274711169 0.574639107612 0.488542677012 0.394014056062 0.377665007022 0.375039548997 0.428126621692 0.4721169464 0.570309739724 0.632252424097 0.733994133711 0.74424965809 0.782004830917 0.696636587368 0.509319986195 0.366992582604 0.219910846955 0.433309974306 0.196052209629 9
0.364162238514 0.108469202899 0.193602693603 0.336631881973 0.524035825264 0.633890214797 0.729785763648 0.892869646401 0.944799868768 0.96787099903 0.736368042653 0.579503383123 0.454453936204 0.393584587442 0.400941235267 0.459545401013 0.576219996821 0.644179225247 0.659206763647 0.653532608693 0.579655455292 0.431826026926 0.336311530679 0.17331776693 0.344312076618 0.112408998178 8
0.59991928432 0.534080615943 0.656106519742 0.612630442609 0.51581063791 0.404614160699 0.337387698686 0.319173765902 0.239665354331 0.200594083414 0.156676629776 0.145059364229 0.138292058561 0.146730669434 0.155053933614 0.175538805794 0.195358448577 0.257307575604 0.305234365287 0.437198067632 0.521082854797 0.564722126337 0.692852326364 0.577584376989 0.719458070543 0.642631496353 5
0.529494854375 0.479846014492 0.438169574534 0.556135300467 0.560409431549 0.558313444709 0.489979267451 0.44077488622 0.322916666667 0.249151309409 0.187939251959 0.172156261969 0.164063623551 0.187272963156 0.216192578401 0.286126486868 0.345414083612 0.425508243149 0.500186497575 0.562801932366 0.58785890074 0.540731791509 0.52680377613 0.501910422415 0.61130576968 0.559697877362 6
0.370821282034 0.261096014494 0.378787878787 0.573047858943 0.637543410712 0.644868735083 0.657774706292 0.645349515697 0.518618766405 0.456474296799 0.37999838436 0.390846418997 0.428970000287 0.518908925792 0.586314605805 0.676834295137 0.692815132728 0.690806109032 0.6486385677 0.674365942028 0.588515176373 0.419917155681 0.30681051922 0.217575886223 0.358794674142 0.199975437184 4
0.544629044192 0.321784420289 0.46127946128 0.612270600936 0.667519649061 0.650119331743 0.59571527298 0.593418135139 0.450623359581 0.370029097963 0.275426124888 0.252936295162 0.231570167112 0.260832900883 0.28836783141 0.376339653751 0.465983150531 0.580964903408 0.641302996395 0.701237922705 0.639704675964 0.513634794616 0.468476062037 0.374018255149 0.601339250954 0.407940612568 1
0.490078697787 0.225769927537 0.446893174165 0.726700251893 0.91189910437 0.901034208434 0.813407049067 0.759948652118 0.600557742782 0.49806013579 0.402900072704 0.391133665263 0.36945954497 0.391379086664 0.392153596268 0.436344364621 0.492052137975 0.591281480732 0.710928757928 0.864885265698 0.838063986873 0.726786330686 0.515677680379 0.242517512207 0.448649069532 0.202206559636 7
0.535683056432 0.269701086956 0.51775329048 0.653112630443 0.766770243101 0.724264120924 0.637456807188 0.599953320109 0.455380577429 0.384093113481 0.308910251232 0.301863909103 0.311703627003 0.375616242866 0.441797509475 0.548050877399 0.64250516611 0.697886113078 0.75083923909 0.840579710145 0.796390484005 0.577839143942 0.403910991236 0.25790702611 0.483376158219 0.268321472677 2
0.750924867154 0.296761775362 0.486225895317 0.742713206191 0.85286053738 0.759904534607 0.676295784381 0.602170615008 0.451689632546 0.383790009699 0.273931658454 0.224020171071 0.203555095349 0.217501297353 0.252342676274 0.331645271464 0.424415832141 0.554870031355 0.648514235982 0.781853864732 0.8 0.741801863996 0.594234659472 0.375185735513 0.71167172779 0.36875609806 3
0.564135333288 0.246829710146 0.41368227732 0.459517812163 0.520197404499 0.566109785201 0.610919143055 0.700781888203 0.691683070866 0.633244422891 0.488327005413 0.385197242436 0.310581873615 0.288077322263 0.283786597809 0.341302555647 0.392068033699 0.446040254881 0.505657093124 0.561594202898 0.545693191141 0.517949603037 0.524106540794 0.330927616217 0.515455890368 0.327872655444 8
0.205757718437 0.0892210144918 0.15564738292 0.287873335733 0.492048985563 0.645346062052 0.758673116796 0.824366903958 0.722030839895 0.679861784675 0.572421035625 0.563864419763 0.54560358961 0.659769071096 0.676731498063 0.791779531269 0.830313145764 0.800849600486 0.731194827803 0.637077294685 0.478096800658 0.24335519503 0.157282535401 0.0977499469327 0.206182356146 0.0574428743948 9
0.529360328244 0.483355978262 0.434343434342 0.512054695936 0.546700785964 0.544311853618 0.448514167243 0.403197572645 0.292404855644 0.248363239573 0.186727522417 0.165485765352 0.163488365404 0.183445770628 0.210528507767 0.272288305264 0.309092354157 0.403661373521 0.458286708939 0.582276570048 0.58146021329 0.50621332413 0.479770734997 0.53141583528 0.646577902359 0.578986510919 6
0.700275778569 0.67244112319 0.744413835323 0.453580424612 0.309632608299 0.249960222752 0.214236351071 0.165246819932 0.117536089239 0.0923254122211 0.0693109298004 0.0555342780544 0.0527224091811 0.0601323300468 0.0725084336345 0.0996937934283 0.142028294389 0.191261252149 0.260101952009 0.391455314008 0.458080393764 0.502416292716 0.649022252193 0.702610910634 0.798255859224 0.778177302593 5
0.510526669805 0.268115942029 0.47704315886 0.593738754951 0.653811003472 0.631185361974 0.595162404976 0.56132570895 0.442585301837 0.373726964112 0.317553921965 0.334705732159 0.389305951045 0.49516735859 0.551705468327 0.644211518078 0.683118741058 0.709416405382 0.700609225414 0.771890096617 0.718949958983 0.519675526408 0.42178017532 0.211950753557 0.383555244101 0.226728437599 4
0.700006726307 0.485054347828 0.62764003673 0.711406980931 0.645951380004 0.53412887828 0.446993780237 0.385225813981 0.297408136483 0.245938409312 0.185798529768 0.163953785267 0.156383927287 0.177672548002 0.226521177794 0.311094099635 0.37656970275 0.475169414383 0.541961954496 0.647946859901 0.673666940116 0.615464273386 0.561867835467 0.466673742307 0.709024371254 0.508416175979 1
0.572946794914 0.308310688405 0.656871747778 0.931270241097 0.934746847013 0.793317422432 0.669661368349 0.604971408567 0.457431102362 0.401127546072 0.305880927377 0.274192518831 0.258952454914 0.271081992735 0.295239681813 0.360970439288 0.410268637735 0.509254576717 0.596667909986 0.759661835748 0.820344544707 0.819123230927 0.722859069453 0.326788367651 0.590204780814 0.326426178503 7
0.794040492365 0.557404891305 0.713039485765 0.676142497302 0.565344543961 0.422116149561 0.361299239807 0.3103045863 0.245078740157 0.201745877788 0.15542450925 0.129133154602 0.115454310121 0.123216139077 0.142642955312 0.183488399482 0.247178508982 0.341863052494 0.415640930002 0.569897342994 0.627235438884 0.664653089403 0.700101146327 0.517830609213 0.854473253912 0.588982212426 3
0.579605838434 0.225203804347 0.429599020508 0.512054695936 0.58636446719 0.605250596659 0.668002764341 0.727972925664 0.716863517061 0.653370514063 0.467242911382 0.370675347888 0.299019184859 0.282012195123 0.274332597559 0.328818749264 0.396995708155 0.464549408314 0.503419122217 0.561594202898 0.600328137816 0.612357611321 0.616992582603 0.318722139674 0.5195047886 0.314786132926 8
0.566018699131 0.392663043478 0.600244872973 0.705109751711 0.65015536465 0.580270485283 0.501727712511 0.429571711984 0.341617454069 0.292070805043 0.232086598271 0.225169156134 0.233152127016 0.270790088221 0.333014035234 0.468083853492 0.568590049277 0.668959239405 0.710431431059 0.784420289852 0.694175553734 0.556782878841 0.513991908294 0.3479091488 0.562485400606 0.397303548644 2
0.733436470034 0.79245923913 0.741965105599 0.358222382155 0.154267958326 0.117104216388 0.089564616448 0.0685027424439 0.0405183727034 0.0284917555771 0.0216495678164 0.0169475296821 0.0157045474156 0.018130513752 0.0265295073091 0.0473442468496 0.068669527897 0.111965206837 0.137137883874 0.216787439613 0.275471698113 0.333103210216 0.603000674311 0.811611122903 0.798723039789 0.891111672112 5
0.561646599852 0.447010869565 0.462197734926 0.598596617488 0.600255894718 0.551153540176 0.485003455425 0.401096977476 0.296259842521 0.254000969932 0.199208336699 0.20254053364 0.196651997584 0.215393098081 0.229769688892 0.27399599576 0.292083929424 0.367553352889 0.439885614821 0.575634057971 0.684659557015 0.625129444254 0.608900876604 0.52122691573 0.649225258897 0.531894134263 6
0.263200376673 0.125339673914 0.213651668197 0.407700611731 0.613598976422 0.717263325379 0.793089149967 0.803010853074 0.659120734909 0.609662948593 0.506381775588 0.51599004213 0.537895130439 0.624351323301 0.683061929949 0.783005535273 0.782546494992 0.766461009407 0.672137262217 0.622433574877 0.502707136998 0.315843976528 0.216790289953 0.118870728083 0.260920345714 0.0758922784049 9
0.420259635433 0.231884057971 0.385368839913 0.486685858223 0.568086273079 0.589180588701 0.600829302004 0.550472633912 0.456200787401 0.423496605238 0.370627675902 0.400804289544 0.458710846492 0.574468085107 0.616550747574 0.651925568249 0.673183913526 0.642358652778 0.626631853788 0.671648550723 0.54290401969 0.411114946496 0.353169251517 0.211207811505 0.332632562485 0.209943846673 4
0.545368937916 0.420742753624 0.469390878483 0.552536883771 0.564065070371 0.514558472555 0.448375950241 0.411833352784 0.336532152231 0.286918040736 0.23455044834 0.222009447211 0.210371904392 0.233199273483 0.250593477989 0.323342362501 0.386584008902 0.468595124911 0.488374984459 0.572161835749 0.517145200986 0.454263030721 0.504383007419 0.460730205902 0.587557424278 0.517149621664 1
0.605636644918 0.271625905799 0.520967248241 0.756207268802 0.827819411443 0.810342084329 0.734208707671 0.653401797176 0.479330708661 0.410523763337 0.309879634865 0.264777224563 0.247159662898 0.273384795019 0.343134396734 0.439229772701 0.531394054998 0.645999797714 0.715653363175 0.784118357486 0.740114848238 0.591646530897 0.52781523938 0.303757164084 0.641672506424 0.309054809193 7
0.748772449047 0.606317934782 0.684419957148 0.559733717168 0.449460793275 0.3446300716 0.298134070491 0.261057299568 0.212598425196 0.185802618817 0.142903303982 0.119781692838 0.117582765266 0.119875454074 0.146974303445 0.190731362619 0.231203306311 0.321937898251 0.382941688427 0.51826690821 0.578506972928 0.630652399035 0.659811193528 0.545107195926 0.70785641984 0.640161568745 3
0.669603820542 0.256793478262 0.554790327518 0.648974451242 0.668433558766 0.690533015113 0.658742225294 0.687828217996 0.627952755907 0.566076624637 0.399830357864 0.318939103792 0.262173900538 0.246886351843 0.252550914164 0.305264397598 0.342632331903 0.387781935876 0.433047370385 0.493357487921 0.539458572601 0.594580600623 0.666048550236 0.369666737424 0.611539359963 0.357859759965 8
0.560301338535 0.568048007248 0.608815426995 0.495142137461 0.439773350394 0.400954653937 0.354111955772 0.335044929397 0.274114173227 0.261336081475 0.224129574279 0.211157921614 0.221704489889 0.253210949663 0.30635958519 0.395006477447 0.471069782228 0.546070597755 0.610344398858 0.708937198065 0.668252666119 0.591128753886 0.565239379638 0.41615368287 0.57634509071 0.473523331262 2
0.718235017152 0.762681159422 0.758647076829 0.414537603455 0.167976603912 0.114240254574 0.0937111264688 0.0696697397596 0.0358431758531 0.0283098933075 0.0212860489538 0.0193412485637 0.0161072281186 0.0184548521017 0.0251134896506 0.0451654693204 0.0617548879351 0.102356629918 0.129180653985 0.2086352657 0.235274815422 0.300483258542 0.568105192179 0.832944173211 0.779646500039 0.897907384537 5
0.156453891169 0.0928442028976 0.140036730946 0.289852464916 0.447450191924 0.598249801114 0.692328956464 0.777570311588 0.703658136483 0.716052376333 0.617901284433 0.614004851271 0.601144763713 0.638460041517 0.65007704802 0.734012483807 0.790414878397 0.758774147871 0.690662688054 0.594051932366 0.405414273996 0.215050051778 0.143796358732 0.0981744852475 0.182745464455 0.0711093522915 9
0.566489540593 0.421082427537 0.416896235076 0.587261604895 0.710107841349 0.662848050913 0.618797512093 0.53915275995 0.401000656169 0.313591173617 0.234308102431 0.193667815652 0.176517962435 0.193857031656 0.21760859606 0.305499941114 0.385550786838 0.499342571054 0.621409921671 0.73701690821 0.76915504512 0.670866413533 0.587997302764 0.440776905115 0.665732305537 0.465124212795 6
0.598708549135 0.356770833333 0.556779920415 0.589420654914 0.543776274903 0.495942720764 0.475466482378 0.420585832653 0.340551181102 0.312863724539 0.254422812828 0.267553938465 0.287830413898 0.359853399067 0.379117904293 0.46254858085 0.504053409633 0.553555173462 0.615069004105 0.686896135266 0.700082034453 0.640662754575 0.566250842888 0.310868180853 0.482519660514 0.384858388543 4
0.358982982445 0.266191123188 0.280073461892 0.365779057215 0.471942972038 0.507716785996 0.534485141673 0.574862877817 0.471210629921 0.445138215324 0.356046530414 0.328322481808 0.317686311732 0.333776595745 0.362583815751 0.449122600401 0.505563503417 0.560534034592 0.512371005845 0.54981884058 0.483182936834 0.341732827062 0.338840188805 0.345468053492 0.416647200809 0.41726765964 1
0.621376202328 0.530457427537 0.756351392714 0.734616768621 0.661487845002 0.489419252188 0.387284035936 0.336095226982 0.267224409448 0.242483026187 0.198885208822 0.176305374697 0.176287859177 0.202127659575 0.224397151305 0.279001295489 0.318232395485 0.373925356529 0.430063409176 0.556914251205 0.676292042657 0.728167069385 0.762474713417 0.463383570367 0.598691894418 0.525732961252 7
0.690791686285 0.362318840579 0.57759412305 0.706189276721 0.731493328459 0.628639618137 0.573185901867 0.542770451628 0.416174540682 0.360693501455 0.279424832377 0.234616366654 0.212730462795 0.226971977167 0.270542667944 0.340301495701 0.392862819902 0.46121169212 0.541215964194 0.677536231884 0.746513535685 0.673282706249 0.609069453809 0.388240288687 0.653741337694 0.409346151484 3
0.636913970538 0.293817934782 0.496939087849 0.579884850666 0.551818680314 0.543675417662 0.591568762958 0.636363636363 0.594980314962 0.516913191076 0.3724856612 0.29327843738 0.248655334081 0.221263622211 0.220315688642 0.261924390532 0.30662851693 0.369576211187 0.424219818475 0.556763285024 0.624610336343 0.679668622713 0.681051921778 0.396412651242 0.569337382231 0.414804555036 8
0.497477635031 0.387115036232 0.562748699112 0.630262684421 0.577590934018 0.541766109785 0.522736696613 0.4687828218 0.362942913386 0.329595053345 0.275102997011 0.271926464956 0.27399545546 0.33400363259 0.403315147224 0.494994700271 0.592592592593 0.708910690808 0.768121347758 0.833937198067 0.778506972928 0.595616154645 0.455495616991 0.283060921248 0.530094214746 0.343422282567 2
0.751328445549 0.700181159419 0.794765840221 0.579884850666 0.387680497168 0.31169451074 0.272563925363 0.210643015521 0.127706692913 0.0945683802134 0.0652314403425 0.0544810417465 0.049558489372 0.0558510638299 0.0697180458957 0.112413143328 0.154188523287 0.242439567109 0.304364043268 0.42859299517 0.533880229698 0.571798412151 0.665542818611 0.683400551901 0.803628435724 0.739245239248 5
0.30281832246 0.14017210145 0.265993265993 0.430550557754 0.576677024313 0.669053301512 0.729371112646 0.731824016805 0.625574146983 0.57741270611 0.5134905889 0.528437380315 0.523254810595 0.575149195642 0.657573612094 0.766046402073 0.815291686537 0.827551330029 0.730821832652 0.646739130434 0.479737489745 0.338280980324 0.230950775455 0.115368286988 0.249085104726 0.0905617379545 9
0.670209188134 0.504868659419 0.635445362719 0.534904641958 0.454030341802 0.391089896577 0.371389080858 0.331660637181 0.264927821522 0.23120756547 0.19298812505 0.187284565301 0.203583858256 0.23663725999 0.284411311482 0.364915793192 0.420759815609 0.493981996562 0.529777446229 0.622433574877 0.602132895818 0.582326544702 0.597437626433 0.372107832733 0.533909522698 0.516617427317 4
0.616264209323 0.514039855074 0.532445668809 0.593558834114 0.580332663136 0.540652346856 0.465376641327 0.406348465399 0.288549868767 0.22750969932 0.167218676791 0.146208349291 0.137170305175 0.156298650753 0.179126233809 0.24649629019 0.291209664599 0.401233943562 0.470968544076 0.59042874396 0.611648892536 0.590610976875 0.623061362105 0.532583315644 0.712761815775 0.573282479206 6
0.29454496536 0.271059782608 0.213957759412 0.30676502339 0.395905684521 0.489419252188 0.499378023496 0.523048196989 0.461778215223 0.439561105723 0.356369658293 0.343163538874 0.313371875629 0.315775817333 0.334346757736 0.394653162172 0.427753934192 0.471224840699 0.456546064902 0.488375603866 0.370139458574 0.26838108388 0.271072151045 0.364784546807 0.376236081913 0.482202192913 1
0.530234748099 0.474411231885 0.620140801959 0.637279596977 0.602266496069 0.545743834525 0.508085694542 0.454428754813 0.349901574804 0.312196896217 0.252766782454 0.237680326822 0.222078407685 0.249189154126 0.269793011537 0.309504180898 0.343268160864 0.410437948822 0.504662439389 0.632397342996 0.659885151765 0.642906454952 0.686446392446 0.461367013374 0.550182979055 0.4657451062 7
0.478105872066 0.245357789854 0.368686868688 0.451781216267 0.572655821605 0.64566428003 0.687076710438 0.774419418837 0.719078083991 0.6439742968 0.468414249939 0.390048512703 0.336986222567 0.301926569799 0.296780642206 0.342303615592 0.370688284852 0.434004248003 0.498321521823 0.610356280193 0.691878589009 0.672937521576 0.6008091706 0.332731904054 0.463910301332 0.302907282192 8
0.557409026702 0.258605072464 0.368992959902 0.612990284277 0.712301224638 0.685282418457 0.693434692469 0.630061850858 0.510088582679 0.468659068865 0.371395104613 0.334226988382 0.297235884603 0.310002594707 0.346757736038 0.441879637263 0.530440311557 0.613330636188 0.621907248541 0.665458937196 0.610664479082 0.456334138765 0.423634524611 0.326682233072 0.488515144437 0.324856887482 3
0.365911078226 0.298460144927 0.441536577899 0.566210867219 0.605373789073 0.567859984091 0.530200414652 0.476951803011 0.395423228347 0.380516488846 0.347564423621 0.371377505426 0.389507291397 0.434807991698 0.513556286702 0.640678365329 0.732713400095 0.780823303328 0.73455178416 0.73233695652 0.583757178014 0.393510528132 0.323836817263 0.228189344089 0.382231565833 0.268915074063 2
0.659379834532 0.553894927538 0.679828588919 0.699892047501 0.589654542132 0.497056483689 0.380926053905 0.302952503208 0.20439632546 0.157492725509 0.115518216334 0.102610749394 0.0952339862514 0.100609756098 0.111240681354 0.148039100223 0.199173422349 0.284211590979 0.35944299391 0.474335748793 0.592945036916 0.602347255781 0.738705327041 0.646147314795 0.786654208519 0.653787108614 5
0.362951503329 0.178102355074 0.263085399449 0.404282115872 0.620544690186 0.685918854413 0.718175535591 0.695180301085 0.600147637795 0.573411736179 0.479440988771 0.476126643687 0.48428107113 0.546931759212 0.608387822248 0.706807207632 0.739389604196 0.770709011833 0.715280368024 0.694897342993 0.538310090236 0.328098032446 0.257248819959 0.152409254934 0.301020010901 0.132236649086 9
0.577318894195 0.375113224637 0.514233241506 0.573587621447 0.55730213855 0.486077963404 0.488458880444 0.491072470533 0.376312335958 0.32638215325 0.259714031828 0.250287246266 0.272614835907 0.321613907629 0.374411727958 0.467318337063 0.538070259101 0.58571862041 0.605495461893 0.681763285022 0.658080393764 0.532619951674 0.51753202967 0.314689025685 0.441096317059 0.400790103914 4
0.617474944507 0.526154891305 0.455463728191 0.549658150416 0.585998903309 0.561495624501 0.521078092604 0.432956004203 0.30536417323 0.224781765277 0.156595847807 0.131558789736 0.123651738718 0.148871302543 0.182166507018 0.256742433165 0.328405658877 0.441792252452 0.524431182394 0.607185990337 0.636751435603 0.599585778393 0.554281861093 0.518785820421 0.70178307249 0.572647939792 6
0.371023071231 0.25249094203 0.264003673094 0.375854623967 0.423871321515 0.477963404933 0.530891499655 0.532500875247 0.486958661417 0.466173617847 0.412270781162 0.404378909741 0.38056202721 0.378729891023 0.384823622506 0.415498763396 0.442695914798 0.481844846768 0.47544448589 0.491847826088 0.41263330599 0.313427683813 0.311024949427 0.3056675865 0.373277271666 0.396266451969 1
0.466200309411 0.239583333334 0.454698500154 0.61047139259 0.706086638641 0.711535401749 0.751624049759 0.697397595987 0.585383858268 0.517337536373 0.410816705711 0.371026426657 0.357839330399 0.378697457188 0.40177418683 0.482039806855 0.539898267366 0.635784363306 0.662936715156 0.787439613527 0.78146021329 0.639454608215 0.505900202295 0.247187433665 0.430818344624 0.237467846592 7
0.416291114549 0.152740036231 0.269207223753 0.426412378553 0.629501005301 0.738902147971 0.789495507949 0.900688528418 0.834399606299 0.811954413191 0.628645286372 0.511553683136 0.407541634308 0.345387908667 0.358585648245 0.434754445884 0.505007153076 0.587741478709 0.638816362055 0.710748792269 0.691878589009 0.546599930962 0.425488873906 0.227764805773 0.412442575722 0.162537611811 8
0.597834129279 0.302649456521 0.464034282217 0.733177401944 0.863644671909 0.795704057278 0.718037318592 0.635313338778 0.500000000001 0.41537342386 0.31068745456 0.265351717094 0.235194293439 0.258465230929 0.2895339636 0.377694028972 0.443808615482 0.540912309092 0.602387168968 0.729921497585 0.752091878587 0.657921988267 0.511800404587 0.368923795372 0.673596511718 0.34571481206 3
0.528216856125 0.498528079711 0.422405876951 0.432169845267 0.462803874979 0.490533015117 0.460124395301 0.421052631581 0.318241469817 0.236239088264 0.153081832135 0.117707136474 0.103172548681 0.116015827712 0.138478197493 0.189494759156 0.222858051184 0.284717305552 0.339425587468 0.412439613524 0.440196882691 0.410942354158 0.504720161834 0.583421778815 0.670092657478 0.68342623991 5
0.511266563529 0.342617753623 0.552647689013 0.820079165168 0.892524218611 0.804136833731 0.671872840359 0.565993698216 0.420439632546 0.360208535403 0.275143387996 0.273490361293 0.287456496102 0.325343798651 0.348381991587 0.428100341539 0.486886027658 0.594113482352 0.706204152681 0.923611111111 1.0 0.845529858476 0.596931894808 0.31575037147 0.480028030835 0.302347795827 2
0.5164458196 0.164628623187 0.321701867155 0.543540842033 0.726009870228 0.806364359585 0.769039391847 0.750029174935 0.577755905512 0.494786614937 0.3777768802 0.373356313035 0.397474616734 0.465425531916 0.542543001125 0.664056059357 0.734064536639 0.771922726812 0.770110655229 0.753321256036 0.69319114028 0.524680704178 0.413857046526 0.201974103163 0.439149731371 0.156983686195 9
0.564942490078 0.487545289855 0.417355371899 0.504318100035 0.555474319136 0.561654733492 0.526053904631 0.474267709185 0.333005249345 0.266125121241 0.187091041279 0.156708796119 0.141340926741 0.157985210171 0.196160093291 0.278471322577 0.355825782865 0.465156265804 0.523685192092 0.648550724637 0.641509433962 0.594235415946 0.539784221176 0.487582254299 0.703651794751 0.550473175357 6
0.375058855182 0.21490036232 0.317263544535 0.432349766104 0.533906050083 0.569291964994 0.607878369042 0.605788306686 0.512959317587 0.483753637245 0.408312464658 0.431954551258 0.445479909109 0.527666061236 0.575986006414 0.647921328465 0.672786520426 0.648427227673 0.645032947906 0.673611111111 0.598687448729 0.399723852262 0.305124747134 0.185204839736 0.246515611616 0.222580050899 4
0.30053137822 0.246490036232 0.213957759412 0.320079165166 0.43410711022 0.475576770088 0.502971665517 0.564126502509 0.514927821522 0.486542192046 0.41780434607 0.379548065875 0.352460666724 0.351161131293 0.370330265295 0.40607702273 0.429979335558 0.449580256904 0.413402959095 0.422554347824 0.340771123872 0.239385571281 0.275455158463 0.35809806835 0.370474188273 0.437095310548 1
0.302011165669 0.180027173914 0.279308233852 0.471032745593 0.58892341437 0.664439140812 0.698410504491 0.796242268642 0.702099737534 0.663009214355 0.545035947976 0.503351206435 0.459257341731 0.461825376233 0.467285827329 0.519432340124 0.557860435543 0.642257509862 0.676737535746 0.708484299514 0.645447087777 0.457024508114 0.341537424141 0.211101676926 0.342599081211 0.170786624182 7
0.578462366314 0.487545289855 0.702020202019 0.773299748114 0.670078596237 0.470803500397 0.379543883896 0.297701015288 0.230232939632 0.215385548011 0.197188787462 0.217956083238 0.245261311013 0.258984172289 0.248219566032 0.266694146744 0.294229852169 0.325174471529 0.403953748601 0.560084541061 0.682362592291 0.777528477735 0.800067430885 0.531946508172 0.612785174803 0.500713003964 2
0.446559494182 0.187386775362 0.331802877259 0.536164087804 0.695485286055 0.752426412093 0.783690393918 0.759015054266 0.605725065618 0.498120756547 0.397285725826 0.39145282778 0.398510081398 0.476939543333 0.562658781392 0.704275114827 0.785566682562 0.820673611815 0.766380703717 0.721467391304 0.63724364233 0.429582326544 0.318610923801 0.175652727659 0.403410418127 0.152944467566 9
0.628842402636 0.275475543479 0.47138047138 0.740374235336 0.833302869679 0.75719968178 0.703386316518 0.633912942002 0.492043963255 0.390579534433 0.296792955813 0.25871313673 0.237322748583 0.24967566165 0.295031443921 0.356436226593 0.447464632013 0.559522605441 0.628745492976 0.700030193237 0.701394585728 0.641353123924 0.561362103846 0.356293780514 0.653974927977 0.358944617673 3
0.382525055491 0.100883152174 0.216712580349 0.393486865779 0.562968378724 0.707875894988 0.828058051141 0.881433072706 0.817667322834 0.805286129971 0.653485741982 0.554289544236 0.461385796876 0.453943954334 0.492899087918 0.597338358262 0.69972977269 0.75958329119 0.737535745369 0.724939613526 0.605906480723 0.404556437694 0.252865812542 0.128104436425 0.281320563732 0.0877779521429 8
0.489406067128 0.445425724638 0.324609733701 0.425872616048 0.500639736797 0.499761336517 0.460539046303 0.43493989964 0.349819553806 0.279643549952 0.210235075531 0.179688497383 0.161733828055 0.1809159315 0.215734455041 0.284889883407 0.353361945635 0.424597956914 0.484023374363 0.578502415457 0.553896636589 0.473593372456 0.472016183413 0.501592018679 0.563108308028 0.583523808874 6
0.571736059729 0.337749094204 0.457912457911 0.650593738756 0.713215134347 0.653937947496 0.55812024879 0.492122768117 0.37155511811 0.316137245393 0.253574602148 0.238829311886 0.239796358616 0.266022314479 0.315980175753 0.38275821458 0.445000794786 0.524931728533 0.589705333832 0.666364734297 0.65709598031 0.552295478082 0.475556304786 0.391848864361 0.544810402555 0.431132004666 1
0.506490885855 0.496716485507 0.455616773796 0.471212666429 0.449826357156 0.505489260142 0.493987560471 0.455829151593 0.336860236222 0.25491028128 0.190524274982 0.160060002553 0.141139586389 0.151368707836 0.179001291075 0.244199740902 0.302893021777 0.414787094164 0.45032947905 0.557971014491 0.573748974569 0.502588885054 0.505225893459 0.472935682445 0.594720859612 0.60666743994 5
0.485773861573 0.335597826086 0.523262932355 0.567470313064 0.543045147141 0.467303102626 0.429163787146 0.41731824017 0.359005905513 0.347841901067 0.306527183133 0.319896591345 0.385307906923 0.437889206021 0.478155845238 0.545754328113 0.564457161022 0.597248912714 0.609971403707 0.694897342993 0.629860541429 0.538315498794 0.462913014159 0.282742517512 0.387526278907 0.325846223125 4
0.571736059729 0.373075181161 0.608050198958 0.724181360201 0.736611222814 0.677008750995 0.615065653077 0.556424320225 0.421998031497 0.352934044617 0.264076258179 0.236307927997 0.21724623925 0.240334717177 0.295406272125 0.381874926392 0.470354474645 0.573176898959 0.652244187493 0.785929951689 0.786546349466 0.684846392821 0.577714093054 0.360114625346 0.585688702017 0.385172246747 7
0.487388175152 0.347033514494 0.557239057238 0.748470672905 0.787790166335 0.639618138422 0.526330338631 0.448710467966 0.346128608925 0.32110814743 0.270175296874 0.290757053492 0.312192596427 0.358296574988 0.368914247637 0.420916264281 0.460419647114 0.522807727319 0.584234738283 0.74245169082 0.766858080392 0.676907145325 0.584120026972 0.353322012313 0.489994549561 0.359974891343 2
0.216048967512 0.131114130434 0.201561065197 0.336451961137 0.456954852863 0.532060461416 0.631928127161 0.717703349284 0.656742125985 0.620756547041 0.539542774053 0.556396016853 0.565162366612 0.628405552673 0.690100370664 0.771817218231 0.774678111587 0.760999291999 0.675618550292 0.5726147343 0.378342904018 0.2015878495 0.157619689818 0.111759711314 0.206649536712 0.108233319459 9
0.707540189681 0.302649456521 0.580655035201 0.890248290753 0.98848473771 0.869053301512 0.726330338633 0.63893103046 0.44627624672 0.353782735208 0.267590273851 0.220988127154 0.184859205569 0.199014011417 0.222731248178 0.287068660935 0.351613415991 0.466774552442 0.58149944051 0.805253623187 0.875143560297 0.816016568867 0.667734322322 0.402037783911 0.723584832204 0.375531341469 3
0.564068070221 0.289402173914 0.569788797061 0.589960417418 0.600438676661 0.587112171838 0.62805805114 0.707667172365 0.638943569555 0.570198836081 0.414128766459 0.340067662454 0.279949377283 0.238745459263 0.221648411145 0.263573195148 0.302336671435 0.360675634672 0.407310704961 0.472071256039 0.569483182937 0.685709354504 0.699595414702 0.424326045427 0.626021957487 0.371246494681 8
0.618954731956 0.391304347826 0.509947964491 0.6678661389 0.687991226467 0.666348448688 0.600276434004 0.514062317658 0.375328083989 0.298011639186 0.21338557234 0.20672156262 0.208243449248 0.242280747276 0.261671733789 0.334471793664 0.387378795103 0.48083341762 0.541961954496 0.620621980674 0.659392945038 0.642733862618 0.599123398514 0.434302695817 0.591995639648 0.456609103252 1
0.668191296158 0.451200181159 0.489286807469 0.657610651317 0.684701151526 0.650437549721 0.57166551486 0.490255572413 0.338746719161 0.253394762367 0.179093626302 0.150676624537 0.136882676101 0.159185262065 0.200408146266 0.289306324344 0.378954061358 0.49539799737 0.616560984709 0.764341787438 0.718293683346 0.634449430445 0.565913688468 0.440670770538 0.796153546679 0.498515996533 6
0.441985605703 0.379302536233 0.318947046218 0.433789132781 0.558033266316 0.627366746221 0.61755355909 0.58466565527 0.438894356956 0.356753152279 0.273245011713 0.243712498404 0.220669025225 0.238810326933 0.270042897006 0.336709457072 0.397472579876 0.481541418023 0.522690538357 0.565972222222 0.56406890894 0.45495340007 0.420600134864 0.416790490342 0.56240753718 0.485395358993 5
0.463980628237 0.324048913043 0.457912457911 0.507556675063 0.48839334674 0.432299124899 0.425431928126 0.428638114132 0.372457349081 0.386032977691 0.330680992002 0.341152815014 0.361319642189 0.431953814219 0.497813502145 0.570074196208 0.59187728501 0.595428340245 0.558373741144 0.6038647343 0.547990155865 0.445633413875 0.408799730278 0.24771810656 0.365880246048 0.341982628629 4
0.457254321651 0.406023550726 0.584940312212 0.66894566391 0.672089197588 0.637231503581 0.595300621978 0.542537052166 0.425853018374 0.367967992241 0.291784473705 0.282586493043 0.266689676993 0.288628697457 0.310149514806 0.381639382876 0.438880941027 0.534135733793 0.60474947159 0.725392512077 0.738802296964 0.667932343806 0.58968307485 0.348864360008 0.407069999222 0.392186295313 7
0.267774265151 0.139719202899 0.21411080502 0.360561353005 0.507037104737 0.658074781226 0.746648237736 0.797876064887 0.683480971129 0.638397187196 0.522416996526 0.507659900421 0.497512008513 0.567008303063 0.629294906502 0.710693675657 0.724050230487 0.700212400122 0.632599776203 0.61624396135 0.461853978673 0.271142561271 0.178523263655 0.159520271704 0.282722105428 0.130510428962 9
0.626689984528 0.422780797103 0.60223446587 0.779776898166 0.834765125206 0.683691328559 0.54955079475 0.445676274945 0.327017716536 0.276430649855 0.223039017691 0.218307162007 0.232202951074 0.268649455112 0.307484069802 0.391767754093 0.459783818152 0.585617477497 0.674126569687 0.82729468599 0.840525020508 0.785122540559 0.688975050572 0.359371683294 0.604142334346 0.379891241308 2
0.655545839779 0.395380434783 0.598408325681 0.629363080248 0.608298300129 0.544789180587 0.494263994471 0.451744660987 0.365731627298 0.32480601358 0.257129008805 0.231839652751 0.223861707941 0.234885832901 0.266128024655 0.343834648452 0.417660149419 0.492262567008 0.561979360937 0.668327294686 0.684987694832 0.614601311703 0.557653405259 0.370621948632 0.677256092814 0.44001555645 3
0.540391471042 0.276721014493 0.470615243343 0.535444404463 0.594589654544 0.592521877485 0.672011057361 0.734741510096 0.680610236221 0.583171677983 0.436222635108 0.377473509512 0.311847441539 0.245426829268 0.215651159885 0.265339771523 0.318391352727 0.366946495399 0.450951137634 0.562650966181 0.668088597209 0.752157404213 0.689649359407 0.392591806409 0.516623841782 0.349296889391 8
0.703638931862 0.556838768117 0.622742577287 0.670385030587 0.625114238712 0.48273667462 0.372356599861 0.313688878516 0.221784776903 0.188469932105 0.1462961467 0.130792799693 0.124773492105 0.147963155163 0.185415018116 0.240961017548 0.292799237004 0.346414483667 0.388660947409 0.510265700483 0.6 0.637383500171 0.635198921106 0.528337932499 0.727711593864 0.595614172743 1
0.667585928565 0.54144021739 0.535659626569 0.652932709611 0.649972582712 0.558631662687 0.49619903248 0.426187419768 0.312089895013 0.236602812803 0.166087729219 0.140686837738 0.126758132712 0.140795277634 0.176669026696 0.257625721352 0.34509616913 0.459391119654 0.537237349249 0.6884057971 0.748482362592 0.705730065584 0.641099123399 0.474209297389 0.781515222299 0.531355116912 6
0.557207237505 0.434782608695 0.407866544231 0.510435408422 0.58252604643 0.646778042959 0.580234968901 0.533667872565 0.379265091864 0.29879970902 0.20886178205 0.17528405464 0.154543101217 0.168623508044 0.208571071592 0.292721705335 0.37013193451 0.484575705472 0.530896431679 0.638888888888 0.645447087777 0.553331032103 0.490728253542 0.440776905115 0.695242544576 0.524279661305 5
0.462500840787 0.305140398552 0.418426691154 0.488305145737 0.525498080792 0.525377883849 0.500483759504 0.48115299335 0.395997375329 0.359966052376 0.326601502545 0.355323630793 0.410044007248 0.479242345616 0.515388780143 0.563891178895 0.566046733429 0.577020329727 0.632724107921 0.715126811592 0.638063986873 0.50621332413 0.424645987861 0.237316917851 0.357626722729 0.297537577696 4
0.409833860228 0.277853260871 0.441077441077 0.563152213027 0.635715591303 0.687509944311 0.665238424327 0.622593068037 0.506807742782 0.461930164888 0.38246223443 0.378813992085 0.364857479793 0.390016865595 0.398942151514 0.454775644801 0.5192338261 0.626984929706 0.632102449337 0.717693236712 0.747662018049 0.610631687955 0.475893459205 0.242199108471 0.322432453476 0.291840368987 7
0.425640680702 0.154438405796 0.308386899295 0.501799208348 0.711752878819 0.893396976928 0.917069799588 0.869879799279 0.688074146983 0.573411736179 0.410937878665 0.392952891613 0.393073891908 0.457544110016 0.527133397193 0.655929808033 0.713400095373 0.796095883483 0.79174437399 0.818538647343 0.713863822808 0.523990334828 0.343054619017 0.166737423053 0.402086739859 0.133376090827 9
0.557274500571 0.26120923913 0.468319559228 0.551457358761 0.573752513253 0.606523468576 0.65763648929 0.704282880149 0.651328740159 0.614027643066 0.464779061314 0.390431507724 0.328990134322 0.298229112611 0.294240139936 0.327111058768 0.360753457319 0.429351673917 0.500683824444 0.60643115942 0.689909762101 0.694166379012 0.60097774781 0.316174909786 0.493731994082 0.306182324325 8
0.696307257685 0.467617753625 0.730027548208 0.853364519615 0.754523853044 0.542561654732 0.420041465102 0.345081106313 0.252378608925 0.225327352086 0.18188060425 0.189327205413 0.196278079788 0.219350025948 0.257840156594 0.319809209752 0.359481799396 0.465459694549 0.572174561731 0.75256642512 0.850697292864 0.825854332068 0.743762643293 0.425068987476 0.692906641751 0.452870096817 2
0.602744333087 0.494791666667 0.517141108049 0.556315221303 0.538110034729 0.477167859982 0.381617138907 0.368421052633 0.293389107612 0.264367119301 0.221382987317 0.214604876804 0.203727672793 0.222982615465 0.23697471992 0.285066541044 0.333333333333 0.396075654901 0.416759915455 0.511322463766 0.506480721903 0.442699344149 0.520566419422 0.517830609213 0.576422954139 0.54702073511 1
0.644985538441 0.454710144929 0.620906029995 0.622166246851 0.537561688906 0.47939538584 0.442156185212 0.405998366204 0.340797244095 0.30195198836 0.23992244931 0.213392059237 0.199068081802 0.216593149974 0.262296447462 0.325992227064 0.398903195041 0.504500859715 0.572423225167 0.674969806763 0.664643150125 0.57628581291 0.560013486176 0.39418382509 0.607256871448 0.478190266301 3
0.59440371292 0.48097826087 0.547444138352 0.697013314142 0.723999268871 0.656801909306 0.534761575673 0.444159178436 0.317503280841 0.249272550922 0.186162048631 0.167368824206 0.152472171887 0.168234302024 0.214485027695 0.29660817336 0.380066762041 0.506018003439 0.584980728585 0.772946859904 0.781132075474 0.683465654127 0.600472016185 0.435045637869 0.741649147394 0.491331372857 6
0.601130019506 0.549139492754 0.556320783592 0.609211946744 0.571193566077 0.551153540176 0.476019350382 0.42840471467 0.290354330708 0.212900096993 0.150294854188 0.114994255075 0.101159145166 0.114750908147 0.133980259048 0.195206689436 0.252344619296 0.34874077071 0.3915205769 0.544535024155 0.571287940934 0.563513979982 0.624072825356 0.554553173424 0.792571829012 0.618382538567 5
0.236362413398 0.169384057971 0.206764615855 0.30748470673 0.398099067811 0.444391408113 0.514305459571 0.564943400631 0.51722440945 0.514670223084 0.476290491962 0.526298991447 0.561595766099 0.657855474832 0.679355295489 0.722529737369 0.696232713401 0.650247800142 0.58597538232 0.533514492754 0.416242821985 0.260441836383 0.205495616993 0.145404372745 0.178774429649 0.183545642487 4
0.313580412996 0.182178442029 0.232323232323 0.354084202949 0.480168159387 0.600795544946 0.656668970283 0.722254638814 0.656167979002 0.639124636275 0.541158413442 0.491191114516 0.454108781315 0.462636222107 0.475365457499 0.54734424685 0.583690987124 0.621624355214 0.65361183638 0.660628019321 0.554552912222 0.389713496722 0.306304787595 0.192952663978 0.276337304369 0.212891384592 7
0.442321921034 0.180366847827 0.313437404347 0.550737675425 0.748492048985 0.814319809069 0.828887353146 0.770218228498 0.587106299214 0.504789039767 0.41703691736 0.394931699222 0.432968044409 0.501135184225 0.557286243805 0.648863502532 0.728421554601 0.787599878629 0.77682456795 0.780042270528 0.694011484823 0.494304452881 0.333782872558 0.19358947145 0.364167250642 0.137967972817 9
0.646263536691 0.672101449277 0.746403428219 0.583483267363 0.442515079512 0.305171042164 0.229025570145 0.19955654102 0.148786089239 0.139912706111 0.135511753776 0.133218434827 0.144648661086 0.157433834977 0.166340427304 0.214226828406 0.236448895247 0.316172752098 0.353723734924 0.478713768117 0.54405250205 0.583016914051 0.732130815913 0.610910634684 0.672039243168 0.64315004469 2
0.506154570524 0.179687500001 0.338536883989 0.534184958617 0.683970023764 0.738902147971 0.787975120942 0.816781421404 0.711778215223 0.657432104752 0.50759350513 0.431156644964 0.365231397589 0.373864815776 0.38428220399 0.472794723826 0.553648068669 0.656012946293 0.703841850056 0.75513285024 0.701066447907 0.502934069727 0.413351314901 0.201974103163 0.398894339329 0.198549429254 8
0.508979619291 0.312839673912 0.34496479951 0.521590500179 0.705355510879 0.683532219572 0.60774015204 0.540669856459 0.43626968504 0.386275460718 0.313716778415 0.311757947147 0.302902177352 0.344317592112 0.35154720753 0.416264279826 0.430217771419 0.481339132194 0.527663807037 0.605223429949 0.618539786709 0.536762167761 0.473870532704 0.363723201019 0.476446313166 0.382947947298 1
0.586601197282 0.251585144927 0.430364248545 0.633321338612 0.730944982635 0.715035799524 0.612715964066 0.574045979695 0.475229658794 0.432832201746 0.34089991114 0.314534661049 0.292835159778 0.332706279191 0.382741243597 0.470498174538 0.525830551582 0.614544351168 0.676364540594 0.737167874395 0.689089417554 0.548325854333 0.446729602157 0.294098917429 0.511406992136 0.313789974277 3
0.594134660658 0.695765398552 0.545148454237 0.417056495142 0.350027417292 0.326332537788 0.277677954389 0.246119733925 0.171505905512 0.131365179437 0.0924145730673 0.0728009702541 0.064716541548 0.0666515308771 0.0816292532589 0.114238605582 0.159116197743 0.216445837969 0.294541837623 0.396890096618 0.435767022149 0.388505350362 0.572488199596 0.670133729571 0.661916997585 0.778552567836 5
0.594605502118 0.503283514492 0.510866238137 0.639438646995 0.668799122647 0.573269689738 0.469523151349 0.378573929281 0.288959973753 0.239451988361 0.188827853623 0.172635005745 0.168378059654 0.18085106383 0.207196701511 0.257507949593 0.291209664599 0.370486497422 0.44199925401 0.610658212559 0.725184577523 0.686399723854 0.649359406608 0.50084907663 0.679514132212 0.54107789824 6
0.386964417837 0.26766304348 0.389654116928 0.577186038143 0.67409979894 0.661256961019 0.653213545267 0.598903022524 0.479084645669 0.429922405432 0.347281686728 0.362313289928 0.430235568211 0.539082771148 0.620507267502 0.728006124132 0.768399300587 0.7434004248 0.676737535746 0.716485507245 0.602461033634 0.402485329651 0.30546190155 0.184037359372 0.288951179631 0.194960528919 4
0.523239389251 0.235733695654 0.351392715031 0.590500179923 0.757265582162 0.793953858392 0.750656530756 0.777453611858 0.645423228346 0.548435984482 0.431860408757 0.374122303077 0.341875916817 0.361604826155 0.380450626795 0.442174066658 0.51613415991 0.588247193286 0.677359194333 0.780042270528 0.696636587368 0.566448049708 0.469487525287 0.299087242623 0.499727478004 0.233285344869 7
0.155848523576 0.0553668478258 0.147535965718 0.270780856424 0.443611771159 0.60477326969 0.744574982725 0.858676625046 0.746391076116 0.708838506305 0.610469343242 0.599195710456 0.582477636839 0.655033731189 0.673899462746 0.781710045931 0.775313940551 0.734095276627 0.655103816985 0.59842995169 0.452830188677 0.229547808077 0.141773432232 0.0860751432817 0.18103246905 0.0627307028374 9
0.675926548732 0.800384963768 0.664524028159 0.489204749909 0.316395540121 0.201431980907 0.153144436766 0.128836503676 0.107119422572 0.0972356935015 0.0869213991438 0.0917273075449 0.100267495039 0.10420991178 0.112531756279 0.133317630432 0.14886345573 0.213714979266 0.267437523313 0.363375603863 0.441837571778 0.544011045908 0.740728253541 0.718212693696 0.713696176906 0.741210264528 2
0.5136880339 0.430932971015 0.43587389042 0.422454120189 0.44562237251 0.448210023866 0.42170006911 0.402147275061 0.291830708661 0.254485935984 0.197875434203 0.181539639985 0.180832398539 0.20177088739 0.216609054184 0.283182192911 0.326259736131 0.400323657327 0.416262588586 0.514190821256 0.534700574242 0.474628926478 0.457181389077 0.495754616853 0.548392120222 0.599298595143 1
0.506827201184 0.234035326088 0.370829507193 0.588161209068 0.67062694206 0.695465393795 0.653489979268 0.635780137706 0.558234908137 0.523945198835 0.408958720414 0.358770585983 0.310927028504 0.320608458745 0.36329182458 0.445177246496 0.512239707518 0.583088904622 0.615939326122 0.690670289854 0.607219031994 0.458232654469 0.387727579233 0.306728932288 0.478237171999 0.311190409585 3
0.614380843478 0.264605978261 0.468166513619 0.598056854983 0.663864010239 0.642004773268 0.651416724257 0.700548488738 0.632709973755 0.581595538313 0.415865578803 0.305438529299 0.245692754624 0.225998962117 0.244221398526 0.287893063243 0.334525512637 0.392839081623 0.435658336443 0.532306763286 0.571452009845 0.56247842596 0.629130141604 0.433029080876 0.64431986296 0.373307042022 8
0.627900719714 0.499547101451 0.47337006428 0.619467434328 0.697861451292 0.657915672235 0.572356599863 0.49223946785 0.346538713911 0.26333656644 0.170005654738 0.142920975361 0.125837719677 0.144784639336 0.185706551164 0.25067718761 0.323636941662 0.455648831799 0.537486012682 0.666666666667 0.684659557015 0.629271660341 0.540289952796 0.519953300786 0.756676788912 0.532030594351 6
0.572946794914 0.679800724637 0.486838077745 0.356962936309 0.265399378542 0.287828162291 0.272840359365 0.253938615941 0.180364173228 0.130940834142 0.0875272639147 0.0709179114005 0.0654068513245 0.0768357550598 0.0935821082004 0.134024260982 0.16762041011 0.221401840801 0.265945542708 0.339371980676 0.379983593109 0.339834311357 0.472690492244 0.662916578222 0.641361052713 0.798769129997 5
0.566220488329 0.290421195651 0.557545148456 0.788593019072 0.835496252973 0.763564041369 0.691361437458 0.650484303887 0.498687664042 0.420404946654 0.311656838194 0.302661815396 0.288520723675 0.306142968345 0.330640123277 0.414497703451 0.495469718646 0.582279761303 0.650627875171 0.783212560384 0.822969647252 0.735415947532 0.619352663519 0.319358947146 0.545199719692 0.295763596541 7
0.466603887806 0.30819746377 0.508570554026 0.585102554876 0.596051910072 0.550357995225 0.52577747063 0.495040261409 0.389517716536 0.355237633366 0.28055577995 0.310066385804 0.394195645296 0.489523871303 0.570821706717 0.726239547756 0.746383722779 0.711338120764 0.68071615069 0.659420289854 0.581952420017 0.48619261305 0.407282535403 0.22256421142 0.34485712061 0.256947524272 4
0.203807089528 0.128396739129 0.218243036425 0.353904282117 0.502284774263 0.582816229116 0.640912232204 0.663788073289 0.605314960629 0.613118331717 0.581751353097 0.575769181668 0.576638766646 0.63346523093 0.66919328641 0.734836886115 0.787156254966 0.771821583899 0.689419370882 0.601902173912 0.443478260869 0.229030031067 0.166891436278 0.108469539376 0.199641828233 0.0976371935616 9
0.561444810654 0.525249094205 0.691153963879 0.7675422814 0.653445439591 0.466666666666 0.351071181755 0.29851791341 0.229740813647 0.211869544132 0.187292996204 0.209402527767 0.232634394685 0.263849247535 0.289742201491 0.352549758568 0.401367032268 0.479619702641 0.566952629617 0.685235507244 0.695816242821 0.729892992751 0.719150370871 0.460305667586 0.601183524099 0.46818774179 2
0.658841730005 0.325634057972 0.543924089378 0.555955379635 0.536099433378 0.506921241049 0.5596406358 0.615007585482 0.55437992126 0.497090203686 0.360287583811 0.287980339589 0.25236574913 0.229826154645 0.217483653326 0.261041102344 0.297567954221 0.339031050876 0.371130175308 0.487016908213 0.605742411813 0.665861235763 0.700775455158 0.413606452981 0.653274157129 0.422125638802 8
0.786103450595 0.418478260871 0.713039485765 0.85102554876 0.763845732045 0.619252187746 0.496060815482 0.424903722721 0.327591863516 0.260608632396 0.20134905889 0.163826120261 0.148013921247 0.158147379346 0.195868560243 0.265221999764 0.32920044508 0.421563669465 0.539848315307 0.650211352656 0.710418375719 0.706247842595 0.677511800406 0.478030142221 0.705676243868 0.488929675292 3
0.437008138831 0.420289855072 0.351698806244 0.399784094998 0.442880643392 0.460302307081 0.420317899102 0.416734741509 0.32627952756 0.283583899126 0.208255917279 0.185880250223 0.17223228924 0.192851582772 0.220940402316 0.281592274173 0.335399777459 0.398806513603 0.430933731196 0.514794685988 0.462346185396 0.406282361065 0.409979770734 0.488219061771 0.514832982948 0.615230310514 1
0.4998991054 0.499094202899 0.438322620139 0.456279237135 0.491317857796 0.537151949085 0.510850034555 0.44077488622 0.338254593177 0.283826382153 0.196259794814 0.16746457296 0.148215261599 0.158698754541 0.188538586481 0.268284065482 0.31036401208 0.384039648024 0.436279995027 0.526721014491 0.542411812963 0.527269589232 0.541132838841 0.482593929102 0.599626255549 0.593615032443 5
0.677473599246 0.516417572463 0.71962044689 0.745412018714 0.612502284775 0.512490055687 0.422114720113 0.379157427938 0.287155511812 0.256183317168 0.200823976088 0.187316481553 0.173929300773 0.185975609756 0.19570196993 0.255034742669 0.284295024638 0.37210478406 0.435658336443 0.594504830917 0.704019688268 0.733344839488 0.795684423468 0.510719592444 0.634353344234 0.516433206198 7
0.683930853568 0.47259963768 0.490817263542 0.651313422097 0.71723633705 0.675099443119 0.613268832066 0.53985295834 0.358349737532 0.260305528612 0.179578318119 0.144676369207 0.133402364311 0.154871562014 0.191120736329 0.261453303497 0.350977587029 0.472033984021 0.553027477309 0.676630434782 0.738638228057 0.700207110804 0.653910991235 0.503502441095 0.760336370007 0.497369731788 6
0.563260913433 0.431838768116 0.539179675544 0.497661029147 0.45037470298 0.389180588705 0.368210089843 0.370871746994 0.317831364829 0.294010669253 0.24658696179 0.255234265288 0.289297322173 0.356350544889 0.408521094499 0.490166058179 0.525115244 0.570446040255 0.580256123338 0.628623188404 0.583100902381 0.468243010009 0.461227242078 0.301846741668 0.45059565522 0.425707716135 4
0.196878993744 0.126471920289 0.160391796755 0.242533285355 0.370681776641 0.485918854417 0.630131306151 0.734624810364 0.692667322834 0.699987875848 0.578722029243 0.561215370867 0.579975263899 0.637032952777 0.695347965515 0.784889883406 0.785725639801 0.738950136542 0.600895188364 0.531400966184 0.398195242002 0.218501898516 0.15020229265 0.097113139461 0.142412208985 0.104774056208 9
0.462904419182 0.36129981884 0.544842363023 0.733177401944 0.779016633158 0.66539379475 0.526468555633 0.460147041661 0.320291994751 0.276491270612 0.231238387592 0.257915230435 0.289067218914 0.345128437987 0.398484028154 0.47179366388 0.546733428707 0.588247193286 0.660450080816 0.789100241545 0.772600492205 0.651363479464 0.557821982469 0.36987900658 0.516779568636 0.359872546277 2
0.688841057375 0.452785326089 0.593051729416 0.44926232458 0.397916285873 0.381225139221 0.419350380099 0.447776870114 0.399114173229 0.351661008729 0.251029970111 0.208413123962 0.195213852216 0.169466787753 0.164757819333 0.195795548228 0.228977904943 0.290179022961 0.335322640806 0.438405797099 0.497785069728 0.593199861925 0.716453135535 0.481638717894 0.684108074438 0.560728151033 8
0.53541400417 0.387794384059 0.427762473216 0.626304426052 0.690550173642 0.652983293557 0.594333102971 0.545221145992 0.396161417323 0.319653249273 0.227199289119 0.204264011235 0.203267466276 0.258303061755 0.242597142976 0.315157225298 0.385391829598 0.474056842319 0.55638443367 0.659118357488 0.662838392123 0.589920607526 0.519217801751 0.476756527277 0.524410184537 0.473148066019 1
0.723952377748 0.51222826087 0.72620140802 0.735336451962 0.639919575949 0.5630867144 0.456254319283 0.38662621076 0.297162073491 0.244059165859 0.16208902173 0.133186518576 0.11470647453 0.135735599378 0.166798550664 0.23589683194 0.298760133525 0.404268231011 0.450951137634 0.587258454104 0.642001640689 0.642216085607 0.637221847607 0.505518998091 0.706299151289 0.559663762341 3
0.476424295418 0.388134057972 0.359044995407 0.480028787335 0.589288978251 0.650437549721 0.626123013131 0.565760298751 0.426591207348 0.356631910766 0.274658696179 0.244829567216 0.225846348549 0.235048002076 0.261713381366 0.336945000589 0.388968367508 0.49600485486 0.529031455926 0.614432367151 0.553240360951 0.47997928892 0.428186109238 0.409573338996 0.597757533287 0.47155148298 5
0.573888477836 0.485960144928 0.545913682278 0.47768981648 0.403216962166 0.335719968178 0.325224602627 0.312871980394 0.264845800524 0.22944956353 0.191049357784 0.192869909358 0.234130065867 0.303223923197 0.358210820041 0.447297138147 0.490462565571 0.528168301811 0.529155787641 0.561292270532 0.528137817885 0.428546772522 0.482467970329 0.384737847591 0.445378805574 0.513048995994 4
0.804331741441 0.568953804349 0.641108050199 0.706009355884 0.664595138001 0.583611774067 0.458742225296 0.350799393163 0.225229658792 0.154461687683 0.108490184991 0.0905144899781 0.083930163661 0.0998313440579 0.131231518887 0.186491579319 0.253775234461 0.356124203498 0.448961830164 0.661080917872 0.770795734207 0.779426993444 0.720161834122 0.528444067076 0.934438994004 0.582097800945 6
0.606981906235 0.612318840579 0.7096724824 0.60525368838 0.462072747213 0.381225139221 0.351624049759 0.318123468317 0.239747375329 0.205868089234 0.170530737539 0.157857781182 0.162078982944 0.172029060716 0.193952771647 0.229124955835 0.264743284057 0.327197329828 0.413900285964 0.535628019323 0.663658736671 0.685881946843 0.754045853003 0.540437274465 0.575177139297 0.588989035432 7
0.232528418646 0.125226449275 0.190082644628 0.283015473192 0.422226284044 0.583452665076 0.667864547339 0.759365153461 0.651000656168 0.630940834142 0.558930446725 0.56108770586 0.56202720971 0.616988842762 0.665278414061 0.731951478036 0.759736130981 0.705572974614 0.613950018651 0.533514492754 0.389663658738 0.230583362099 0.204484153742 0.130651666313 0.200498325937 0.117205570301 9
0.54691598843 0.326313405799 0.566574839301 0.72526088521 0.790897459334 0.708194112966 0.59571527298 0.534951569612 0.388451443569 0.341961687681 0.284796833347 0.269788076088 0.265366583254 0.306953814219 0.363666652784 0.471145919208 0.546494992846 0.627895215941 0.650876538607 0.78381642512 0.776374077114 0.670176044184 0.530343897506 0.293780513693 0.572607646189 0.335848747638 2
0.536759265487 0.3828125 0.543617998164 0.478049658153 0.479985377444 0.498329355609 0.566827919836 0.619208775821 0.561925853018 0.49314985451 0.351643913079 0.280160857909 0.220438921966 0.193013751946 0.187205863978 0.222294193852 0.2594182165 0.300091028624 0.349620788265 0.450483091787 0.498113207549 0.601139109426 0.702629804449 0.474633835705 0.614264579927 0.478797513697 8
0.714401022398 0.338881340579 0.617845117844 0.765922993886 0.749771522575 0.655688146381 0.590463026953 0.506010036176 0.406003937009 0.327352085354 0.241982389531 0.210455764075 0.178416314321 0.192300207577 0.214318437383 0.308326463314 0.393339691624 0.502579144332 0.577396493847 0.710446859903 0.721575061524 0.608042802901 0.568273769385 0.404054340904 0.71704430429 0.440595511826 3
0.600457388847 0.394927536232 0.477655341291 0.573047858943 0.566989581432 0.508830548926 0.505597788529 0.463881433072 0.345800524934 0.294556256062 0.222998626707 0.219615728329 0.219087065321 0.258238194085 0.293157302903 0.379813920621 0.431092036241 0.505006574288 0.55141116499 0.657457729469 0.662510254306 0.556610286502 0.554619015508 0.422415623011 0.51732461263 0.469122493398 1
0.610748637923 0.470108695653 0.489592898683 0.564951421378 0.601718150246 0.587589498807 0.526330338631 0.490488971876 0.351459973753 0.259517458778 0.17574117457 0.144038044172 0.130756176834 0.151206538661 0.181375203032 0.259038982451 0.299634398347 0.394963082835 0.466865597413 0.587107487923 0.625430680887 0.585260614428 0.6109238031 0.501485884102 0.753095071245 0.558374214501 5
0.456110849532 0.354959239132 0.407713498622 0.539942425332 0.525498080792 0.461097852028 0.457360055288 0.455945851325 0.39722769029 0.383971871969 0.322562404071 0.330397038172 0.356947680271 0.407660871822 0.465744866935 0.539159109645 0.553489111429 0.543643167796 0.526171826435 0.535778985508 0.507465135357 0.428028995511 0.424814565071 0.313521545321 0.394689714241 0.359572334081 4
0.278670881819 0.102694746376 0.225895316804 0.377653832312 0.572107475782 0.693396976928 0.80359364202 0.814564126502 0.661827427823 0.590931134821 0.475401890299 0.482031150262 0.504961601518 0.623832381942 0.700220732164 0.813743964197 0.815371165156 0.779407302519 0.679099838371 0.652777777776 0.497621000822 0.288574387297 0.190997977073 0.124283591594 0.272521996419 0.0891084380094 9
0.770767471581 0.594542572464 0.615243342516 0.723101835192 0.679034911352 0.564041368338 0.426675881133 0.370171548604 0.229658792651 0.167616391853 0.108813312868 0.0867483722713 0.0830960393477 0.09691229891 0.121069509808 0.17653986574 0.235336194564 0.329523616871 0.393758547807 0.555404589371 0.692206726826 0.732309285467 0.743594066083 0.58384631713 0.885774351786 0.603815424084 6
0.483890495728 0.283061594204 0.468013468015 0.625224901043 0.678486565528 0.684805091488 0.653213545267 0.62072587233 0.479658792651 0.442652764306 0.335568301156 0.317502872463 0.298932896137 0.317754281267 0.365582441381 0.452891296667 0.527102209505 0.590775766158 0.644784284473 0.733091787437 0.683675143561 0.584397652745 0.491233985163 0.311929526641 0.470061512109 0.327695257329 7
0.645994484429 0.401041666668 0.660850933576 0.854623965456 0.864193017732 0.641527446299 0.510573600555 0.419302135606 0.305200131233 0.264609602328 0.213829873173 0.213232477978 0.218598095895 0.261059937728 0.306026404565 0.374808620893 0.433555873471 0.505714574694 0.589705333832 0.749999999999 0.826907301068 0.74439074905 0.69656102495 0.401294841859 0.637390017909 0.402809713228 2
0.504338467748 0.215240036233 0.404193449648 0.527707808566 0.602632059955 0.609228321399 0.659709744301 0.741159995334 0.73876312336 0.721144519883 0.528960336053 0.405144899784 0.315011361348 0.276563310846 0.274415892716 0.330644211517 0.389047846129 0.458379690503 0.469849558622 0.5726147343 0.609023789991 0.518122195375 0.505225893459 0.338675440458 0.580861169508 0.295975109679 8
0.57738615726 0.300951086958 0.44475053566 0.61802806765 0.685249497349 0.636117740652 0.606357982031 0.568444392577 0.467683727034 0.423375363725 0.317392358025 0.27380952381 0.241694710501 0.262324857291 0.306651118238 0.401425038275 0.474328405658 0.567816324467 0.597040905137 0.628170289853 0.626579163247 0.533828098034 0.445043830076 0.34812141796 0.527213267928 0.394431063774 3
0.684401695028 0.544950181161 0.524181205997 0.453580424612 0.374885761287 0.32999204455 0.324257083622 0.290932430856 0.213910761155 0.168222599419 0.124161887067 0.11145155113 0.103115022867 0.124221587961 0.15076423306 0.210811447415 0.245747893817 0.310711034693 0.358324008456 0.465126811595 0.538966365874 0.514497756299 0.54855023601 0.594884313309 0.613641672507 0.687376759482 1
0.683594538239 0.556951992753 0.60667278849 0.628823317743 0.599341985013 0.546380270485 0.45031098825 0.386509511027 0.253280839896 0.186893792435 0.127918248647 0.103568236947 0.0841890298272 0.0940581214327 0.117987589022 0.176009892827 0.229136862184 0.329422473955 0.389904264578 0.530646135264 0.598359310913 0.634794615122 0.687457855696 0.611653576736 0.807910924239 0.627375258421 5
0.408488598909 0.260643115943 0.356596265687 0.422813961857 0.481630414915 0.478281622911 0.511264685557 0.511494923561 0.426181102362 0.410766246362 0.381088940948 0.399336141964 0.435758046423 0.536974571874 0.613302236475 0.66523377694 0.644571610237 0.633660362091 0.630859132165 0.624698067631 0.502214930271 0.369865377976 0.327714093055 0.217682020803 0.365335202056 0.248596166836 4
0.447972018565 0.227355072464 0.405723905725 0.68351925153 0.843355876441 0.827684964199 0.705736005529 0.624460263741 0.439468503938 0.363360814743 0.292067210599 0.325130856632 0.40230678517 0.526498443176 0.669984590396 0.774820398069 0.826498171991 0.839890765651 0.820589332342 0.796346618355 0.728301886791 0.585605799105 0.423465947405 0.175971131395 0.380596433854 0.144954729365 9
0.542140310754 0.483242753623 0.726660544843 0.667326376396 0.541948455494 0.455210819411 0.404699378024 0.355700781888 0.274524278216 0.262609117361 0.237741336134 0.265032554577 0.286996289585 0.287752983914 0.254091874557 0.260098928277 0.267763471627 0.345504197432 0.423100833025 0.561292270532 0.778342904018 0.841042457717 0.783209710047 0.408193589472 0.534999610683 0.475078976276 7
0.29615927894 0.342504528985 0.179675543312 0.207628643397 0.300859075124 0.396499602228 0.473255010365 0.517796709069 0.433152887139 0.383911251212 0.287583811293 0.26145793438 0.24692955964 0.281622989103 0.322102369747 0.400188434814 0.447941503734 0.509153433801 0.513738654732 0.514039855071 0.415422477441 0.278909216429 0.284726904924 0.394396094249 0.411975395157 0.537714157051 6
0.523441178448 0.33548460145 0.624732170188 0.94260525369 0.955766770247 0.774224343676 0.627643400137 0.518263507994 0.363517060368 0.32480601358 0.261410453187 0.27744797651 0.290764230448 0.31386222107 0.345508308692 0.396831939701 0.461691305039 0.565388894508 0.649633221435 0.823671497583 0.941919606236 0.892129789438 0.711564396493 0.344406707707 0.563497625165 0.311995524109 2
0.530974641825 0.287703804349 0.465258647077 0.492263404101 0.517638457323 0.497056483689 0.577194194887 0.709417668339 0.649196194227 0.60008486906 0.450076742871 0.368090131495 0.299824546265 0.234885832901 0.217691891217 0.251089388765 0.314655857574 0.397693941539 0.461519333582 0.527324879227 0.634618539789 0.657921988267 0.673297370195 0.367437911272 0.63513197851 0.367630302327 8
0.554987556333 0.296308876813 0.399755127028 0.665707088882 0.805885578504 0.842959427207 0.787007601936 0.674991247522 0.518618766405 0.429619301648 0.322925922934 0.289033575897 0.265826789772 0.28506097561 0.320103285994 0.410670121304 0.476315371166 0.574390613939 0.655601143854 0.78125 0.786710418376 0.646013117017 0.511463250168 0.355444703885 0.569025928522 0.317085485422 3
0.788726710162 0.709012681161 0.634374043464 0.487225620727 0.388411624934 0.299920445505 0.238700760194 0.191737659004 0.128854986877 0.1032371484 0.0754503594798 0.0621728584195 0.061638910461 0.0697003113649 0.0901253592103 0.130785537628 0.18025751073 0.253868716497 0.304115379834 0.388737922703 0.442493847416 0.455988954092 0.604517869186 0.688282742518 0.752472163825 0.746968880276 1
0.532454429273 0.522531702899 0.529537802263 0.474091399784 0.441601169807 0.459347653142 0.412439530064 0.369121251023 0.264271653544 0.213566925315 0.154212779707 0.122622239244 0.114879051974 0.123151271406 0.14522510516 0.185902720527 0.238435860754 0.316071609185 0.341414894939 0.419987922704 0.439376538148 0.472385226096 0.566082265678 0.577796646149 0.710659503231 0.671561035185 5
0.434317616196 0.224977355072 0.330884603613 0.625944584384 0.800402120273 0.783611774063 0.729785763648 0.668105963357 0.471702755905 0.391003879728 0.313272477583 0.33291842206 0.401530186671 0.512389724962 0.624547082587 0.739017783536 0.830869496105 0.887225649842 0.863110779561 0.880887681159 0.74290401969 0.532447359336 0.352832097102 0.173636170666 0.4010745153 0.148448107639 9
0.256675859285 0.151494565217 0.183195592286 0.287153652394 0.396271248402 0.492283214002 0.519695922599 0.569728089627 0.54347112861 0.525339476236 0.501736812343 0.545672156262 0.586561969683 0.704657498704 0.742368081296 0.776469202685 0.729136862183 0.635885506221 0.546437896307 0.51645531401 0.37653814602 0.22885743873 0.215947403911 0.127998301846 0.216771782294 0.139039184515 4
0.405461760947 0.293478260869 0.500918273646 0.68639798489 0.665143483824 0.601909307876 0.550241879752 0.518263507994 0.428969816274 0.400763821533 0.335729865094 0.373771224307 0.377254292863 0.377432537624 0.32918245804 0.345012366035 0.3547925608 0.391423080815 0.455054084297 0.599335748792 0.707629204268 0.727994477046 0.658631153068 0.344618976863 0.459939266526 0.360602607751 7
0.648146902536 0.534873188405 0.577441077441 0.708168405903 0.635350027418 0.559108989656 0.451140290255 0.387093009688 0.285269028872 0.214597478177 0.152314403425 0.13618664624 0.12917421693 0.142352101713 0.159926700263 0.204039571311 0.236846288347 0.316779609588 0.375854780555 0.527324879227 0.638884331421 0.709699689333 0.782872555632 0.574400339632 0.723818422486 0.583175835646 6
0.452545907041 0.20267210145 0.294306703398 0.438467074487 0.505757631147 0.578042959429 0.627919834141 0.788189987163 0.820538057742 0.805528612998 0.58740609096 0.451678794842 0.361549745448 0.311786455631 0.309025030194 0.347838888234 0.443808615482 0.511479720845 0.557503419123 0.624396135265 0.60016406891 0.496375560924 0.459541469993 0.261091063468 0.497157984895 0.251775686906 8
0.597968655411 0.499207427538 0.698500153045 0.733537243617 0.595138000368 0.461256961019 0.389633724947 0.316372972343 0.236958661417 0.219022793404 0.192099523387 0.203434188689 0.226450369603 0.256000259471 0.290825038524 0.347250029444 0.396757272294 0.483463133409 0.5726718886 0.749547101449 0.776045939294 0.710735243354 0.690155091032 0.461897686266 0.607334734874 0.463957479036 2
0.780251563866 0.32914402174 0.502601775329 0.808204390071 0.876987753613 0.7953858393 0.70407740152 0.611506593537 0.436105643046 0.349599903007 0.254342030859 0.206785395123 0.185118071735 0.200214063312 0.241680896256 0.315157225298 0.37696709585 0.486699706687 0.568444610222 0.730374396136 0.848236259229 0.848809112875 0.653910991235 0.385056251327 0.741571283968 0.383568840702 3
0.516714871863 0.439764492754 0.444444444446 0.473011874775 0.449643575213 0.440572792364 0.421423635106 0.377873730891 0.291174540683 0.242725509214 0.185152274013 0.167751819226 0.161417436074 0.18169434354 0.209570613469 0.281238958898 0.292401843904 0.365024780014 0.380082058932 0.473278985507 0.466283839211 0.394718674492 0.451955495619 0.528550201656 0.530561395312 0.629244761638 1
0.598574023003 0.628283514494 0.550198959289 0.439906441169 0.401206360814 0.392840095467 0.394609536974 0.343330610341 0.241305774278 0.181498545101 0.123475240327 0.0933550363848 0.08611614462 0.0954203425013 0.118778893007 0.168295842657 0.214274360197 0.281986446848 0.341663558375 0.4264794686 0.470057424117 0.43320676562 0.58007417397 0.604967098282 0.679981312778 0.706317419811 5
0.456110849532 0.237432065216 0.372053872053 0.542821158692 0.649607018826 0.670326173428 0.682377332412 0.699498191153 0.606217191602 0.567167798254 0.451288472413 0.412485637687 0.387493887882 0.382394914376 0.381991587189 0.42863031445 0.49038308695 0.5463740265 0.598159890591 0.696105072464 0.688925348647 0.585950983777 0.467633175996 0.258543833582 0.437826053103 0.254750516841 7
0.32938723347 0.108016304347 0.266758494031 0.49622166247 0.796563699508 0.937311058073 0.937387698688 0.815264324891 0.605807086614 0.507638215325 0.413846029566 0.429401251117 0.470791267581 0.561429683447 0.643954854026 0.749087268873 0.769273565411 0.812379892789 0.780181524307 0.772192028983 0.607711238721 0.392474974111 0.23870532704 0.142963277436 0.329128708246 0.0994794047614 9
0.45113338266 0.349184782609 0.417508417508 0.488844908241 0.5170901115 0.499443118535 0.440912232206 0.432255805813 0.350475721784 0.331898642094 0.30325551337 0.328865058088 0.405643282423 0.477263881682 0.47761442672 0.537333647391 0.545143856302 0.542530595732 0.523560860377 0.554196859904 0.537161607876 0.45495340007 0.431726230614 0.333687115262 0.349918243401 0.348355314778 4
0.572139638124 0.538496376811 0.470921334557 0.592479309105 0.611040029247 0.556085918854 0.463441603318 0.357101178668 0.26968503937 0.220417070806 0.163381533242 0.141803906549 0.13265452872 0.139497924235 0.154304277206 0.208102696973 0.25011921793 0.34833619905 0.41526793485 0.555555555556 0.611320754715 0.613393165343 0.636041807147 0.568350668648 0.670793428326 0.609007730464 6
0.575570054483 0.271059782608 0.526782981329 0.58150413818 0.615244013893 0.607796340492 0.651554941259 0.711868362703 0.609744094489 0.531886517943 0.37939251959 0.304289544236 0.252336986222 0.261027503892 0.270251134896 0.333588505476 0.402320775712 0.428137958937 0.441004600274 0.501358695651 0.529450369155 0.503106662065 0.512980445043 0.383145828911 0.612395857665 0.380594010767 8
0.562991861169 0.547327898552 0.657790021424 0.6637279597 0.564247852314 0.447255369928 0.362128541812 0.295717119852 0.247539370079 0.211081474296 0.185717747799 0.207742882676 0.244053268904 0.283731188376 0.306776060973 0.36020492286 0.436178667937 0.545463740265 0.629491483279 0.782910628018 0.789171452011 0.729547808079 0.679028995282 0.458819783486 0.540995094603 0.452412955521 2
0.831169704714 0.482563405797 0.71962044689 0.74901043541 0.683787241821 0.57120127287 0.465929509332 0.391994398413 0.283464566929 0.219689621727 0.162614104532 0.132643942296 0.120976788334 0.137551894136 0.163550039566 0.233482510894 0.289540613574 0.383635076363 0.465124953375 0.599033816426 0.670057424117 0.718156713845 0.738031018205 0.496073020589 0.779724363466 0.537222900731 3
0.413062487388 0.399343297102 0.289256198346 0.348506657071 0.367574483643 0.433571996819 0.454457498272 0.43937448944 0.337926509186 0.286069350145 0.211285241134 0.182848206307 0.166911151379 0.189024390244 0.215026446212 0.283417736427 0.324431727866 0.390007080003 0.41825189606 0.456672705314 0.433962264151 0.360200207109 0.372555630477 0.480683506686 0.500350385424 0.637439189973 1
0.608663482882 0.42142210145 0.564585246404 0.550557754589 0.494425150795 0.438981702466 0.435245335177 0.409499358153 0.313402230972 0.273157129 0.229663139187 0.243712498404 0.2823654615 0.3407823041 0.35108908417 0.393416558709 0.454856143698 0.484980277133 0.548178540348 0.64734299517 0.624118129616 0.592336900242 0.565913688468 0.346741668436 0.43408860858 0.44324283755 4
0.551557139973 0.527400362319 0.438475665748 0.565131342209 0.628038749773 0.589021479714 0.510573600555 0.430505309839 0.310695538058 0.247878273521 0.192018741417 0.169922124346 0.165444243104 0.190905552673 0.212194410895 0.261041102344 0.293752980448 0.373015070294 0.421484520702 0.539855072462 0.602132895818 0.625992405937 0.612778152395 0.573020590108 0.682862259597 0.548446743038 6
0.623259568171 0.694406702899 0.550505050503 0.446203670384 0.394443428989 0.383611774067 0.352868002765 0.304586299453 0.203330052494 0.147854025218 0.0997657322885 0.0814183582279 0.0726551039781 0.080727815257 0.0992461788346 0.139029560711 0.180098553489 0.232729847275 0.289319905508 0.340126811594 0.390648072192 0.40818087677 0.60097774781 0.648482275527 0.710503776376 0.741933502998 5
0.486917333692 0.328804347826 0.561830425467 0.648254767901 0.61286784866 0.571678599839 0.560469937805 0.534484770684 0.460465879266 0.422708535402 0.347402859682 0.383569513597 0.383582132482 0.351550337313 0.305068510266 0.339535979273 0.38944523923 0.444219682411 0.517717269677 0.640549516907 0.735520918785 0.706593027272 0.628624409978 0.33082148164 0.477302810871 0.338537011387 7
0.401224187799 0.192708333333 0.325374961738 0.561353004677 0.765673551454 0.900875099442 0.889702833451 0.744894386744 0.535843175854 0.414706595539 0.315413199774 0.325833014171 0.403859982166 0.539374675663 0.677689392362 0.810387469085 0.890716897153 0.912814807322 0.889593435288 0.890700483088 0.726004922067 0.492923714187 0.331759946057 0.147739333476 0.378260531029 0.1082947265 9
