9101 26
0.0359649658203 0.020637512207 0.0161285400391 0.0174598693848 0.0165519714355 0.0158462524414 0.0146026611328 0.0161056518555 0.0172920227051 0.0200080871582 0.0248565673828 0.031379699707 0.0361595153809 0.0389862060547 0.0362815856934 0.0336685180664 0.0285491943359 0.025821685791 0.02099609375 0.0191116333008 0.0167083740234 0.0153007507324 0.014232635498 0.0172500610352 0.0367469787598 0.413352966309 02
0.029956817627 0.0177192687988 0.0104942321777 0.0113067626953 0.011833190918 0.013557434082 0.0149269104004 0.0179328918457 0.0213050842285 0.0265312194824 0.0334892272949 0.0423164367676 0.0440101623535 0.0417823791504 0.0344009399414 0.0291442871094 0.0234069824219 0.0206184387207 0.015209197998 0.0141220092773 0.0115928649902 0.0107154846191 0.0110092163086 0.0186004638672 0.0288963317871 0.445121765137 01
0.0295257568359 0.0169067382812 0.0120429992676 0.0162467956543 0.0191841125488 0.0213203430176 0.020923614502 0.0214576721191 0.0238876342773 0.0275344848633 0.0344047546387 0.0436820983887 0.0538597106934 0.0583648681641 0.0502166748047 0.0430030822754 0.0326690673828 0.0276870727539 0.0220146179199 0.0199699401855 0.0172004699707 0.0147171020508 0.0120315551758 0.013111114502 0.0241851806641 0.323852539062 04
0.0447731018066 0.0333023071289 0.0220184326172 0.0123672485352 0.0067024230957 0.0053596496582 0.00455474853516 0.00396347045898 0.00351333618164 0.00357055664062 0.00345993041992 0.00403594970703 0.00413513183594 0.0038948059082 0.00395965576172 0.00461196899414 0.00419616699219 0.00582504272461 0.00552749633789 0.008056640625 0.00976943969727 0.0134162902832 0.0185050964355 0.0337600708008 0.0472946166992 0.689426422119 05
0.0167388916016 0.0109176635742 0.00729370117188 0.00973129272461 0.0118064880371 0.0162620544434 0.0205116271973 0.0274925231934 0.0342750549316 0.0443229675293 0.0549087524414 0.0710372924805 0.0756340026855 0.0750694274902 0.0588417053223 0.0479850769043 0.0355949401855 0.0273971557617 0.0209999084473 0.0166282653809 0.0121994018555 0.00888442993164 0.0069694519043 0.00937652587891 0.0181198120117 0.261001586914 09
0.0419769287109 0.0183753967285 0.0167846679688 0.019214630127 0.0192794799805 0.0203437805176 0.0204010009766 0.0207862854004 0.0231323242188 0.0260238647461 0.0309638977051 0.0349235534668 0.0356864929199 0.0329208374023 0.0289268493652 0.0255432128906 0.0216331481934 0.0222091674805 0.021858215332 0.0231704711914 0.0229263305664 0.0222816467285 0.018009185791 0.0157775878906 0.038402557373 0.378448486328 03
0.0389137268066 0.016788482666 0.0125579833984 0.0157432556152 0.0190582275391 0.0229759216309 0.0232772827148 0.0257530212402 0.026985168457 0.0300521850586 0.034008026123 0.038143157959 0.037239074707 0.0354156494141 0.0308723449707 0.0293731689453 0.0244407653809 0.0242500305176 0.0212135314941 0.0195999145508 0.0175094604492 0.0152893066406 0.0140686035156 0.0178184509277 0.0381164550781 0.370536804199 07
0.0385551452637 0.0221862792969 0.012523651123 0.0155220031738 0.0171546936035 0.018253326416 0.0163497924805 0.0166664123535 0.0170555114746 0.0188369750977 0.020622253418 0.0231666564941 0.0236549377441 0.0228729248047 0.0208625793457 0.020076751709 0.0179443359375 0.019359588623 0.0171775817871 0.0179786682129 0.0170669555664 0.0158348083496 0.0140838623047 0.0231590270996 0.0403442382812 0.492691040039 06
0.0432586669922 0.0159072875977 0.01318359375 0.015266418457 0.0166473388672 0.0190658569336 0.022144317627 0.027717590332 0.0359954833984 0.0436592102051 0.045352935791 0.0419502258301 0.0371742248535 0.0305557250977 0.0253257751465 0.0211639404297 0.0185585021973 0.0176773071289 0.0156784057617 0.0159797668457 0.0166130065918 0.0174140930176 0.0169143676758 0.0183601379395 0.0365753173828 0.37186050415 08
0.0340423583984 0.0192718505859 0.0158996582031 0.0162734985352 0.0167350769043 0.0174827575684 0.0177688598633 0.0207901000977 0.023265838623 0.0288391113281 0.0349197387695 0.0447731018066 0.0487861633301 0.0419464111328 0.0313987731934 0.0245895385742 0.020206451416 0.0204849243164 0.019775390625 0.0198554992676 0.0197525024414 0.0191116333008 0.0173606872559 0.0167846679688 0.0317916870117 0.378093719482 07
0.0334091186523 0.0139503479004 0.0110931396484 0.0144271850586 0.0176773071289 0.0218238830566 0.023078918457 0.0262145996094 0.0291595458984 0.0331077575684 0.0390586853027 0.0473937988281 0.0540504455566 0.0552024841309 0.0482521057129 0.0429763793945 0.0358276367188 0.0322952270508 0.0247116088867 0.0223045349121 0.0188980102539 0.0165405273438 0.0130348205566 0.0119934082031 0.0266342163086 0.286884307861 09
0.0232162475586 0.0161895751953 0.0077018737793 0.00877380371094 0.00997543334961 0.0124664306641 0.0137939453125 0.0182571411133 0.023078918457 0.0312385559082 0.0401763916016 0.0501708984375 0.0527420043945 0.0487098693848 0.0377960205078 0.0305252075195 0.0227241516113 0.0191917419434 0.0144691467285 0.0118980407715 0.00931167602539 0.0083122253418 0.00858306884766 0.016902923584 0.0234107971191 0.440383911133 01
0.0478248596191 0.0257148742676 0.018238067627 0.0182113647461 0.0171089172363 0.0161743164062 0.0149269104004 0.0142478942871 0.0134506225586 0.0134544372559 0.0151519775391 0.016845703125 0.0175933837891 0.0170249938965 0.0155906677246 0.0157661437988 0.0141792297363 0.0155868530273 0.0146789550781 0.016300201416 0.0173187255859 0.0202674865723 0.0199508666992 0.0251770019531 0.0483779907227 0.510837554932 06
0.0298042297363 0.0186614990234 0.0129814147949 0.0149230957031 0.0155220031738 0.0160827636719 0.0165786743164 0.0176048278809 0.0203742980957 0.0240364074707 0.0304489135742 0.0382843017578 0.0432472229004 0.0457229614258 0.0413360595703 0.0373039245605 0.0304870605469 0.0268669128418 0.0213279724121 0.018741607666 0.0151977539062 0.0135231018066 0.011531829834 0.0162887573242 0.0309791564941 0.392143249512 02
0.0327110290527 0.0159492492676 0.0130462646484 0.0137596130371 0.0140686035156 0.0163803100586 0.0200080871582 0.0270462036133 0.0380401611328 0.0495529174805 0.0541229248047 0.0553855895996 0.048583984375 0.0348930358887 0.0262451171875 0.0227737426758 0.0188789367676 0.0169944763184 0.0149879455566 0.0163040161133 0.017406463623 0.0187339782715 0.0170478820801 0.0166358947754 0.0328712463379 0.34757232666 08
0.0372276306152 0.0202102661133 0.0152549743652 0.0141983032227 0.0131187438965 0.0134010314941 0.0133819580078 0.0144195556641 0.0166854858398 0.0197830200195 0.0252532958984 0.0347366333008 0.0461807250977 0.0451889038086 0.0387420654297 0.0335502624512 0.0270767211914 0.0235290527344 0.0198135375977 0.0188179016113 0.0168342590332 0.0159149169922 0.0142402648926 0.0158538818359 0.0277824401855 0.418804168701 04
0.046070098877 0.0222549438477 0.0189781188965 0.0186920166016 0.0166816711426 0.0151405334473 0.0146903991699 0.0157203674316 0.0178909301758 0.0203895568848 0.0234832763672 0.0251579284668 0.0246315002441 0.0231971740723 0.022705078125 0.0219802856445 0.0183639526367 0.0188179016113 0.0175094604492 0.0194892883301 0.0206489562988 0.0214996337891 0.0190086364746 0.0189590454102 0.0420532226562 0.455986022949 03
0.0442008972168 0.0308036804199 0.0215072631836 0.0147743225098 0.0111351013184 0.010009765625 0.00889587402344 0.00859069824219 0.00782012939453 0.00826263427734 0.00847625732422 0.00903701782227 0.010196685791 0.00930023193359 0.00840759277344 0.00923156738281 0.008056640625 0.0102920532227 0.00942230224609 0.0119934082031 0.0144271850586 0.0176849365234 0.0209045410156 0.0288925170898 0.0472793579102 0.610397338867 05
0.0248603820801 0.0156326293945 0.009033203125 0.0102081298828 0.0117568969727 0.0141944885254 0.0166091918945 0.0202293395996 0.0240669250488 0.0303802490234 0.040153503418 0.0514297485352 0.0636100769043 0.0650100708008 0.0566864013672 0.0454750061035 0.0346870422363 0.0276641845703 0.020149230957 0.0166130065918 0.0128746032715 0.0106887817383 0.00833892822266 0.0114135742188 0.0197219848633 0.338512420654 04
0.0258941650391 0.0126190185547 0.00894546508789 0.0115013122559 0.013858795166 0.0173263549805 0.021312713623 0.0265617370605 0.0349922180176 0.0443305969238 0.0561943054199 0.0660705566406 0.068187713623 0.0573654174805 0.0446510314941 0.0360794067383 0.0280265808105 0.0252647399902 0.0204391479492 0.0183143615723 0.0162925720215 0.0143508911133 0.0110054016113 0.0115356445312 0.0225715637207 0.286308288574 07
0.0371971130371 0.0191879272461 0.0125846862793 0.0147590637207 0.017879486084 0.0187835693359 0.0184020996094 0.0192527770996 0.0207214355469 0.0240173339844 0.0272636413574 0.0318832397461 0.0344886779785 0.0350532531738 0.0322799682617 0.0310363769531 0.0252723693848 0.0232200622559 0.0192031860352 0.0186347961426 0.0171051025391 0.0154647827148 0.0125541687012 0.017219543457 0.0343971252441 0.422138214111 01
0.0405387878418 0.0256767272949 0.014892578125 0.015998840332 0.0159683227539 0.0156440734863 0.0144424438477 0.0143203735352 0.0152740478516 0.0158958435059 0.0182418823242 0.0203285217285 0.0218353271484 0.0202445983887 0.0189666748047 0.017936706543 0.014835357666 0.0155792236328 0.0144462585449 0.0163688659668 0.017032623291 0.0182647705078 0.0176887512207 0.0243530273438 0.0431251525879 0.512100219727 06
0.0358123779297 0.018913269043 0.014232635498 0.0172843933105 0.0168838500977 0.0185356140137 0.0187454223633 0.0201568603516 0.0212173461914 0.0245056152344 0.0284652709961 0.0372047424316 0.0411605834961 0.0453262329102 0.0423736572266 0.0382080078125 0.0298461914062 0.0269050598145 0.022159576416 0.0202178955078 0.0171012878418 0.0152473449707 0.0125198364258 0.0160179138184 0.0326652526855 0.368293762207 02
0.0478477478027 0.0229187011719 0.0190086364746 0.0168075561523 0.0149230957031 0.0142555236816 0.0139503479004 0.0150451660156 0.0168724060059 0.0196533203125 0.0215950012207 0.022777557373 0.0217018127441 0.0198097229004 0.0176200866699 0.0171585083008 0.0146560668945 0.0164222717285 0.016284942627 0.0182838439941 0.0187034606934 0.0194320678711 0.0185050964355 0.0206108093262 0.0438690185547 0.491287231445 03
0.0366668701172 0.0152931213379 0.011043548584 0.0158767700195 0.0194892883301 0.0241050720215 0.0252838134766 0.026496887207 0.0273704528809 0.0292510986328 0.0345802307129 0.0404777526855 0.0467758178711 0.0491371154785 0.0457305908203 0.0417251586914 0.0345649719238 0.0310859680176 0.0240058898926 0.021411895752 0.0183525085449 0.0160484313965 0.0130233764648 0.0135917663574 0.0284271240234 0.31018447876 09
0.0289154052734 0.0132713317871 0.00948333740234 0.012279510498 0.0153923034668 0.0181159973145 0.0215034484863 0.0271377563477 0.0382919311523 0.0526657104492 0.0619201660156 0.0684089660645 0.0621337890625 0.0506057739258 0.0389366149902 0.0334548950195 0.0265960693359 0.0243873596191 0.019172668457 0.018196105957 0.015625 0.0140419006348 0.0122528076172 0.0122680664062 0.0248184204102 0.280124664307 08
0.0436935424805 0.031192779541 0.0205421447754 0.0139274597168 0.010124206543 0.00879669189453 0.00754165649414 0.00672149658203 0.00687026977539 0.00753402709961 0.00897979736328 0.0111198425293 0.0121536254883 0.0112037658691 0.00959014892578 0.0100746154785 0.00811767578125 0.00907516479492 0.00844192504883 0.00986862182617 0.0109519958496 0.0153160095215 0.0190963745117 0.030387878418 0.0452117919922 0.623466491699 05
0.0340194702148 0.0156631469727 0.0124168395996 0.0165596008301 0.0199165344238 0.0216674804688 0.0223503112793 0.0253562927246 0.0306396484375 0.0355491638184 0.0437316894531 0.0495796203613 0.0501937866211 0.0450630187988 0.0367469787598 0.0317497253418 0.026123046875 0.0242156982422 0.0208854675293 0.0209999084473 0.0193099975586 0.0175857543945 0.013786315918 0.0140190124512 0.0295448303223 0.322326660156 07
0.0298156738281 0.0169525146484 0.0127182006836 0.0158576965332 0.0155563354492 0.0164527893066 0.0178565979004 0.0198936462402 0.0223579406738 0.0268325805664 0.0342674255371 0.0465774536133 0.0619888305664 0.065071105957 0.0533676147461 0.0433692932129 0.0329551696777 0.0262451171875 0.0194664001465 0.0179176330566 0.0148582458496 0.013916015625 0.0115547180176 0.013858795166 0.0246505737305 0.32564163208 04
0.0411224365234 0.0211753845215 0.0152015686035 0.0167121887207 0.0162467956543 0.0161323547363 0.0155067443848 0.0165824890137 0.018180847168 0.0209465026855 0.0238609313965 0.0268783569336 0.0268363952637 0.0267601013184 0.023853302002 0.0232925415039 0.020206451416 0.0205764770508 0.0173950195312 0.016918182373 0.0161628723145 0.0169525146484 0.0159301757812 0.0211982727051 0.0378036499023 0.467567443848 01
0.0372543334961 0.0184020996094 0.0159301757812 0.0171966552734 0.0168952941895 0.0169563293457 0.0173110961914 0.0176887512207 0.0192031860352 0.0222244262695 0.0275421142578 0.0350494384766 0.0417289733887 0.0444183349609 0.0399360656738 0.0359916687012 0.0294380187988 0.0253143310547 0.0204124450684 0.0197219848633 0.0176467895508 0.0160102844238 0.013671875 0.0164756774902 0.0336990356445 0.383880615234 02
0.017391204834 0.0105934143066 0.00744247436523 0.00971221923828 0.0132026672363 0.0172309875488 0.0207557678223 0.0275192260742 0.0345878601074 0.0452919006348 0.0582885742188 0.0747222900391 0.0794334411621 0.0773048400879 0.0613861083984 0.0491180419922 0.0363883972168 0.0273361206055 0.0206260681152 0.0163421630859 0.012264251709 0.00948333740234 0.00690460205078 0.00907135009766 0.0175895690918 0.240013122559 09
0.0426406860352 0.0265579223633 0.0145378112793 0.0160522460938 0.0155143737793 0.0147552490234 0.0133781433105 0.0130081176758 0.0133399963379 0.0139656066895 0.0155715942383 0.0169792175293 0.0180740356445 0.0184135437012 0.017204284668 0.0164108276367 0.0135726928711 0.0156059265137 0.0143394470215 0.0166664123535 0.0164070129395 0.0166702270508 0.0161666870117 0.026439666748 0.0416221618652 0.536106109619 06
0.0415725708008 0.0172691345215 0.0142250061035 0.0148124694824 0.0156021118164 0.0171775817871 0.0190582275391 0.0244827270508 0.0311279296875 0.0372352600098 0.0383338928223 0.0369148254395 0.033561706543 0.0292510986328 0.0231819152832 0.0212059020996 0.0183792114258 0.0181999206543 0.0149307250977 0.0144691467285 0.0145950317383 0.0160522460938 0.0160293579102 0.0190544128418 0.0372505187988 0.416027069092 08
0.0405731201172 0.0185394287109 0.0154685974121 0.0164947509766 0.0164184570312 0.0168952941895 0.0170974731445 0.0190238952637 0.0227165222168 0.0273780822754 0.0333671569824 0.0348777770996 0.0343360900879 0.032169342041 0.0282897949219 0.025218963623 0.023063659668 0.0236511230469 0.0203475952148 0.0201454162598 0.0181922912598 0.0168342590332 0.015453338623 0.0171813964844 0.0395584106445 0.406707763672 03
0.0471305847168 0.0341491699219 0.0224151611328 0.0125007629395 0.00752258300781 0.00637435913086 0.00534439086914 0.00513458251953 0.00510025024414 0.00497817993164 0.00537872314453 0.00589370727539 0.00673675537109 0.00639343261719 0.00607681274414 0.00662994384766 0.00582122802734 0.0079345703125 0.00734710693359 0.0100936889648 0.0118789672852 0.0150146484375 0.0189666748047 0.03271484375 0.0451278686523 0.657341003418 05
0.0433731079102 0.0194129943848 0.0197410583496 0.0212287902832 0.019905090332 0.0174827575684 0.018138885498 0.0200691223145 0.0218276977539 0.0244979858398 0.0286636352539 0.0334014892578 0.0359878540039 0.0332412719727 0.0275230407715 0.0242652893066 0.0197372436523 0.0195732116699 0.0185470581055 0.0205726623535 0.0214996337891 0.0222930908203 0.0186882019043 0.0179748535156 0.0359764099121 0.396377563477 07
0.0503196716309 0.0280685424805 0.0184783935547 0.0152435302734 0.012580871582 0.0113945007324 0.0102233886719 0.0102195739746 0.010814666748 0.0120315551758 0.013599395752 0.0143623352051 0.0158576965332 0.0164337158203 0.0153160095215 0.0156211853027 0.0129737854004 0.0142097473145 0.0120849609375 0.0144691467285 0.0143814086914 0.0161514282227 0.0167541503906 0.026065826416 0.0440788269043 0.558265686035 01
0.0379104614258 0.0185775756836 0.0158042907715 0.0176048278809 0.0163383483887 0.016414642334 0.015739440918 0.0165176391602 0.0190544128418 0.0226631164551 0.0280075073242 0.0363388061523 0.046070098877 0.0519409179688 0.0446014404297 0.0391998291016 0.0307350158691 0.026294708252 0.0212631225586 0.0187568664551 0.0150604248047 0.0151290893555 0.0131225585938 0.0147247314453 0.0289688110352 0.373161315918 04
0.0399475097656 0.0256156921387 0.0183372497559 0.0156555175781 0.0131187438965 0.0124397277832 0.0112800598145 0.0117111206055 0.0133209228516 0.0154037475586 0.0188407897949 0.0235710144043 0.0272750854492 0.0276412963867 0.0271492004395 0.0280723571777 0.025276184082 0.0246772766113 0.0209617614746 0.0208129882812 0.0177154541016 0.0166664123535 0.0144462585449 0.0197372436523 0.0365333557129 0.473793029785 02
0.0204849243164 0.0119552612305 0.00777053833008 0.010627746582 0.0140380859375 0.0186958312988 0.0211715698242 0.0268859863281 0.0326957702637 0.039909362793 0.0495300292969 0.0624122619629 0.0704650878906 0.0715980529785 0.061939239502 0.05078125 0.0381355285645 0.0298004150391 0.0218276977539 0.0175514221191 0.0139312744141 0.0112419128418 0.00862121582031 0.00965881347656 0.0180854797363 0.260185241699 09
0.0345458984375 0.0158500671387 0.0120887756348 0.0147247314453 0.0161743164062 0.0178565979004 0.0188446044922 0.0214195251465 0.0262908935547 0.0339965820312 0.0405197143555 0.0442199707031 0.0435485839844 0.0405883789062 0.033748626709 0.029956817627 0.0247764587402 0.0226974487305 0.0194969177246 0.0187110900879 0.016471862793 0.0158042907715 0.0138473510742 0.0170936584473 0.0342636108398 0.372463226318 03
0.046703338623 0.0265884399414 0.0171012878418 0.0178184509277 0.015811920166 0.0144805908203 0.0120010375977 0.0118942260742 0.0116081237793 0.0127754211426 0.0161094665527 0.0190696716309 0.0208053588867 0.0201377868652 0.0171051025391 0.0155715942383 0.0135536193848 0.0147132873535 0.0149269104004 0.0175247192383 0.0188522338867 0.0193862915039 0.0182800292969 0.0251922607422 0.0447807312012 0.517208099365 06
0.0432662963867 0.0192337036133 0.015323638916 0.0139274597168 0.0141677856445 0.0146942138672 0.0172309875488 0.0228385925293 0.0294647216797 0.0353507995605 0.0366477966309 0.0355606079102 0.0318946838379 0.0265655517578 0.0192565917969 0.0170822143555 0.0139617919922 0.014274597168 0.0130310058594 0.0140266418457 0.0151100158691 0.0171737670898 0.0189018249512 0.01953125 0.0380592346191 0.443424224854 08
0.0460472106934 0.0378913879395 0.0179901123047 0.00698471069336 0.00324630737305 0.00241088867188 0.00170135498047 0.00137710571289 0.0012092590332 0.00106048583984 0.00112915039062 0.00112915039062 0.00143814086914 0.00126266479492 0.00138854980469 0.00265121459961 0.0018310546875 0.00330352783203 0.00239181518555 0.00427627563477 0.0050163269043 0.00791931152344 0.0136947631836 0.0367279052734 0.0432014465332 0.75271987915 05
0.0413055419922 0.0256042480469 0.0159797668457 0.0139503479004 0.0117073059082 0.0114250183105 0.0108871459961 0.0120582580566 0.0131721496582 0.0150604248047 0.0183525085449 0.0225868225098 0.0239295959473 0.0236473083496 0.0217895507812 0.0192985534668 0.0160331726074 0.0159187316895 0.0132713317871 0.0130729675293 0.013053894043 0.0139808654785 0.0146255493164 0.0235443115234 0.0363616943359 0.53938293457 01
0.0472183227539 0.0292816162109 0.022518157959 0.0171546936035 0.0131340026855 0.0111999511719 0.0101547241211 0.00997924804688 0.00979995727539 0.0110092163086 0.012508392334 0.0138282775879 0.0161247253418 0.0157318115234 0.0143737792969 0.0134582519531 0.0117149353027 0.0134735107422 0.0133361816406 0.0142097473145 0.0163764953613 0.0190048217773 0.0220909118652 0.0262069702148 0.0411949157715 0.554916381836 07
0.0444374084473 0.0270042419434 0.018611907959 0.0140228271484 0.0108451843262 0.00922012329102 0.0082893371582 0.00949478149414 0.0101623535156 0.0121955871582 0.0158920288086 0.0202407836914 0.0262145996094 0.0275650024414 0.0253372192383 0.022819519043 0.0189628601074 0.0170440673828 0.0149002075195 0.0151176452637 0.0151138305664 0.0162887573242 0.0172882080078 0.0219192504883 0.032829284668 0.528182983398 04
0.0424995422363 0.0178375244141 0.0131149291992 0.0182075500488 0.0210418701172 0.02294921875 0.0222511291504 0.0218772888184 0.0237998962402 0.0267639160156 0.0299644470215 0.0339851379395 0.0346412658691 0.0314788818359 0.0275459289551 0.0243339538574 0.0205307006836 0.0219078063965 0.0198135375977 0.0218086242676 0.0207290649414 0.0190200805664 0.015754699707 0.0190353393555 0.0376052856445 0.391502380371 03
0.0435752868652 0.0282859802246 0.0177345275879 0.0133934020996 0.0108413696289 0.0100898742676 0.0084228515625 0.00918579101562 0.00984573364258 0.0117835998535 0.0141716003418 0.0173377990723 0.0213088989258 0.0215034484863 0.0203018188477 0.0200500488281 0.017261505127 0.0167846679688 0.0146598815918 0.0151557922363 0.0140533447266 0.0148124694824 0.015438079834 0.0237617492676 0.0399360656738 0.550304412842 02
0.0186157226562 0.0127105712891 0.0064811706543 0.00796890258789 0.0102310180664 0.0141067504883 0.0188827514648 0.024845123291 0.0330619812012 0.0426902770996 0.0567932128906 0.071834564209 0.0774841308594 0.0737571716309 0.0606079101562 0.0478858947754 0.0359191894531 0.0275688171387 0.0199584960938 0.0161666870117 0.0118408203125 0.00928115844727 0.00724411010742 0.00962829589844 0.0184135437012 0.266021728516 09
0.0496826171875 0.0322418212891 0.0197219848633 0.0158348083496 0.0127410888672 0.0119895935059 0.0101203918457 0.0092887878418 0.00851821899414 0.00835418701172 0.00912094116211 0.00997161865234 0.0102310180664 0.0106468200684 0.00992965698242 0.0107154846191 0.00933837890625 0.0109100341797 0.0112190246582 0.0138473510742 0.0155143737793 0.0192832946777 0.0203323364258 0.028865814209 0.0489540100098 0.582626342773 06
0.0449256896973 0.0387954711914 0.0208549499512 0.0078125 0.00282287597656 0.00203704833984 0.00129318237305 0.00112915039062 0.000907897949219 0.000789642333984 0.000778198242188 0.000865936279297 0.000934600830078 0.000934600830078 0.000892639160156 0.0018424987793 0.00105667114258 0.00260543823242 0.00162887573242 0.00320816040039 0.00361633300781 0.00651168823242 0.012767791748 0.0389862060547 0.0427474975586 0.759254455566 05
0.0463676452637 0.0242500305176 0.0182762145996 0.0139122009277 0.0109901428223 0.0111274719238 0.0128288269043 0.0161933898926 0.0198631286621 0.022087097168 0.0219078063965 0.0225448608398 0.0209846496582 0.0173034667969 0.0140953063965 0.0134582519531 0.0116729736328 0.011474609375 0.0103492736816 0.0115928649902 0.0132827758789 0.0174217224121 0.0194549560547 0.0232124328613 0.0399703979492 0.535377502441 08
0.0329856872559 0.0178871154785 0.010383605957 0.0125617980957 0.0136680603027 0.0148582458496 0.0141105651855 0.0163040161133 0.0192108154297 0.023380279541 0.0307693481445 0.0387535095215 0.0425796508789 0.040828704834 0.0352363586426 0.0309028625488 0.024341583252 0.0224609375 0.0167846679688 0.0152702331543 0.012451171875 0.0113792419434 0.0106773376465 0.0181427001953 0.0289878845215 0.445083618164 01
0.0443420410156 0.0296363830566 0.0174293518066 0.0114784240723 0.00835418701172 0.00726318359375 0.00606536865234 0.00674057006836 0.00737380981445 0.00895690917969 0.0106964111328 0.014575958252 0.0178680419922 0.0193634033203 0.0174179077148 0.0166549682617 0.0141258239746 0.0144119262695 0.0124435424805 0.0121879577637 0.012939453125 0.0141143798828 0.0167999267578 0.0247611999512 0.034008026123 0.599990844727 04
0.0204544067383 0.0129013061523 0.00600051879883 0.00797271728516 0.0105323791504 0.0145072937012 0.0188064575195 0.0242156982422 0.0323028564453 0.042293548584 0.0555992126465 0.0682754516602 0.075023651123 0.0739059448242 0.0603828430176 0.0481224060059 0.035285949707 0.0276374816895 0.0189971923828 0.015495300293 0.0116119384766 0.0090217590332 0.00730895996094 0.0100631713867 0.0187492370605 0.274532318115 09
0.0375556945801 0.0234375 0.0163841247559 0.0152854919434 0.0146942138672 0.0132026672363 0.0128593444824 0.0132827758789 0.0147819519043 0.0184211730957 0.0228691101074 0.0290985107422 0.0339584350586 0.0347213745117 0.0328254699707 0.0295906066895 0.0250205993652 0.0231857299805 0.0203628540039 0.0184135437012 0.0158996582031 0.0157089233398 0.0149345397949 0.0189933776855 0.0358543395996 0.448657989502 02
0.0465927124023 0.0314979553223 0.0222434997559 0.016170501709 0.011646270752 0.00931549072266 0.00840759277344 0.00851821899414 0.00918197631836 0.0105400085449 0.0118255615234 0.0139694213867 0.015308380127 0.0155944824219 0.0131187438965 0.0122604370117 0.0105361938477 0.0118255615234 0.0105438232422 0.0126609802246 0.014289855957 0.017936706543 0.0210571289062 0.027660369873 0.0410652160645 0.576232910156 07
0.0511322021484 0.020923614502 0.0190086364746 0.0190086364746 0.0168533325195 0.0160140991211 0.0149955749512 0.0164108276367 0.0184631347656 0.0217323303223 0.0231285095215 0.0233535766602 0.0232620239258 0.0216484069824 0.0197982788086 0.0197792053223 0.0173492431641 0.0196113586426 0.0169525146484 0.0174407958984 0.0173149108887 0.0184707641602 0.0185165405273 0.0205192565918 0.0447845458984 0.463527679443 03
0.0465354919434 0.0350685119629 0.0229072570801 0.0127105712891 0.00656127929688 0.00539398193359 0.00429534912109 0.00387573242188 0.00368881225586 0.00326538085938 0.00307464599609 0.00321960449219 0.00383758544922 0.00338363647461 0.00350952148438 0.00521087646484 0.00402450561523 0.005859375 0.00529098510742 0.0078010559082 0.00906372070312 0.0128326416016 0.0186767578125 0.0361480712891 0.0474700927734 0.686294555664 05
0.0481872558594 0.0231857299805 0.0167045593262 0.0131530761719 0.0125350952148 0.0132865905762 0.0140838623047 0.0170516967773 0.0207176208496 0.0232086181641 0.0240135192871 0.0236396789551 0.0226249694824 0.0190696716309 0.0154190063477 0.0138320922852 0.0118103027344 0.0121879577637 0.0114212036133 0.0137405395508 0.0154151916504 0.0174598693848 0.0187530517578 0.0231590270996 0.0414733886719 0.513866424561 08
0.0492820739746 0.0326271057129 0.0168952941895 0.0144233703613 0.0121879577637 0.0112953186035 0.0102958679199 0.0101547241211 0.00990295410156 0.0097541809082 0.010066986084 0.0105133056641 0.0106315612793 0.010425567627 0.0105667114258 0.011344909668 0.00977325439453 0.0120468139648 0.0115165710449 0.0137672424316 0.015064239502 0.0177345275879 0.0188179016113 0.0286026000977 0.0502700805664 0.582038879395 06
0.0243835449219 0.0176239013672 0.00835037231445 0.00885772705078 0.0102882385254 0.0122184753418 0.0143547058105 0.0173454284668 0.0209121704102 0.0267944335938 0.0341415405273 0.0422248840332 0.0462837219238 0.0447044372559 0.0377426147461 0.0322494506836 0.0244598388672 0.0215682983398 0.015438079834 0.0129089355469 0.00984954833984 0.00873184204102 0.00889587402344 0.0169296264648 0.02392578125 0.45881652832 01
0.0419120788574 0.0215034484863 0.0159950256348 0.0143775939941 0.0132255554199 0.0133171081543 0.0127906799316 0.0132141113281 0.0147666931152 0.0184669494629 0.0230522155762 0.0275840759277 0.0340881347656 0.0357131958008 0.0333061218262 0.030029296875 0.0248260498047 0.0231132507324 0.0189590454102 0.0180015563965 0.0157241821289 0.015811920166 0.0147857666016 0.0174827575684 0.0290756225586 0.458877563477 04
0.0379028320312 0.0198516845703 0.0170936584473 0.0184707641602 0.0176734924316 0.0183219909668 0.0183906555176 0.0187797546387 0.0204048156738 0.0241737365723 0.0286598205566 0.0346603393555 0.0379028320312 0.0353546142578 0.0318870544434 0.029369354248 0.0245094299316 0.0248641967773 0.0219917297363 0.0214424133301 0.0195426940918 0.0195350646973 0.0171279907227 0.016529083252 0.0325889587402 0.392971038818 07
0.0307350158691 0.019847869873 0.0132179260254 0.0146102905273 0.0143852233887 0.0152969360352 0.0153732299805 0.0171661376953 0.0195999145508 0.024772644043 0.0321846008301 0.0408401489258 0.0457496643066 0.0462341308594 0.0417098999023 0.0368423461914 0.0300598144531 0.0271110534668 0.0218505859375 0.0185966491699 0.0150489807129 0.0132827758789 0.0111351013184 0.0154075622559 0.0311737060547 0.387767791748 02
0.0351066589355 0.0151596069336 0.012565612793 0.0161170959473 0.0174980163574 0.0196533203125 0.0215530395508 0.0250663757324 0.0283546447754 0.0318145751953 0.0369300842285 0.045223236084 0.0537872314453 0.0527000427246 0.045597076416 0.0392036437988 0.0326614379883 0.0286331176758 0.0224456787109 0.0203399658203 0.0179023742676 0.0169677734375 0.0152320861816 0.0135231018066 0.0257873535156 0.310176849365 09
0.0407943725586 0.0172882080078 0.0134696960449 0.0161476135254 0.0176734924316 0.0187492370605 0.0203552246094 0.0226516723633 0.0245742797852 0.0301551818848 0.0350608825684 0.0386543273926 0.0354957580566 0.032398223877 0.0283241271973 0.0253410339355 0.0222587585449 0.0214653015137 0.0185165405273 0.0179672241211 0.0162162780762 0.0171279907227 0.0156555175781 0.0183410644531 0.0356407165527 0.399677276611 03
0.0402641296387 0.0158882141113 0.0114479064941 0.013500213623 0.015266418457 0.0186805725098 0.0227737426758 0.0309104919434 0.0385398864746 0.0459327697754 0.0499801635742 0.0478286743164 0.0409774780273 0.029411315918 0.0237998962402 0.0218734741211 0.0191917419434 0.0193862915039 0.0182304382324 0.0182113647461 0.0181999206543 0.0191421508789 0.0169525146484 0.0164947509766 0.034839630127 0.352275848389 08
0.0451431274414 0.030158996582 0.0223960876465 0.0168228149414 0.0124816894531 0.0108489990234 0.00911712646484 0.0088996887207 0.00819778442383 0.00871276855469 0.00864791870117 0.00890731811523 0.00955581665039 0.00947189331055 0.00864410400391 0.00985717773438 0.00847244262695 0.0102043151855 0.00989151000977 0.0122451782227 0.0139617919922 0.0173454284668 0.020435333252 0.0300483703613 0.0469055175781 0.602626800537 05
0.0460739135742 0.0276985168457 0.0162239074707 0.0167999267578 0.0158805847168 0.0156097412109 0.0137557983398 0.0138206481934 0.0134658813477 0.0135879516602 0.015266418457 0.0172386169434 0.0181503295898 0.017578125 0.0153923034668 0.0149269104004 0.0130500793457 0.0153045654297 0.0143814086914 0.0167274475098 0.0174140930176 0.0187873840332 0.018798828125 0.0251922607422 0.0475540161133 0.521320343018 06
0.0290451049805 0.0176887512207 0.0116500854492 0.012508392334 0.0132713317871 0.0145492553711 0.0149993896484 0.0185089111328 0.0229911804199 0.0284385681152 0.0367012023926 0.0474548339844 0.0561904907227 0.0594520568848 0.0515022277832 0.0430030822754 0.0345191955566 0.0286521911621 0.0210456848145 0.017448425293 0.0136795043945 0.0118522644043 0.00968933105469 0.0124931335449 0.0216598510742 0.351005554199 04
0.0380516052246 0.0190315246582 0.0136642456055 0.0163497924805 0.0183181762695 0.0185089111328 0.0184631347656 0.0205879211426 0.0221290588379 0.0246505737305 0.0273857116699 0.031135559082 0.0328674316406 0.0345344543457 0.0301628112793 0.0295677185059 0.0257835388184 0.0244255065918 0.0207710266113 0.0188751220703 0.016284942627 0.0146102905273 0.0125617980957 0.0174255371094 0.0347633361816 0.419090270996 01
0.0270347595215 0.0135765075684 0.0101623535156 0.0132637023926 0.0151443481445 0.0175704956055 0.0203018188477 0.0249214172363 0.0319328308105 0.0407371520996 0.049633026123 0.057315826416 0.0584373474121 0.0511894226074 0.042911529541 0.0361938476562 0.0291023254395 0.0256385803223 0.0208587646484 0.0191192626953 0.0167083740234 0.0146865844727 0.0112495422363 0.0125579833984 0.0255393981934 0.314212799072 07
0.0366668701172 0.0169944763184 0.0140686035156 0.0164489746094 0.0182647705078 0.0193214416504 0.0203170776367 0.0226974487305 0.0245590209961 0.0267066955566 0.0310478210449 0.0379066467285 0.0434989929199 0.0470924377441 0.041446685791 0.0387496948242 0.0324859619141 0.0299797058105 0.0243911743164 0.0214233398438 0.0174293518066 0.0143203735352 0.0121955871582 0.0147132873535 0.0306930541992 0.346580505371 02
0.0422286987305 0.0189476013184 0.0127716064453 0.0168037414551 0.018611907959 0.0197830200195 0.0196495056152 0.0219039916992 0.0250930786133 0.0275840759277 0.0313720703125 0.0337753295898 0.0321998596191 0.0301361083984 0.0269088745117 0.0247840881348 0.0220527648926 0.0236892700195 0.0215797424316 0.0204238891602 0.0187835693359 0.0181999206543 0.0149955749512 0.018669128418 0.0389595031738 0.400093078613 03
0.0366668701172 0.0157051086426 0.0120697021484 0.0157356262207 0.0185585021973 0.0210494995117 0.022518157959 0.0246696472168 0.0272216796875 0.031192779541 0.0375175476074 0.0454483032227 0.0501403808594 0.0506477355957 0.0436363220215 0.0380477905273 0.0306701660156 0.0289611816406 0.0234642028809 0.0211296081543 0.0179595947266 0.0153198242188 0.0118980407715 0.0133857727051 0.0298767089844 0.316509246826 09
0.0285530090332 0.0119972229004 0.0079460144043 0.0104331970215 0.0134658813477 0.0170135498047 0.0209579467773 0.0298538208008 0.0444374084473 0.0613555908203 0.0698509216309 0.0695724487305 0.0606727600098 0.0465850830078 0.0371170043945 0.0308723449707 0.0279808044434 0.0255737304688 0.0208549499512 0.0178833007812 0.0152397155762 0.0136070251465 0.0112037658691 0.0117111206055 0.0255165100098 0.269744873047 08
0.0419235229492 0.0263366699219 0.019474029541 0.016284942627 0.0132942199707 0.0115165710449 0.0101280212402 0.011100769043 0.0116424560547 0.0130729675293 0.0151023864746 0.0176467895508 0.018741607666 0.0175514221191 0.0145950317383 0.0124740600586 0.00970077514648 0.0109825134277 0.00999450683594 0.0124168395996 0.0138778686523 0.016544342041 0.0192718505859 0.0262413024902 0.0438957214355 0.566188812256 05
0.0379295349121 0.0245094299316 0.0140419006348 0.0150871276855 0.0142250061035 0.0152015686035 0.0143394470215 0.0150756835938 0.0155143737793 0.0161285400391 0.0180549621582 0.0208854675293 0.022159576416 0.0223197937012 0.0201950073242 0.0196380615234 0.016902923584 0.0173263549805 0.0159759521484 0.0155906677246 0.0154304504395 0.0160140991211 0.0155143737793 0.0235214233398 0.0385971069336 0.519821166992 06
0.0289306640625 0.0171394348145 0.0125617980957 0.0154457092285 0.0158348083496 0.017276763916 0.018970489502 0.0217628479004 0.0246162414551 0.0291748046875 0.0361938476562 0.0470237731934 0.0572929382324 0.0613250732422 0.0540962219238 0.0449485778809 0.033576965332 0.0273323059082 0.0205307006836 0.0184097290039 0.0154457092285 0.0133438110352 0.0105361938477 0.0133018493652 0.0262260437012 0.318702697754 04
0.0387878417969 0.0191841125488 0.0146179199219 0.0162773132324 0.0164604187012 0.0174026489258 0.0172576904297 0.0200653076172 0.0214538574219 0.0237350463867 0.0263175964355 0.0305404663086 0.0311126708984 0.0309715270996 0.0268058776855 0.0254821777344 0.0226898193359 0.0231895446777 0.0203056335449 0.0190887451172 0.0166358947754 0.0154151916504 0.0141944885254 0.0189247131348 0.0381088256836 0.43497467041 01
0.0356941223145 0.0159492492676 0.0142593383789 0.0187034606934 0.0215606689453 0.0234184265137 0.023265838623 0.0255088806152 0.0284271240234 0.0317916870117 0.0383567810059 0.0470581054688 0.0494003295898 0.0463256835938 0.0363121032715 0.029369354248 0.0239410400391 0.0235786437988 0.0224418640137 0.0232238769531 0.0212478637695 0.0201263427734 0.0152626037598 0.0141983032227 0.0306282043457 0.31995010376 07
0.0382804870605 0.0174293518066 0.0160255432129 0.0171432495117 0.0185317993164 0.0191802978516 0.0184097290039 0.0202789306641 0.0216751098633 0.0246200561523 0.0294799804688 0.0363883972168 0.0417404174805 0.0444717407227 0.0408592224121 0.0366058349609 0.0311622619629 0.0275993347168 0.0236663818359 0.0226097106934 0.0202789306641 0.0168342590332 0.0127334594727 0.0147514343262 0.0323295593262 0.356914520264 02
0.0504875183105 0.0183410644531 0.0152397155762 0.01904296875 0.0203285217285 0.0200347900391 0.0194816589355 0.0203514099121 0.0215034484863 0.024600982666 0.0261764526367 0.0270843505859 0.0273971557617 0.0258750915527 0.0235061645508 0.0225868225098 0.020694732666 0.0222053527832 0.0205268859863 0.021125793457 0.0203628540039 0.0204582214355 0.0170402526855 0.0189666748047 0.043514251709 0.413066864014 03
0.0398941040039 0.016658782959 0.0134315490723 0.0130386352539 0.0133857727051 0.0153884887695 0.0176773071289 0.0235748291016 0.0326652526855 0.0402984619141 0.0464248657227 0.0463485717773 0.0415916442871 0.0341758728027 0.0263862609863 0.0232124328613 0.0191421508789 0.0181007385254 0.0161437988281 0.0155601501465 0.0144500732422 0.015510559082 0.015453338623 0.0173759460449 0.0339012145996 0.390209197998 08
0.0195693969727 0.0113487243652 0.00699996948242 0.0093994140625 0.0127983093262 0.0172882080078 0.0217552185059 0.0276145935059 0.0340766906738 0.0432319641113 0.0543670654297 0.0677032470703 0.0727615356445 0.0778923034668 0.0623779296875 0.0523948669434 0.0401763916016 0.0314826965332 0.023063659668 0.0174674987793 0.0128784179688 0.00944137573242 0.00715255737305 0.00899505615234 0.0187492370605 0.239013671875 09
0.0379219055176 0.0246276855469 0.0139465332031 0.0141525268555 0.0139389038086 0.0148658752441 0.0131950378418 0.0138473510742 0.0140953063965 0.0160789489746 0.0179405212402 0.0200881958008 0.0220832824707 0.0218696594238 0.0196762084961 0.018741607666 0.0151596069336 0.0165023803711 0.0146903991699 0.0160827636719 0.0152816772461 0.015251159668 0.0144500732422 0.0245819091797 0.0403251647949 0.530605316162 06
0.0476150512695 0.0309982299805 0.0216751098633 0.0129127502441 0.00899124145508 0.00780868530273 0.00672912597656 0.00606918334961 0.00596237182617 0.00625991821289 0.00685119628906 0.0069465637207 0.00739288330078 0.00736618041992 0.00703430175781 0.00756072998047 0.00714111328125 0.00849151611328 0.00860977172852 0.0112609863281 0.0124130249023 0.0151672363281 0.0182800292969 0.0307350158691 0.0477561950684 0.641971588135 05
0.0368537902832 0.0173759460449 0.0150108337402 0.0158843994141 0.0161743164062 0.0169486999512 0.0172424316406 0.0190162658691 0.0210800170898 0.0239677429199 0.0302963256836 0.0403137207031 0.0520324707031 0.0585327148438 0.0509262084961 0.0428352355957 0.0331115722656 0.0280342102051 0.0221252441406 0.0208740234375 0.0184783935547 0.0155487060547 0.0131378173828 0.0130996704102 0.0274391174316 0.333660125732 04
0.0475997924805 0.0246849060059 0.0187644958496 0.0183792114258 0.0160102844238 0.0146217346191 0.0131530761719 0.0132598876953 0.0143280029297 0.015926361084 0.0178527832031 0.019905090332 0.0211410522461 0.0211906433105 0.0211410522461 0.0212554931641 0.0183982849121 0.0191993713379 0.0172576904297 0.0177421569824 0.0174255371094 0.0176658630371 0.0163078308105 0.0222549438477 0.043384552002 0.491149902344 01
0.0403938293457 0.0187301635742 0.0194931030273 0.0230407714844 0.0220375061035 0.0208358764648 0.0192985534668 0.0204429626465 0.0217704772949 0.025691986084 0.0291938781738 0.0330810546875 0.0347442626953 0.0321769714355 0.0274353027344 0.024486541748 0.0200157165527 0.0204849243164 0.0189361572266 0.020565032959 0.0208358764648 0.0221672058105 0.0199508666992 0.0172271728516 0.0375633239746 0.389400482178 07
0.0529327392578 0.0271224975586 0.0208930969238 0.0176315307617 0.0143280029297 0.0119361877441 0.0107879638672 0.0108108520508 0.0118942260742 0.0131454467773 0.0149841308594 0.0157432556152 0.0157127380371 0.0147857666016 0.0134582519531 0.0129890441895 0.0121879577637 0.0141716003418 0.0133819580078 0.0157699584961 0.0163459777832 0.0187530517578 0.0194358825684 0.0240936279297 0.0505104064941 0.536193847656 03
0.040771484375 0.0159301757812 0.0138282775879 0.0141525268555 0.0147666931152 0.0163269042969 0.0192527770996 0.0244636535645 0.0338363647461 0.0415649414062 0.04443359375 0.0446128845215 0.0400581359863 0.0334625244141 0.025520324707 0.022403717041 0.0193786621094 0.018798828125 0.0160751342773 0.0155601501465 0.0157203674316 0.0175971984863 0.0175552368164 0.0169372558594 0.0340995788574 0.382892608643 08
0.0400009155273 0.0215721130371 0.0180816650391 0.0182456970215 0.0160980224609 0.0157279968262 0.0146636962891 0.0147094726562 0.0163841247559 0.0188293457031 0.0222244262695 0.0272216796875 0.031322479248 0.0321426391602 0.0308952331543 0.0314254760742 0.0276145935059 0.0265083312988 0.0224266052246 0.0211906433105 0.0179023742676 0.0163688659668 0.0152244567871 0.0179862976074 0.036205291748 0.429027557373 02
0.0494956970215 0.035041809082 0.021614074707 0.0108909606934 0.0057487487793 0.00462341308594 0.00328826904297 0.00290679931641 0.00238037109375 0.00224304199219 0.00234985351562 0.00233459472656 0.00248336791992 0.00242614746094 0.00282287597656 0.00416946411133 0.00362014770508 0.00550079345703 0.00483703613281 0.0068473815918 0.0081672668457 0.0114250183105 0.0172386169434 0.0346527099609 0.047779083252 0.705112457275 05
0.0397529602051 0.0234031677246 0.0146408081055 0.0159873962402 0.0150566101074 0.0150299072266 0.0142021179199 0.0137786865234 0.014274597168 0.0164337158203 0.0191192626953 0.0245170593262 0.026481628418 0.0256271362305 0.0214385986328 0.0188522338867 0.0143432617188 0.0151405334473 0.0141258239746 0.0159149169922 0.0176811218262 0.017879486084 0.0173721313477 0.0242156982422 0.040454864502 0.504276275635 06
0.0228271484375 0.012565612793 0.00844573974609 0.0119400024414 0.0153350830078 0.0190124511719 0.022705078125 0.0269165039062 0.0311508178711 0.0388145446777 0.0481300354004 0.0619812011719 0.0717391967773 0.0737266540527 0.0629577636719 0.0518264770508 0.0378837585449 0.0301856994629 0.0212516784668 0.0170974731445 0.0134506225586 0.011043548584 0.00849914550781 0.0097541809082 0.0214309692383 0.249328613281 09
0.0317344665527 0.0161552429199 0.0127258300781 0.013614654541 0.0143852233887 0.015941619873 0.0173988342285 0.0186614990234 0.0217132568359 0.027099609375 0.0353088378906 0.0482139587402 0.0612373352051 0.0678596496582 0.0568656921387 0.0433349609375 0.0326347351074 0.025505065918 0.0198554992676 0.0183410644531 0.0143852233887 0.0131492614746 0.0115852355957 0.0130729675293 0.0249443054199 0.324275970459 04
0.0388298034668 0.022518157959 0.014820098877 0.0150108337402 0.0143013000488 0.0141525268555 0.0131912231445 0.0141296386719 0.0161476135254 0.0185050964355 0.0224571228027 0.0268440246582 0.0283012390137 0.0277214050293 0.0233459472656 0.0220489501953 0.0188789367676 0.0189514160156 0.0156135559082 0.0158271789551 0.013786315918 0.014102935791 0.015007019043 0.0220413208008 0.0374336242676 0.496032714844 01
0.0422477722168 0.0174942016602 0.0161056518555 0.0193290710449 0.0198059082031 0.0212440490723 0.0210800170898 0.0220260620117 0.0227890014648 0.0262832641602 0.0295715332031 0.0319557189941 0.0331802368164 0.0324478149414 0.0318222045898 0.0295562744141 0.0258293151855 0.0256423950195 0.0225868225098 0.021183013916 0.018970489502 0.0171394348145 0.0155372619629 0.0163993835449 0.0400848388672 0.379688262939 07
0.050365447998 0.0287704467773 0.0201797485352 0.0151634216309 0.0119094848633 0.0100784301758 0.0090446472168 0.00920104980469 0.010383605957 0.0121421813965 0.013801574707 0.0146255493164 0.0159950256348 0.0143928527832 0.0138549804688 0.0134582519531 0.0114212036133 0.0134201049805 0.012378692627 0.0144653320312 0.0152130126953 0.0180015563965 0.0185241699219 0.025074005127 0.043327331543 0.564807891846 03
0.0458755493164 0.0169944763184 0.0169486999512 0.0170555114746 0.0164794921875 0.0183715820312 0.0189971923828 0.0231513977051 0.0297012329102 0.0360717773438 0.0380668640137 0.0384292602539 0.0351715087891 0.0293312072754 0.0235252380371 0.0208778381348 0.0167694091797 0.0159034729004 0.013916015625 0.0138359069824 0.0143051147461 0.017204284668 0.0186653137207 0.0187683105469 0.0386085510254 0.40697479248 08
0.0396766662598 0.0274810791016 0.0182952880859 0.0137939453125 0.0117073059082 0.0114288330078 0.0105895996094 0.0116195678711 0.0132446289062 0.0168952941895 0.0214729309082 0.0255470275879 0.0298042297363 0.0300750732422 0.0284538269043 0.0266914367676 0.0229339599609 0.0218734741211 0.0193557739258 0.0192832946777 0.0172996520996 0.0171279907227 0.0163841247559 0.0204391479492 0.0368843078613 0.471641540527 02
0.0486335754395 0.0340385437012 0.022029876709 0.0120849609375 0.00603485107422 0.00455474853516 0.00340270996094 0.00294494628906 0.00216293334961 0.00223159790039 0.00231552124023 0.00262069702148 0.00253677368164 0.00246429443359 0.00269317626953 0.0040283203125 0.00328826904297 0.0051383972168 0.00459289550781 0.00664138793945 0.00723266601562 0.0107040405273 0.0164489746094 0.0354194641113 0.0468444824219 0.708911895752 05
0.016773223877 0.0114707946777 0.00661087036133 0.00944137573242 0.0118675231934 0.0161590576172 0.0199241638184 0.0260848999023 0.0332221984863 0.0455093383789 0.0586624145508 0.0736961364746 0.0801277160645 0.0753860473633 0.0599365234375 0.0486526489258 0.0382614135742 0.0298957824707 0.0218200683594 0.0163803100586 0.0111885070801 0.00881576538086 0.0068473815918 0.00901031494141 0.0176010131836 0.246654510498 09
0.0400276184082 0.0225296020508 0.0135116577148 0.0157470703125 0.0173492431641 0.017707824707 0.017894744873 0.0182914733887 0.0191459655762 0.0201835632324 0.0224342346191 0.0234565734863 0.023811340332 0.0230941772461 0.0203247070312 0.0208930969238 0.0188293457031 0.0201110839844 0.0196952819824 0.0199928283691 0.019645690918 0.0188903808594 0.0168991088867 0.0213241577148 0.0412635803223 0.466945648193 06
0.0418548583984 0.0203628540039 0.0169982910156 0.0157928466797 0.0138778686523 0.0137062072754 0.0139389038086 0.0144157409668 0.0163345336914 0.0201377868652 0.0243339538574 0.0322875976562 0.03857421875 0.0426177978516 0.0351181030273 0.0310668945312 0.0245170593262 0.0221557617188 0.0195007324219 0.018726348877 0.0180397033691 0.0182228088379 0.0164070129395 0.0166549682617 0.0322875976562 0.422069549561 04
0.0282592773438 0.0173110961914 0.0101013183594 0.0110511779785 0.012378692627 0.013988494873 0.015567779541 0.019458770752 0.0224113464355 0.0284614562988 0.0339317321777 0.03955078125 0.0425338745117 0.03955078125 0.0336036682129 0.0301971435547 0.0245895385742 0.0224189758301 0.0163497924805 0.0152626037598 0.012996673584 0.0116157531738 0.0112609863281 0.0178985595703 0.0290603637695 0.440189361572 01
0.043140411377 0.0262145996094 0.02197265625 0.018871307373 0.0163345336914 0.0135498046875 0.0115051269531 0.0116539001465 0.0129241943359 0.0157089233398 0.0190887451172 0.0213813781738 0.0237808227539 0.0240669250488 0.0209465026855 0.0191764831543 0.0155982971191 0.015380859375 0.0138244628906 0.0154418945312 0.0174865722656 0.0201568603516 0.0208473205566 0.0221366882324 0.0379791259766 0.500831604004 07
0.0470771789551 0.0205497741699 0.0175170898438 0.0182685852051 0.0177955627441 0.0168876647949 0.0166358947754 0.0184097290039 0.0198516845703 0.0231475830078 0.0266952514648 0.0283508300781 0.0286140441895 0.0269889831543 0.0251731872559 0.0231475830078 0.0191802978516 0.0186729431152 0.0172348022461 0.0184898376465 0.0191192626953 0.0189437866211 0.0173759460449 0.0194358825684 0.0406761169434 0.435760498047 03
0.0440216064453 0.0182418823242 0.0155067443848 0.0155906677246 0.014045715332 0.0148506164551 0.0171432495117 0.0214691162109 0.0281677246094 0.0329780578613 0.0354843139648 0.0353622436523 0.0333786010742 0.0263175964355 0.0205726623535 0.0180702209473 0.0150413513184 0.0152168273926 0.0136451721191 0.015438079834 0.016284942627 0.0190849304199 0.0190048217773 0.0197296142578 0.0365409851074 0.438812255859 08
0.0361137390137 0.0213851928711 0.017147064209 0.016658782959 0.0145835876465 0.0148048400879 0.0152435302734 0.0159912109375 0.0173759460449 0.0211906433105 0.0262870788574 0.0328102111816 0.0367393493652 0.0395774841309 0.0373344421387 0.0331687927246 0.0287666320801 0.0280151367188 0.0241966247559 0.0224418640137 0.0198631286621 0.0172271728516 0.0139007568359 0.0156555175781 0.0346183776855 0.398902893066 02
0.0505104064941 0.0319328308105 0.0229301452637 0.0155906677246 0.0106201171875 0.0092887878418 0.00833892822266 0.00755310058594 0.00643539428711 0.00640106201172 0.00646591186523 0.00682067871094 0.00697326660156 0.00686264038086 0.00677871704102 0.00838470458984 0.00772476196289 0.0104217529297 0.00996780395508 0.0121994018555 0.0141754150391 0.0167007446289 0.0186538696289 0.0300445556641 0.0480194091797 0.620204925537 05
0.025074005127 0.0130653381348 0.00975036621094 0.0124244689941 0.0145645141602 0.0178565979004 0.0209465026855 0.0245895385742 0.0295906066895 0.0367851257324 0.0488014221191 0.0634689331055 0.0697975158691 0.0679397583008 0.0606231689453 0.0507278442383 0.0394554138184 0.0324897766113 0.0230522155762 0.0177116394043 0.0129165649414 0.0115394592285 0.00881958007812 0.00962829589844 0.0208511352539 0.257530212402 09
0.0459098815918 0.0253524780273 0.0189590454102 0.0146369934082 0.0120048522949 0.0111923217773 0.0110664367676 0.0115089416504 0.0128173828125 0.0149993896484 0.0185317993164 0.0226936340332 0.027400970459 0.0281257629395 0.0264434814453 0.0247421264648 0.0205192565918 0.0199089050293 0.0168838500977 0.0170974731445 0.0157623291016 0.0169334411621 0.0171127319336 0.018856048584 0.0348052978516 0.495735168457 04
0.0428504943848 0.0256614685059 0.0163917541504 0.0158805847168 0.0146408081055 0.014778137207 0.0136604309082 0.0139503479004 0.013916015625 0.0147666931152 0.0160980224609 0.0177841186523 0.0185928344727 0.0186767578125 0.0167999267578 0.0170707702637 0.0143013000488 0.0164108276367 0.015079498291 0.0162887573242 0.015983581543 0.0171165466309 0.017692565918 0.0246238708496 0.0435676574707 0.527416229248 06
0.0246047973633 0.0174751281738 0.00845336914062 0.00979995727539 0.0107917785645 0.0135498046875 0.0145988464355 0.017765045166 0.02197265625 0.0281105041504 0.0339622497559 0.0413246154785 0.0419616699219 0.0374336242676 0.0310173034668 0.026668548584 0.0208549499512 0.0190505981445 0.0146369934082 0.0137100219727 0.010368347168 0.00999450683594 0.00972747802734 0.0185928344727 0.0270805358887 0.476493835449 01
0.037971496582 0.0243263244629 0.0185775756836 0.0168075561523 0.0150985717773 0.0149002075195 0.0148391723633 0.0155220031738 0.0167694091797 0.0200958251953 0.0241775512695 0.0287170410156 0.0298538208008 0.0296020507812 0.0251045227051 0.0211524963379 0.0167999267578 0.0167579650879 0.01611328125 0.0173492431641 0.0171051025391 0.0182723999023 0.0191268920898 0.0220642089844 0.0356025695801 0.467292785645 07
0.0350151062012 0.0166091918945 0.0123100280762 0.0128746032715 0.0144805908203 0.0172958374023 0.0197792053223 0.0259819030762 0.0339393615723 0.0409736633301 0.0445442199707 0.0469284057617 0.045093536377 0.0358047485352 0.0275764465332 0.0232772827148 0.0181159973145 0.0176467895508 0.0159187316895 0.0167922973633 0.0178489685059 0.0189361572266 0.0171890258789 0.0174407958984 0.0313758850098 0.376251220703 08
0.0395126342773 0.0170555114746 0.0123176574707 0.0162925720215 0.0173950195312 0.0182456970215 0.0199546813965 0.0212631225586 0.0242195129395 0.0299415588379 0.0353813171387 0.0402565002441 0.0398216247559 0.0367546081543 0.032154083252 0.029727935791 0.0257835388184 0.0244102478027 0.0197105407715 0.0181846618652 0.0159606933594 0.0141487121582 0.0131797790527 0.0172233581543 0.0325813293457 0.388523101807 03
0.0286521911621 0.0183982849121 0.0141258239746 0.0153007507324 0.0151634216309 0.0154304504395 0.0154495239258 0.0162582397461 0.0188865661621 0.0243949890137 0.033130645752 0.0446968078613 0.052059173584 0.0514335632324 0.0474319458008 0.0426063537598 0.0354919433594 0.0307273864746 0.0231666564941 0.0198745727539 0.0153350830078 0.0127601623535 0.0109214782715 0.0136833190918 0.0273742675781 0.357246398926 02
0.045295715332 0.0270042419434 0.0200653076172 0.0181350708008 0.014835357666 0.0137329101562 0.0113296508789 0.010570526123 0.0100021362305 0.0103607177734 0.0112152099609 0.0125732421875 0.0130310058594 0.0121269226074 0.0105819702148 0.0106925964355 0.00988388061523 0.0119972229004 0.0116577148438 0.013355255127 0.0155487060547 0.0173759460449 0.0203094482422 0.0287055969238 0.0471878051758 0.572425842285 05
0.0284843444824 0.0143432617188 0.00967788696289 0.0118675231934 0.0154800415039 0.0182609558105 0.020637512207 0.0233917236328 0.0284080505371 0.0365333557129 0.0455856323242 0.0572166442871 0.0646286010742 0.0646209716797 0.0561180114746 0.0468902587891 0.0358123779297 0.030345916748 0.022575378418 0.018928527832 0.0142784118652 0.0113143920898 0.00941467285156 0.0109596252441 0.0233955383301 0.280830383301 09
0.040641784668 0.0209808349609 0.0159378051758 0.0154571533203 0.01416015625 0.0134696960449 0.0142974853516 0.0167198181152 0.0179977416992 0.0209884643555 0.0248336791992 0.0302238464355 0.0365562438965 0.0381202697754 0.0346870422363 0.0313758850098 0.0261497497559 0.0233688354492 0.0192070007324 0.0185966491699 0.0170631408691 0.0158348083496 0.0153045654297 0.0167922973633 0.0302581787109 0.430976867676 04
0.0429191589355 0.0260696411133 0.0144729614258 0.014949798584 0.0147590637207 0.0152778625488 0.0151977539062 0.014820098877 0.0146980285645 0.0145950317383 0.0150947570801 0.0160331726074 0.0167999267578 0.0178031921387 0.0170783996582 0.0177345275879 0.0160865783691 0.0179405212402 0.0167198181152 0.0167121887207 0.0165672302246 0.0173149108887 0.0161361694336 0.0241279602051 0.0430297851562 0.527061462402 06
0.0289421081543 0.0168495178223 0.00970077514648 0.0112648010254 0.0113754272461 0.0132751464844 0.0154685974121 0.0180740356445 0.0231437683105 0.02978515625 0.0392417907715 0.048641204834 0.0508728027344 0.0448379516602 0.0356407165527 0.028018951416 0.0215721130371 0.0194511413574 0.0152168273926 0.0137977600098 0.0113563537598 0.0109901428223 0.0106315612793 0.0164680480957 0.0269355773926 0.428447723389 01
0.0343399047852 0.016414642334 0.0144538879395 0.0162391662598 0.0172653198242 0.0188751220703 0.0215606689453 0.0234642028809 0.0277214050293 0.0330047607422 0.0391044616699 0.0446548461914 0.0478591918945 0.0448341369629 0.0371932983398 0.0323295593262 0.026237487793 0.0252571105957 0.0209693908691 0.0212669372559 0.0199317932129 0.018196105957 0.0150413513184 0.0143661499023 0.0297546386719 0.339664459229 07
0.0315093994141 0.0134887695312 0.00983047485352 0.012336730957 0.0156669616699 0.01953125 0.0226058959961 0.0301094055176 0.0393028259277 0.0515441894531 0.0596771240234 0.061450958252 0.0544509887695 0.0409164428711 0.0332374572754 0.0292663574219 0.0245628356934 0.0234451293945 0.0202293395996 0.0193290710449 0.0178489685059 0.0161437988281 0.0132217407227 0.0136680603027 0.0288543701172 0.297771453857 08
0.041805267334 0.0185394287109 0.0146865844727 0.0188407897949 0.0205535888672 0.0208930969238 0.0206336975098 0.0214347839355 0.0237503051758 0.0265884399414 0.0296478271484 0.0320243835449 0.0315933227539 0.0306930541992 0.026912689209 0.0255699157715 0.0216255187988 0.0216789245605 0.0191116333008 0.0198135375977 0.0192489624023 0.0186042785645 0.0151748657227 0.018741607666 0.0416488647461 0.400184631348 03
0.0378570556641 0.0251388549805 0.0136489868164 0.0124588012695 0.0121879577637 0.0135765075684 0.0135154724121 0.0144309997559 0.0152969360352 0.0153160095215 0.014762878418 0.0143775939941 0.0140838623047 0.0139389038086 0.0130767822266 0.0133781433105 0.0110206604004 0.0120162963867 0.011043548584 0.011791229248 0.0119972229004 0.0131454467773 0.0150146484375 0.0264511108398 0.0414772033691 0.588996887207 05
0.0368957519531 0.0198860168457 0.0168952941895 0.0206832885742 0.0211563110352 0.0210952758789 0.019359588623 0.0191688537598 0.0200500488281 0.0231170654297 0.0262908935547 0.0329971313477 0.0385246276855 0.0385589599609 0.0323028564453 0.0288352966309 0.0236930847168 0.0236854553223 0.0222969055176 0.0247077941895 0.0250129699707 0.0227508544922 0.0171012878418 0.0168304443359 0.0321655273438 0.375938415527 02
0.0371894836426 0.0138893127441 0.0111389160156 0.014820098877 0.0176811218262 0.0211486816406 0.0220413208008 0.0251846313477 0.0273666381836 0.0315856933594 0.0359840393066 0.0449333190918 0.0531158447266 0.0550346374512 0.0500869750977 0.0441207885742 0.0355567932129 0.0303916931152 0.0242576599121 0.0204048156738 0.017879486084 0.0156593322754 0.0129585266113 0.0127410888672 0.0301628112793 0.294666290283 09
0.0399398803711 0.0247688293457 0.0135231018066 0.013988494873 0.0141220092773 0.0152816772461 0.0153350830078 0.016170501709 0.015983581543 0.0171966552734 0.0179748535156 0.0190391540527 0.0191459655762 0.0188751220703 0.0183601379395 0.0191421508789 0.0174026489258 0.0188217163086 0.0166969299316 0.0177574157715 0.0166778564453 0.0171966552734 0.0158081054688 0.023006439209 0.0431213378906 0.514663696289 06
0.0291709899902 0.0155830383301 0.0110282897949 0.0124626159668 0.013671875 0.0154647827148 0.0175933837891 0.0204696655273 0.0243530273438 0.030891418457 0.0388679504395 0.0519371032715 0.0594825744629 0.0623550415039 0.053150177002 0.0430755615234 0.0326156616211 0.0257339477539 0.0204200744629 0.0183906555176 0.015682220459 0.0128974914551 0.010498046875 0.0121383666992 0.0207252502441 0.331340789795 04
0.0249443054199 0.0166473388672 0.00845336914062 0.010082244873 0.011589050293 0.0132179260254 0.0146980285645 0.0191078186035 0.0244445800781 0.0310668945312 0.0397644042969 0.0456733703613 0.0471458435059 0.0415954589844 0.0343132019043 0.0274085998535 0.0209617614746 0.0182342529297 0.013313293457 0.0120468139648 0.00968551635742 0.00935363769531 0.00982666015625 0.0183525085449 0.026798248291 0.451274871826 01
0.0250282287598 0.0144081115723 0.010082244873 0.0132827758789 0.014820098877 0.0177459716797 0.020092010498 0.0266952514648 0.0331497192383 0.0421714782715 0.0517807006836 0.0604705810547 0.0613098144531 0.0546112060547 0.0431938171387 0.0347518920898 0.027099609375 0.0255012512207 0.0213928222656 0.0192718505859 0.0167694091797 0.0141639709473 0.0113220214844 0.013069152832 0.0254325866699 0.302383422852 07
0.0407066345215 0.0247688293457 0.0206184387207 0.0196914672852 0.0165138244629 0.0131034851074 0.0112915039062 0.0103988647461 0.0112037658691 0.0140037536621 0.018928527832 0.0263595581055 0.0329284667969 0.0307540893555 0.0231285095215 0.0183792114258 0.0144462585449 0.013542175293 0.0130233764648 0.0155220031738 0.0176277160645 0.0212478637695 0.0216979980469 0.024600982666 0.0386695861816 0.486843109131 02
0.0332260131836 0.0146560668945 0.0113906860352 0.0146636962891 0.0170440673828 0.0198554992676 0.0224456787109 0.0254783630371 0.0286674499512 0.031795501709 0.0378265380859 0.0470962524414 0.0532531738281 0.0563888549805 0.051929473877 0.0467262268066 0.038028717041 0.0322303771973 0.0241432189941 0.0195999145508 0.0165786743164 0.013557434082 0.0108032226562 0.0117950439453 0.0284118652344 0.292407989502 09
0.0435638427734 0.0176239013672 0.0148696899414 0.0189933776855 0.0199203491211 0.0199699401855 0.0202293395996 0.0213890075684 0.023380279541 0.0250282287598 0.0283355712891 0.0312309265137 0.0318756103516 0.0296592712402 0.027416229248 0.0241928100586 0.021800994873 0.0223808288574 0.0199203491211 0.0190582275391 0.0180702209473 0.018238067627 0.0162963867188 0.0182876586914 0.0406875610352 0.407581329346 03
0.0295944213867 0.0117416381836 0.00852203369141 0.0116386413574 0.0142784118652 0.0187873840332 0.0236701965332 0.0294799804688 0.0385246276855 0.0511245727539 0.0620231628418 0.0665588378906 0.0615921020508 0.0536842346191 0.045539855957 0.0397987365723 0.0339088439941 0.0299263000488 0.0232582092285 0.0196876525879 0.0158500671387 0.0130043029785 0.00931549072266 0.0100860595703 0.0224304199219 0.255973815918 08
0.0356559753418 0.0233497619629 0.0112113952637 0.0123252868652 0.0129776000977 0.0137977600098 0.0135269165039 0.0148849487305 0.0167655944824 0.0180473327637 0.0201606750488 0.021785736084 0.0218505859375 0.0215721130371 0.0201530456543 0.0195579528809 0.0172843933105 0.0172920227051 0.0154800415039 0.0159873962402 0.0146408081055 0.0145301818848 0.014274597168 0.023509979248 0.0362358093262 0.533142089844 06
0.0403251647949 0.0197219848633 0.014533996582 0.01708984375 0.0174140930176 0.0174942016602 0.0162200927734 0.0167541503906 0.0177764892578 0.0203437805176 0.0242538452148 0.0288543701172 0.0322036743164 0.0315818786621 0.0293350219727 0.0258979797363 0.0216827392578 0.0210762023926 0.0187225341797 0.0182075500488 0.0170402526855 0.0162696838379 0.0143547058105 0.0195655822754 0.0353393554688 0.447940826416 01
0.0366249084473 0.0250778198242 0.014476776123 0.0132865905762 0.0119171142578 0.0139350891113 0.0144500732422 0.015567779541 0.0161628723145 0.0164909362793 0.0182991027832 0.0194396972656 0.0191192626953 0.0180969238281 0.016788482666 0.0169219970703 0.0148620605469 0.0169219970703 0.0144462585449 0.0154685974121 0.0151023864746 0.0151710510254 0.0150260925293 0.0224800109863 0.037784576416 0.546081542969 05
0.0354499816895 0.0196495056152 0.0161628723145 0.0153274536133 0.0138626098633 0.0130195617676 0.0126609802246 0.0143089294434 0.0171928405762 0.0223388671875 0.0292549133301 0.0385437011719 0.0515022277832 0.0517959594727 0.044189453125 0.0364570617676 0.027416229248 0.0238037109375 0.019344329834 0.018928527832 0.0164070129395 0.0159606933594 0.0140686035156 0.0156440734863 0.0276336669922 0.38907623291 04
0.0403251647949 0.0209121704102 0.0182762145996 0.0186500549316 0.0179023742676 0.0180473327637 0.0177917480469 0.018856048584 0.0201225280762 0.0226593017578 0.0252456665039 0.0285530090332 0.0292129516602 0.0285606384277 0.0274505615234 0.0258407592773 0.0228996276855 0.0228958129883 0.0206413269043 0.0212287902832 0.0200500488281 0.0191993713379 0.0166664123535 0.018424987793 0.0373420715332 0.422245025635 07
0.0355415344238 0.0200347900391 0.0170097351074 0.0191650390625 0.018970489502 0.0171508789062 0.0153427124023 0.0153350830078 0.0165939331055 0.0206565856934 0.025821685791 0.0350608825684 0.041805267334 0.0424346923828 0.0341835021973 0.0283699035645 0.0224227905273 0.02099609375 0.0185546875 0.0201301574707 0.0195922851562 0.0190238952637 0.0168113708496 0.018180847168 0.0326538085938 0.408157348633 02
0.0201530456543 0.0127601623535 0.00814437866211 0.0104293823242 0.0120658874512 0.0145721435547 0.0182571411133 0.0241279602051 0.0310401916504 0.0395126342773 0.0512619018555 0.0668106079102 0.0753555297852 0.0742034912109 0.0636024475098 0.0511016845703 0.0375061035156 0.0299797058105 0.0213584899902 0.0158386230469 0.0105590820312 0.00851821899414 0.00716018676758 0.00949859619141 0.0187721252441 0.26741027832 09
0.0480270385742 0.0185394287109 0.0175933837891 0.0221710205078 0.0231590270996 0.0226516723633 0.0208625793457 0.0215530395508 0.0212516784668 0.0227127075195 0.025577545166 0.0267219543457 0.0249176025391 0.0237007141113 0.0207939147949 0.0196990966797 0.0172004699707 0.0188827514648 0.0184707641602 0.0217170715332 0.0221099853516 0.0220985412598 0.0187034606934 0.0199317932129 0.0440979003906 0.416854858398 03
0.0398902893066 0.0180931091309 0.0173225402832 0.0158042907715 0.0150604248047 0.0158920288086 0.0181503295898 0.0237998962402 0.0302124023438 0.0363311767578 0.0394172668457 0.0409545898438 0.0375289916992 0.0283737182617 0.020694732666 0.0181770324707 0.014835357666 0.0148811340332 0.013126373291 0.013298034668 0.0150032043457 0.0192184448242 0.0194244384766 0.0207328796387 0.0393180847168 0.414459228516 08
0.0430030822754 0.0215263366699 0.0158309936523 0.0174560546875 0.0168876647949 0.0177917480469 0.0173835754395 0.0174713134766 0.017951965332 0.0192031860352 0.0204582214355 0.025016784668 0.028018951416 0.0287895202637 0.0243606567383 0.0227699279785 0.0189170837402 0.0194129943848 0.0172576904297 0.0170516967773 0.0170936584473 0.0182685852051 0.0171508789062 0.0210914611816 0.0376510620117 0.462184906006 01
0.0457954406738 0.0235443115234 0.0153160095215 0.0172386169434 0.0168190002441 0.0174102783203 0.0165939331055 0.0166931152344 0.0162506103516 0.0163955688477 0.017219543457 0.0183181762695 0.0185546875 0.0190162658691 0.0187492370605 0.0198440551758 0.0185127258301 0.019962310791 0.0195465087891 0.0206832885742 0.0184631347656 0.0180854797363 0.0163993835449 0.0213203430176 0.0476531982422 0.485614776611 06
0.0329666137695 0.0211219787598 0.0110702514648 0.0124931335449 0.0141754150391 0.0168571472168 0.0178604125977 0.0197792053223 0.0209083557129 0.0228996276855 0.0261116027832 0.0294380187988 0.0296669006348 0.0283813476562 0.0251274108887 0.0229148864746 0.019401550293 0.0194396972656 0.0166664123535 0.0156707763672 0.0148773193359 0.0141181945801 0.013111114502 0.0204620361328 0.0362014770508 0.47827911377 05
0.0342140197754 0.0192604064941 0.014533996582 0.0140571594238 0.0127220153809 0.0121803283691 0.0125579833984 0.0146789550781 0.0178184509277 0.0247421264648 0.0315361022949 0.0410842895508 0.0483207702637 0.051097869873 0.0459899902344 0.0380325317383 0.0287322998047 0.0237350463867 0.0177612304688 0.0166282653809 0.0145034790039 0.0139122009277 0.0128440856934 0.0143852233887 0.0265731811523 0.398097991943 04
0.0338325500488 0.0220222473145 0.0177001953125 0.0174789428711 0.0165557861328 0.0170936584473 0.0172462463379 0.0184020996094 0.0203018188477 0.0236053466797 0.0278625488281 0.0340843200684 0.0357704162598 0.0342407226562 0.0288009643555 0.0258255004883 0.0213890075684 0.0214233398438 0.0191841125488 0.0196990966797 0.0189399719238 0.0188255310059 0.0169372558594 0.0180206298828 0.0285911560059 0.426166534424 07
0.0230865478516 0.0130500793457 0.00845718383789 0.0109405517578 0.013111114502 0.0175933837891 0.0214233398438 0.0267486572266 0.032283782959 0.0406227111816 0.0496444702148 0.0609855651855 0.0663833618164 0.0669822692871 0.058032989502 0.0471420288086 0.0350761413574 0.0276870727539 0.0200386047363 0.0169410705566 0.0125007629395 0.0100555419922 0.00763320922852 0.0112152099609 0.0224990844727 0.279865264893 09
0.0434417724609 0.0225868225098 0.0181312561035 0.0198287963867 0.0199508666992 0.0182075500488 0.015983581543 0.0152359008789 0.0157051086426 0.0178451538086 0.021369934082 0.0264015197754 0.0311965942383 0.0318908691406 0.0285568237305 0.026481628418 0.0223922729492 0.023365020752 0.021312713623 0.022274017334 0.0213050842285 0.0214157104492 0.0191841125488 0.0183982849121 0.0382461547852 0.419292449951 02
0.0450782775879 0.0216636657715 0.0180358886719 0.0166397094727 0.0152244567871 0.0148773193359 0.0144577026367 0.0154342651367 0.017505645752 0.0208892822266 0.0245895385742 0.028018951416 0.0300903320312 0.0279197692871 0.0247688293457 0.0233764648438 0.0203704833984 0.0198440551758 0.0178718566895 0.0182571411133 0.0176887512207 0.0176467895508 0.0162124633789 0.0188026428223 0.0418281555176 0.452907562256 03
0.0385475158691 0.0176658630371 0.0148506164551 0.0146484375 0.0149383544922 0.0160217285156 0.0193634033203 0.0246849060059 0.0321502685547 0.0371475219727 0.04150390625 0.0454254150391 0.0417594909668 0.0291595458984 0.0201454162598 0.0182914733887 0.0156059265137 0.0151176452637 0.0144653320312 0.0155868530273 0.0172958374023 0.0206871032715 0.0191993713379 0.0195922851562 0.0339584350586 0.402187347412 08
0.0478057861328 0.0271034240723 0.0186424255371 0.0175094604492 0.0155754089355 0.0133895874023 0.0110931396484 0.0109214782715 0.0108108520508 0.0123100280762 0.0141220092773 0.015941619873 0.0169486999512 0.0176963806152 0.0173759460449 0.0167121887207 0.0143775939941 0.0143432617188 0.0125541687012 0.0142631530762 0.0157127380371 0.0181503295898 0.0179672241211 0.024471282959 0.0443000793457 0.539901733398 01
0.0457611083984 0.0265846252441 0.016471862793 0.0171394348145 0.0160942077637 0.015209197998 0.0145111083984 0.0145988464355 0.0150108337402 0.0153388977051 0.0159912109375 0.0171241760254 0.0172119140625 0.0168533325195 0.0165748596191 0.0177917480469 0.0168876647949 0.0186042785645 0.0171127319336 0.0187644958496 0.0191650390625 0.019660949707 0.0181007385254 0.0225257873535 0.0469360351562 0.503974914551 06
0.0395011901855 0.0229911804199 0.0132865905762 0.0141181945801 0.0146865844727 0.0173225402832 0.0168304443359 0.0181121826172 0.0181350708008 0.0192527770996 0.0200309753418 0.0212593078613 0.0208969116211 0.0201263427734 0.0194969177246 0.0200653076172 0.0180892944336 0.0195541381836 0.016918182373 0.0175132751465 0.0167694091797 0.0162925720215 0.0146980285645 0.0213241577148 0.0427093505859 0.500019073486 05
0.0341300964355 0.0186233520508 0.0135498046875 0.0136489868164 0.0134963989258 0.0144119262695 0.0146293640137 0.0163955688477 0.018913269043 0.0231018066406 0.0311508178711 0.0427780151367 0.0547828674316 0.0566596984863 0.0475997924805 0.0376319885254 0.0274925231934 0.0230407714844 0.0200424194336 0.0194396972656 0.0165977478027 0.015251159668 0.0132026672363 0.0140113830566 0.0261688232422 0.373249053955 04
0.0311431884766 0.0177040100098 0.0141143798828 0.0152359008789 0.015796661377 0.0182991027832 0.0191764831543 0.0210189819336 0.0240669250488 0.0295181274414 0.0364265441895 0.0455856323242 0.0487899780273 0.0461654663086 0.0369338989258 0.0305633544922 0.0252456665039 0.0249252319336 0.0200233459473 0.0195045471191 0.0191459655762 0.0175590515137 0.0143623352051 0.0141868591309 0.0244445800781 0.370063781738 07
0.032039642334 0.0135459899902 0.0108070373535 0.0139350891113 0.0173835754395 0.0232353210449 0.0261268615723 0.0291023254395 0.0324974060059 0.0365333557129 0.0391159057617 0.0472755432129 0.0525321960449 0.0541076660156 0.0486755371094 0.0435943603516 0.0345649719238 0.0313034057617 0.0249214172363 0.0220527648926 0.0183601379395 0.0156440734863 0.0113563537598 0.011474609375 0.0283470153809 0.281467437744 09
0.0395050048828 0.0171432495117 0.0147933959961 0.0149879455566 0.0145034790039 0.016357421875 0.0189666748047 0.0236892700195 0.0307884216309 0.0390892028809 0.0442008972168 0.0469741821289 0.0440330505371 0.0353698730469 0.02734375 0.0222930908203 0.0176391601562 0.0174713134766 0.0159912109375 0.0166931152344 0.0178031921387 0.0194053649902 0.0171928405762 0.016845703125 0.0328369140625 0.378082275391 08
0.0473899841309 0.024097442627 0.0213165283203 0.0213890075684 0.0182762145996 0.0148239135742 0.0124092102051 0.0119476318359 0.0122337341309 0.0146293640137 0.0174827575684 0.0229377746582 0.0264320373535 0.0260925292969 0.0240097045898 0.0218200683594 0.017578125 0.0188331604004 0.0181846618652 0.0203857421875 0.021541595459 0.0223159790039 0.0204238891602 0.0207595825195 0.042594909668 0.460094451904 02
0.0420837402344 0.0250129699707 0.0160102844238 0.0150909423828 0.0137596130371 0.013256072998 0.0113487243652 0.0127105712891 0.0141410827637 0.0170860290527 0.0212135314941 0.0259590148926 0.0274200439453 0.0265197753906 0.0220985412598 0.0195693969727 0.0163230895996 0.0162162780762 0.0134162902832 0.014289855957 0.0135383605957 0.0138473510742 0.0153732299805 0.0240936279297 0.0368881225586 0.512733459473 01
0.0444793701172 0.0236625671387 0.0185966491699 0.016487121582 0.0137481689453 0.0133094787598 0.0130195617676 0.0139389038086 0.0163459777832 0.0194511413574 0.0229644775391 0.0258140563965 0.0268020629883 0.0257682800293 0.0244178771973 0.0222206115723 0.0194702148438 0.0203056335449 0.0181922912598 0.018424987793 0.0172157287598 0.0167999267578 0.0162658691406 0.0196495056152 0.0383987426758 0.474250793457 03
0.0416107177734 0.0245475769043 0.0167655944824 0.0180740356445 0.0176391601562 0.0175628662109 0.0155754089355 0.0151863098145 0.0152626037598 0.0161361694336 0.0178871154785 0.0203132629395 0.020622253418 0.0200805664062 0.0200386047363 0.0203170776367 0.0185661315918 0.0203628540039 0.0185775756836 0.0209007263184 0.0199241638184 0.0191688537598 0.0171813964844 0.0211181640625 0.0449829101562 0.481597900391 06
0.0419921875 0.0268440246582 0.0169868469238 0.0162124633789 0.0144500732422 0.0150299072266 0.0139541625977 0.0146713256836 0.0139999389648 0.0138473510742 0.0144996643066 0.0140533447266 0.0138168334961 0.0137901306152 0.0126647949219 0.0137481689453 0.0124359130859 0.0144309997559 0.0126419067383 0.0151290893555 0.0150451660156 0.0165176391602 0.0177154541016 0.0254135131836 0.047477722168 0.552631378174 05
0.0213050842285 0.0140495300293 0.00827407836914 0.00981521606445 0.0108375549316 0.0124702453613 0.0150108337402 0.0191345214844 0.0245513916016 0.0328369140625 0.0452880859375 0.0632133483887 0.0748825073242 0.0776672363281 0.0626182556152 0.047908782959 0.0337409973145 0.0258026123047 0.0186080932617 0.0148506164551 0.0114402770996 0.00981903076172 0.00824356079102 0.0107078552246 0.017406463623 0.309516906738 04
0.0256843566895 0.0144805908203 0.0089111328125 0.0108032226562 0.0125503540039 0.0162200927734 0.0189399719238 0.0242767333984 0.0310134887695 0.0406684875488 0.0514144897461 0.0590171813965 0.0606269836426 0.0547065734863 0.0439338684082 0.0365600585938 0.0283393859863 0.0247230529785 0.0206832885742 0.0180625915527 0.0146560668945 0.0126762390137 0.0105247497559 0.0124168395996 0.0221862792969 0.325923919678 07
0.0329856872559 0.0144195556641 0.0109329223633 0.0149726867676 0.0181503295898 0.0213394165039 0.0236930847168 0.0258445739746 0.0278015136719 0.0322151184082 0.0396919250488 0.0475120544434 0.0578231811523 0.0592346191406 0.0514373779297 0.0431365966797 0.035285949707 0.0309829711914 0.0244636535645 0.0210800170898 0.0178985595703 0.0149879455566 0.0111465454102 0.0124397277832 0.0264892578125 0.284034729004 09
0.0445518493652 0.0309867858887 0.0217247009277 0.0156669616699 0.0117645263672 0.00913238525391 0.00713729858398 0.0071907043457 0.00741577148438 0.00925445556641 0.0131034851074 0.0162315368652 0.0195846557617 0.0188102722168 0.0156288146973 0.0149803161621 0.0116729736328 0.0132026672363 0.0114822387695 0.0134658813477 0.0144119262695 0.0169486999512 0.0201606750488 0.0274391174316 0.0415725708008 0.566478729248 02
0.0366058349609 0.0143966674805 0.0115585327148 0.0146217346191 0.0168037414551 0.01953125 0.0225639343262 0.0273666381836 0.0335998535156 0.041820526123 0.0482444763184 0.0518417358398 0.0488395690918 0.0442657470703 0.0355911254883 0.0317306518555 0.0268974304199 0.0260200500488 0.0222244262695 0.020450592041 0.0180625915527 0.0151786804199 0.0129470825195 0.0127410888672 0.028190612793 0.317905426025 08
0.0367660522461 0.0188827514648 0.01171875 0.0143547058105 0.0172500610352 0.0182037353516 0.0175895690918 0.0183410644531 0.0207862854004 0.0247573852539 0.0299339294434 0.0375709533691 0.0405731201172 0.0407905578613 0.0325927734375 0.0280685424805 0.0209732055664 0.0194320678711 0.0168190002441 0.0166625976562 0.0161437988281 0.015926361084 0.0143165588379 0.0185546875 0.0319900512695 0.421001434326 01
0.0411682128906 0.0168190002441 0.0138473510742 0.0167236328125 0.0177841186523 0.0189590454102 0.0177268981934 0.0194320678711 0.0225982666016 0.0276870727539 0.0325012207031 0.0379028320312 0.0392379760742 0.0394248962402 0.0354499816895 0.0315818786621 0.025562286377 0.0244560241699 0.0213813781738 0.0199966430664 0.0177841186523 0.0161819458008 0.0137023925781 0.0160522460938 0.0337028503418 0.382335662842 03
0.0415954589844 0.0317840576172 0.0167083740234 0.0121383666992 0.00983428955078 0.00963973999023 0.00848007202148 0.00871276855469 0.00847244262695 0.00871658325195 0.009033203125 0.00901031494141 0.00898361206055 0.00813293457031 0.00786972045898 0.00850296020508 0.00796127319336 0.00944137573242 0.00966644287109 0.0113983154297 0.0118942260742 0.0126495361328 0.0165481567383 0.0295677185059 0.0410766601562 0.642181396484 05
0.0416221618652 0.0252990722656 0.0158538818359 0.0168533325195 0.016487121582 0.0155601501465 0.0137748718262 0.0130424499512 0.0139350891113 0.0155181884766 0.018138885498 0.0209426879883 0.0227317810059 0.0215644836426 0.0193710327148 0.0177841186523 0.0143013000488 0.015251159668 0.0141906738281 0.0167999267578 0.0186233520508 0.0192337036133 0.0182876586914 0.0234832763672 0.0419387817383 0.509410858154 06
0.0298461914062 0.0173606872559 0.0128326416016 0.0155334472656 0.0165977478027 0.0176696777344 0.0188446044922 0.0202445983887 0.022777557373 0.0275039672852 0.0331039428711 0.0436134338379 0.0574607849121 0.0636978149414 0.0572280883789 0.0482635498047 0.0372047424316 0.0293159484863 0.0213928222656 0.019474029541 0.0157699584961 0.0129585266113 0.0105056762695 0.0120964050293 0.0228042602539 0.315898895264 04
0.0375747680664 0.016284942627 0.0118789672852 0.0158157348633 0.0183334350586 0.0208511352539 0.0215339660645 0.0260810852051 0.0305137634277 0.0349617004395 0.0410919189453 0.0450248718262 0.0457420349121 0.0428237915039 0.0352401733398 0.0297470092773 0.0250968933105 0.0234642028809 0.021411895752 0.0210800170898 0.0179595947266 0.0165824890137 0.014217376709 0.0162315368652 0.033130645752 0.337326049805 07
0.0167388916016 0.0102081298828 0.00679779052734 0.00903701782227 0.0117874145508 0.0163154602051 0.0213661193848 0.028736114502 0.0352096557617 0.0450553894043 0.0579605102539 0.0719261169434 0.0776519775391 0.077335357666 0.0621185302734 0.0517425537109 0.0375366210938 0.0289649963379 0.0207290649414 0.0164909362793 0.0122909545898 0.00913619995117 0.00680160522461 0.00857543945312 0.0175170898438 0.241970062256 09
0.0462341308594 0.0353088378906 0.0196838378906 0.0136680603027 0.00913238525391 0.00664520263672 0.00504302978516 0.00487899780273 0.00547790527344 0.00656890869141 0.00851440429688 0.0112724304199 0.0136985778809 0.0125503540039 0.0107002258301 0.00973892211914 0.00746917724609 0.00933837890625 0.00883483886719 0.0105514526367 0.012035369873 0.0160865783691 0.0203552246094 0.0312957763672 0.0436134338379 0.62130355835 02
0.0370330810547 0.0228614807129 0.0139846801758 0.0122528076172 0.0118293762207 0.0125617980957 0.0124549865723 0.0138130187988 0.0140686035156 0.0164642333984 0.0189933776855 0.0220069885254 0.0243835449219 0.0240249633789 0.0202331542969 0.0194473266602 0.015983581543 0.0163764953613 0.0134010314941 0.0143623352051 0.0141944885254 0.0145530700684 0.0139389038086 0.0233001708984 0.035514831543 0.541961669922 01
0.0366439819336 0.016227722168 0.0123634338379 0.0157661437988 0.0165252685547 0.0184898376465 0.0188522338867 0.0214500427246 0.0264587402344 0.0334205627441 0.0389289855957 0.0431900024414 0.0416374206543 0.0380020141602 0.0336685180664 0.0299415588379 0.0249099731445 0.0232696533203 0.0195274353027 0.0188217163086 0.0158805847168 0.0141906738281 0.0123672485352 0.0165061950684 0.0320777893066 0.380882263184 03
0.0427436828613 0.0172576904297 0.0147895812988 0.0159759521484 0.0163841247559 0.0172080993652 0.0187950134277 0.023567199707 0.0299224853516 0.0370483398438 0.0395812988281 0.0368156433105 0.0329856872559 0.0268745422363 0.022762298584 0.0197525024414 0.0163803100586 0.0160942077637 0.0139961242676 0.014820098877 0.0150489807129 0.0164947509766 0.0178298950195 0.0210456848145 0.0402145385742 0.41561126709 08
0.0435104370117 0.0251731872559 0.0149192810059 0.016429901123 0.0170936584473 0.0175895690918 0.0166130065918 0.0167579650879 0.0166130065918 0.0170211791992 0.0163612365723 0.017391204834 0.01708984375 0.0173225402832 0.0174026489258 0.0173416137695 0.0158576965332 0.0184631347656 0.0171203613281 0.0182151794434 0.0176811218262 0.0179710388184 0.0158195495605 0.024169921875 0.0457191467285 0.50435256958 06
0.0403938293457 0.0312461853027 0.0152549743652 0.0108642578125 0.0080680847168 0.00871658325195 0.00834655761719 0.00896835327148 0.00888442993164 0.00868988037109 0.00857162475586 0.00878524780273 0.00907516479492 0.00933074951172 0.00896453857422 0.00978469848633 0.00836944580078 0.00962829589844 0.0087890625 0.00994491577148 0.0105972290039 0.0115737915039 0.014289855957 0.0293083190918 0.0400695800781 0.653484344482 05
0.0400123596191 0.0181274414062 0.017017364502 0.0200157165527 0.0199661254883 0.0201225280762 0.0198974609375 0.0219306945801 0.0236892700195 0.0269050598145 0.0297393798828 0.0364837646484 0.0386657714844 0.0363006591797 0.0306777954102 0.0279541015625 0.0241050720215 0.0232391357422 0.0205917358398 0.0211601257324 0.0208969116211 0.0203170776367 0.0176086425781 0.016960144043 0.0353584289551 0.372257232666 07
0.0343627929688 0.018726348877 0.015796661377 0.0157012939453 0.0149688720703 0.0150108337402 0.0153274536133 0.0168495178223 0.018611907959 0.0228042602539 0.0268020629883 0.0373687744141 0.0526809692383 0.0578689575195 0.052677154541 0.0481491088867 0.0361480712891 0.0281066894531 0.0215148925781 0.0180320739746 0.0152931213379 0.0148086547852 0.012809753418 0.0134811401367 0.0255432128906 0.350555419922 04
0.019458770752 0.0126686096191 0.00856018066406 0.010799407959 0.013011932373 0.0157890319824 0.0185050964355 0.0223655700684 0.0286483764648 0.0390319824219 0.055248260498 0.0691261291504 0.0768775939941 0.0747985839844 0.0616874694824 0.0487060546875 0.0381050109863 0.030387878418 0.0217819213867 0.0165786743164 0.0120735168457 0.00912475585938 0.00736999511719 0.00938034057617 0.0184288024902 0.261486053467 09
0.0397415161133 0.0260391235352 0.0203475952148 0.0195693969727 0.0161666870117 0.0130043029785 0.0105056762695 0.010425567627 0.0111808776855 0.0137825012207 0.017993927002 0.0253372192383 0.0312538146973 0.0313262939453 0.0269317626953 0.0239410400391 0.019588470459 0.0193672180176 0.0180244445801 0.018684387207 0.0179405212402 0.0201950073242 0.0198669433594 0.0220260620117 0.0381011962891 0.468658447266 02
0.0452651977539 0.0193138122559 0.0166778564453 0.0150833129883 0.0137176513672 0.0139694213867 0.0162620544434 0.0207710266113 0.0262794494629 0.0317306518555 0.0343322753906 0.0347290039062 0.0338706970215 0.0273246765137 0.0203132629395 0.0180130004883 0.0146064758301 0.0140647888184 0.0120162963867 0.0136756896973 0.0158462524414 0.0187797546387 0.0194511413574 0.0203475952148 0.0406532287598 0.442905426025 08
0.0524826049805 0.0224418640137 0.0208930969238 0.0213394165039 0.0184707641602 0.0166625976562 0.0145072937012 0.0145568847656 0.0157318115234 0.0168495178223 0.0193214416504 0.019889831543 0.0200309753418 0.0188941955566 0.0183334350586 0.0182838439941 0.0161247253418 0.0171775817871 0.0171928405762 0.0177993774414 0.0182800292969 0.0196723937988 0.0189247131348 0.0226631164551 0.0432205200195 0.480255126953 03
0.0326843261719 0.0225028991699 0.0118865966797 0.0117721557617 0.0117721557617 0.0128517150879 0.0124168395996 0.014289855957 0.0156707763672 0.0182952880859 0.0199737548828 0.0225257873535 0.0232429504395 0.0229759216309 0.0206298828125 0.019344329834 0.0164222717285 0.0163192749023 0.0138511657715 0.0143775939941 0.0125122070312 0.0130424499512 0.0128707885742 0.0230293273926 0.0338706970215 0.550868988037 01
0.0362510681152 0.0251579284668 0.014045715332 0.0129699707031 0.0127830505371 0.0146942138672 0.0149154663086 0.0150756835938 0.016227722168 0.018310546875 0.0188407897949 0.0203247070312 0.0200576782227 0.0189590454102 0.0176620483398 0.018482208252 0.0152206420898 0.0157623291016 0.0140151977539 0.0146789550781 0.0143737792969 0.0157165527344 0.0158386230469 0.0228271484375 0.0380249023438 0.5387840271 05
0.0463218688965 0.0257415771484 0.0210571289062 0.019100189209 0.0153121948242 0.014102935791 0.0124664306641 0.0130615234375 0.0138511657715 0.0165710449219 0.0192718505859 0.0226974487305 0.0234680175781 0.0221672058105 0.0183181762695 0.0176239013672 0.0139694213867 0.0153121948242 0.0139961242676 0.0163917541504 0.0181312561035 0.0202713012695 0.021598815918 0.0238380432129 0.0397262573242 0.495632171631 07
0.046688079834 0.0242652893066 0.0153541564941 0.0171051025391 0.0174980163574 0.0180015563965 0.0177421569824 0.0183143615723 0.017162322998 0.0168304443359 0.0172653198242 0.0176010131836 0.0180931091309 0.0185089111328 0.0178985595703 0.0180397033691 0.0171699523926 0.0190811157227 0.0175971984863 0.0184669494629 0.0189361572266 0.0195388793945 0.0183906555176 0.0235786437988 0.0458984375 0.484973907471 06
0.0398445129395 0.022891998291 0.0165596008301 0.0138473510742 0.0119285583496 0.0111465454102 0.0109786987305 0.0127906799316 0.0152778625488 0.0189514160156 0.0235939025879 0.0308151245117 0.0387687683105 0.0422058105469 0.0378112792969 0.0328559875488 0.0255279541016 0.0227928161621 0.0184326171875 0.0172538757324 0.0153198242188 0.0144119262695 0.014030456543 0.0163307189941 0.0307235717773 0.44490814209 04
0.0190658569336 0.0126037597656 0.00711822509766 0.00843811035156 0.0102653503418 0.0134658813477 0.0182075500488 0.0246810913086 0.0327110290527 0.0444984436035 0.0549621582031 0.0673866271973 0.077320098877 0.0752182006836 0.0640830993652 0.0519485473633 0.0380363464355 0.0291481018066 0.0190658569336 0.0147972106934 0.0110206604004 0.00889205932617 0.00699234008789 0.00897216796875 0.015625 0.265476226807 09
0.0341529846191 0.0205154418945 0.0167007446289 0.0188407897949 0.0187873840332 0.0177688598633 0.0153465270996 0.0157089233398 0.0153923034668 0.0178489685059 0.022144317627 0.031135559082 0.0387382507324 0.040885925293 0.0368919372559 0.031665802002 0.0265655517578 0.0234642028809 0.0208930969238 0.0213088989258 0.0197257995605 0.0184593200684 0.0162162780762 0.0187759399414 0.0339660644531 0.408100128174 02
0.0469665527344 0.0235977172852 0.0179023742676 0.0128211975098 0.0108337402344 0.0109558105469 0.0123901367188 0.0153045654297 0.0190582275391 0.0225791931152 0.0240135192871 0.025218963623 0.0262908935547 0.0202255249023 0.0154838562012 0.013786315918 0.0113143920898 0.0122222900391 0.0109176635742 0.0124473571777 0.0133361816406 0.0171737670898 0.0198059082031 0.0227928161621 0.042163848877 0.520397186279 08
0.0382652282715 0.0214080810547 0.0137825012207 0.0165748596191 0.0169410705566 0.0174713134766 0.017219543457 0.0184898376465 0.0189208984375 0.020565032959 0.0217628479004 0.0247230529785 0.0273590087891 0.0306739807129 0.0226135253906 0.0215187072754 0.0188217163086 0.019157409668 0.0177001953125 0.0180244445801 0.0171737670898 0.0171012878418 0.0153427124023 0.0226173400879 0.0343399047852 0.471431732178 01
0.048957824707 0.0256004333496 0.0212211608887 0.0188865661621 0.0158843994141 0.0153160095215 0.0134086608887 0.0133056640625 0.0143165588379 0.0158081054688 0.0156135559082 0.016227722168 0.0156135559082 0.0162582397461 0.0156707763672 0.0163841247559 0.0146636962891 0.0165252685547 0.0144653320312 0.0162086486816 0.0166893005371 0.0182571411133 0.0180130004883 0.0236511230469 0.0432510375977 0.519802093506 03
0.0349197387695 0.0214195251465 0.0120697021484 0.0134735107422 0.0148277282715 0.0174102783203 0.0180969238281 0.0191612243652 0.020336151123 0.022891998291 0.0262451171875 0.0295715332031 0.0303535461426 0.0279388427734 0.0243644714355 0.0229301452637 0.0189933776855 0.0199851989746 0.0168609619141 0.0168952941895 0.0146255493164 0.0146713256836 0.0132827758789 0.0202026367188 0.0379333496094 0.470539093018 05
0.0404472351074 0.024715423584 0.0167274475098 0.0134239196777 0.0109443664551 0.00986480712891 0.00979232788086 0.0108947753906 0.0128135681152 0.0148887634277 0.0183486938477 0.0233612060547 0.0314521789551 0.0359573364258 0.033203125 0.0300788879395 0.0238647460938 0.0211982727051 0.0168647766113 0.015552520752 0.0140419006348 0.0135345458984 0.0145111083984 0.0193099975586 0.0304679870605 0.493740081787 04
0.0535163879395 0.0275115966797 0.019100189209 0.0182647705078 0.0163993835449 0.0158081054688 0.0134773254395 0.012134552002 0.0109710693359 0.0101699829102 0.0105514526367 0.0111274719238 0.011531829834 0.012035369873 0.0124130249023 0.01318359375 0.0125045776367 0.0147094726562 0.014404296875 0.0180740356445 0.0196838378906 0.0212898254395 0.019889831543 0.0244750976562 0.0544281005859 0.532344818115 06
0.0423240661621 0.0289726257324 0.020809173584 0.0161285400391 0.0121726989746 0.0109558105469 0.0105209350586 0.0110664367676 0.011646270752 0.0134048461914 0.0164108276367 0.0191764831543 0.0218963623047 0.0205268859863 0.0181579589844 0.0159454345703 0.0130310058594 0.0136184692383 0.0133285522461 0.0149040222168 0.0171928405762 0.0192222595215 0.0206565856934 0.0249061584473 0.0368270874023 0.536197662354 07
0.0210876464844 0.0125617980957 0.00785827636719 0.00929641723633 0.0113410949707 0.0158042907715 0.0192489624023 0.0254898071289 0.0307731628418 0.040153503418 0.053092956543 0.0673713684082 0.0749397277832 0.0728607177734 0.0613288879395 0.0485191345215 0.0367889404297 0.027889251709 0.0194664001465 0.0148506164551 0.0108222961426 0.00915908813477 0.00822067260742 0.0101776123047 0.0184707641602 0.272426605225 09
0.0389175415039 0.0193367004395 0.0172424316406 0.0186729431152 0.0190353393555 0.0187950134277 0.0172576904297 0.0181541442871 0.0185623168945 0.0219688415527 0.0272026062012 0.0325546264648 0.0355949401855 0.0363960266113 0.0337028503418 0.031623840332 0.026554107666 0.024959564209 0.0205993652344 0.0211753845215 0.0198135375977 0.0188751220703 0.0155944824219 0.016040802002 0.0367012023926 0.394668579102 02
0.0383415222168 0.021240234375 0.0166702270508 0.0134315490723 0.0125465393066 0.0137634277344 0.0164604187012 0.0209083557129 0.0266304016113 0.0314826965332 0.0335159301758 0.0337944030762 0.0296363830566 0.0229949951172 0.0175399780273 0.0155029296875 0.0127754211426 0.0125961303711 0.0113563537598 0.012752532959 0.0133438110352 0.0173492431641 0.0194931030273 0.0225410461426 0.0387420654297 0.474590301514 08
0.0484161376953 0.0197601318359 0.0185203552246 0.0195350646973 0.0181770324707 0.0175361633301 0.0171127319336 0.0172080993652 0.0193786621094 0.0210494995117 0.0231590270996 0.025463104248 0.0240631103516 0.0229110717773 0.0200233459473 0.0210762023926 0.0192031860352 0.0202331542969 0.0183448791504 0.0193214416504 0.0185394287109 0.0175018310547 0.0164527893066 0.0200042724609 0.0437774658203 0.453231811523 03
0.0419540405273 0.0216484069824 0.0150260925293 0.0154457092285 0.0143623352051 0.0140151977539 0.0147705078125 0.0158309936523 0.0165786743164 0.018985748291 0.0213661193848 0.0265579223633 0.0294570922852 0.0306663513184 0.0272445678711 0.025707244873 0.0210151672363 0.0203247070312 0.0175476074219 0.0179824829102 0.0171661376953 0.0163650512695 0.0161437988281 0.0206642150879 0.033992767334 0.469181060791 01
0.042537689209 0.0241813659668 0.015323638916 0.0152740478516 0.0150871276855 0.0159034729004 0.0153427124023 0.0167007446289 0.0168418884277 0.0167808532715 0.016902923584 0.0175247192383 0.0177421569824 0.0180778503418 0.0170059204102 0.0178833007812 0.014705657959 0.0161743164062 0.0149536132812 0.0162048339844 0.0163040161133 0.0169982910156 0.0174179077148 0.0235061645508 0.0455436706543 0.519081115723 05
0.0337677001953 0.0203018188477 0.0132827758789 0.0147438049316 0.0134963989258 0.0128707885742 0.0134391784668 0.0155715942383 0.018970489502 0.0246124267578 0.0307693481445 0.0397987365723 0.0477409362793 0.0482406616211 0.0430526733398 0.0360298156738 0.0268898010254 0.0217819213867 0.016773223877 0.0149078369141 0.0135612487793 0.0135231018066 0.0132064819336 0.0167503356934 0.0279846191406 0.407932281494 04
0.0237045288086 0.0118026733398 0.00875091552734 0.011302947998 0.0144691467285 0.018440246582 0.0229949951172 0.0272941589355 0.0312767028809 0.0376358032227 0.0452041625977 0.0579223632812 0.0673713684082 0.0736656188965 0.0645294189453 0.0538177490234 0.0394592285156 0.0306739807129 0.0214653015137 0.0178642272949 0.0133323669434 0.010440826416 0.00791549682617 0.00994873046875 0.0219993591309 0.256717681885 09
0.0516128540039 0.0283737182617 0.0184555053711 0.018627166748 0.0167007446289 0.0153388977051 0.0125923156738 0.012767791748 0.0111770629883 0.0109977722168 0.0105819702148 0.0106773376465 0.0114212036133 0.0116920471191 0.0114822387695 0.0125389099121 0.0116195678711 0.0137062072754 0.0127105712891 0.0154037475586 0.0178565979004 0.0202484130859 0.0204200744629 0.0264663696289 0.0520439147949 0.544486999512 06
0.035343170166 0.017879486084 0.0147857666016 0.0165519714355 0.0166893005371 0.0182342529297 0.0188446044922 0.0209579467773 0.0228042602539 0.0283050537109 0.0319976806641 0.038257598877 0.0400466918945 0.0376663208008 0.033878326416 0.0304412841797 0.0256233215332 0.0235595703125 0.0204124450684 0.0198936462402 0.0176582336426 0.0169792175293 0.0147094726562 0.0166931152344 0.0316772460938 0.390110015869 07
0.0445365905762 0.0218544006348 0.0195922851562 0.0214157104492 0.020565032959 0.0171966552734 0.0149078369141 0.0143737792969 0.0146903991699 0.0171012878418 0.0205001831055 0.0257949829102 0.0293922424316 0.0309982299805 0.0284233093262 0.0253829956055 0.0211334228516 0.0203514099121 0.0187225341797 0.020320892334 0.0209884643555 0.0205154418945 0.0193557739258 0.019905090332 0.0398750305176 0.432106018066 02
0.0365028381348 0.0155944824219 0.0131950378418 0.0144844055176 0.0151062011719 0.0164222717285 0.0190238952637 0.0248947143555 0.034854888916 0.0458297729492 0.0502624511719 0.0487327575684 0.042179107666 0.0328216552734 0.0255279541016 0.0225219726562 0.0189971923828 0.0185661315918 0.0150451660156 0.0158386230469 0.0159225463867 0.0155143737793 0.0150260925293 0.0176544189453 0.0371055603027 0.372375488281 08
0.0406455993652 0.018482208252 0.0142059326172 0.0163993835449 0.0168304443359 0.0170669555664 0.0175514221191 0.0192489624023 0.0222473144531 0.0270919799805 0.0302810668945 0.0330352783203 0.0324554443359 0.0311470031738 0.0284805297852 0.0271072387695 0.0230903625488 0.0226936340332 0.0189476013184 0.0172424316406 0.0163307189941 0.0158615112305 0.0136642456055 0.017993927002 0.0344772338867 0.427421569824 03
0.0467147827148 0.0267028808594 0.016185760498 0.0129127502441 0.0103530883789 0.00972747802734 0.009765625 0.0101776123047 0.0104446411133 0.0110359191895 0.0120315551758 0.0136299133301 0.0140762329102 0.0149040222168 0.0142021179199 0.0147590637207 0.0121192932129 0.012996673584 0.0116233825684 0.0131225585938 0.0142936706543 0.0154342651367 0.0160064697266 0.0268630981445 0.0387115478516 0.591205596924 01
0.0466690063477 0.0271072387695 0.0182418823242 0.0166282653809 0.0150375366211 0.0149154663086 0.0132446289062 0.0133018493652 0.0122756958008 0.0122108459473 0.0123863220215 0.0126876831055 0.0115661621094 0.0113563537598 0.0111999511719 0.0125045776367 0.0113220214844 0.0137023925781 0.0125923156738 0.014778137207 0.0156745910645 0.0180931091309 0.0191497802734 0.0274658203125 0.0482292175293 0.55765914917 05
0.0310668945312 0.0171241760254 0.0120086669922 0.0122604370117 0.012580871582 0.0132827758789 0.0149269104004 0.0173873901367 0.0203170776367 0.0262985229492 0.0362968444824 0.048038482666 0.0581932067871 0.0634498596191 0.056568145752 0.0441970825195 0.0312614440918 0.0251770019531 0.0199851989746 0.0171546936035 0.0134391784668 0.0122375488281 0.0110092163086 0.0133056640625 0.0265464782715 0.345886230469 04
0.0333061218262 0.0160026550293 0.0132331848145 0.0177879333496 0.0201301574707 0.0216598510742 0.0202941894531 0.0210800170898 0.0209350585938 0.0233154296875 0.027889251709 0.0391693115234 0.0537567138672 0.0622177124023 0.0617599487305 0.0512962341309 0.0399932861328 0.0329551696777 0.025806427002 0.0214920043945 0.0186958312988 0.0170059204102 0.0131759643555 0.0118064880371 0.0272941589355 0.287940979004 09
0.038646697998 0.0246238708496 0.0212326049805 0.0174446105957 0.0138397216797 0.0127296447754 0.0119857788086 0.0122947692871 0.0132637023926 0.016975402832 0.0227584838867 0.0319862365723 0.0384635925293 0.0341377258301 0.0236663818359 0.017951965332 0.0131759643555 0.0143089294434 0.0136108398438 0.015552520752 0.0198593139648 0.0226516723633 0.0213165283203 0.0201530456543 0.0348587036133 0.472511291504 07
0.0246963500977 0.0198822021484 0.00759887695312 0.00769805908203 0.00880813598633 0.0113220214844 0.0138778686523 0.0175933837891 0.0206413269043 0.0246086120605 0.0274658203125 0.0315589904785 0.0331497192383 0.0334167480469 0.0298957824707 0.027027130127 0.0218238830566 0.0204811096191 0.0163917541504 0.0143585205078 0.0114212036133 0.0102272033691 0.0100364685059 0.0196571350098 0.0288314819336 0.507530212402 06
0.0375862121582 0.019645690918 0.0186920166016 0.0232810974121 0.0224761962891 0.020378112793 0.018138885498 0.0176086425781 0.0174026489258 0.0208892822266 0.0249938964844 0.0334701538086 0.0389633178711 0.0372085571289 0.032039642334 0.0268096923828 0.0224838256836 0.0226020812988 0.0205612182617 0.0221824645996 0.0236625671387 0.0237808227539 0.0196952819824 0.0178604125977 0.0362548828125 0.381332397461 02
0.038013458252 0.0180358886719 0.0147171020508 0.0137329101562 0.0133323669434 0.0137329101562 0.0167465209961 0.0238571166992 0.030689239502 0.0382118225098 0.0428123474121 0.044303894043 0.0401649475098 0.0279197692871 0.0203323364258 0.0173683166504 0.0154266357422 0.0162773132324 0.0147895812988 0.0146942138672 0.0165176391602 0.0186042785645 0.0188293457031 0.0186882019043 0.0397644042969 0.412437438965 08
0.0393753051758 0.0183258056641 0.0130844116211 0.0174102783203 0.0193481445312 0.0220260620117 0.0225372314453 0.0227317810059 0.0246162414551 0.0274848937988 0.0308036804199 0.034854888916 0.0356559753418 0.033821105957 0.029712677002 0.0277061462402 0.0231857299805 0.0229415893555 0.0207443237305 0.021110534668 0.0200538635254 0.0183410644531 0.0151672363281 0.0182571411133 0.0365257263184 0.384178161621 03
0.0526313781738 0.0322303771973 0.0189323425293 0.0136260986328 0.0106353759766 0.00900650024414 0.00740432739258 0.00693511962891 0.00648880004883 0.0069465637207 0.00743103027344 0.00774002075195 0.00857543945312 0.00849151611328 0.00864791870117 0.00957489013672 0.00897598266602 0.0108528137207 0.00996017456055 0.0111923217773 0.0120506286621 0.0141410827637 0.0172729492188 0.0302200317383 0.0455131530762 0.624523162842 01
0.0380973815918 0.0259475708008 0.0163192749023 0.0133476257324 0.0117454528809 0.0128288269043 0.0121994018555 0.0127334594727 0.0127868652344 0.0138893127441 0.0148696899414 0.014965057373 0.0156364440918 0.014778137207 0.0136947631836 0.0131454467773 0.0117683410645 0.0131988525391 0.0111045837402 0.0119819641113 0.0119781494141 0.0145034790039 0.0164031982422 0.0262489318848 0.0434646606445 0.582363128662 05
0.0325317382812 0.0159225463867 0.0113677978516 0.0165672302246 0.0192337036133 0.0206031799316 0.0209579467773 0.0225067138672 0.0224342346191 0.0250549316406 0.0298919677734 0.0401000976562 0.053653717041 0.0605583190918 0.0575981140137 0.0489768981934 0.0402030944824 0.034740447998 0.0271110534668 0.0236282348633 0.0190353393555 0.0158309936523 0.0115776062012 0.0117225646973 0.0282974243164 0.289894104004 09
0.0224571228027 0.0134468078613 0.00768661499023 0.00938415527344 0.010799407959 0.0136184692383 0.0151596069336 0.0192909240723 0.0257720947266 0.0335083007812 0.0476913452148 0.0655288696289 0.0781936645508 0.0831718444824 0.0683898925781 0.0514030456543 0.0353202819824 0.025260925293 0.0173950195312 0.0144195556641 0.0105171203613 0.00912094116211 0.00848007202148 0.010082244873 0.0192680358887 0.284633636475 04
0.0308952331543 0.0182304382324 0.0156059265137 0.0178489685059 0.0164108276367 0.0162467956543 0.0160026550293 0.0176086425781 0.0204467773438 0.0256690979004 0.0320129394531 0.0449829101562 0.0504341125488 0.0446853637695 0.0305442810059 0.0234527587891 0.0173530578613 0.016040802002 0.014591217041 0.0165138244629 0.0182151794434 0.0201530456543 0.018497467041 0.0178680419922 0.0311813354492 0.408508300781 07
0.0446586608887 0.0263633728027 0.0175132751465 0.018310546875 0.0157890319824 0.0152206420898 0.0132675170898 0.0133209228516 0.0137634277344 0.0139541625977 0.0146903991699 0.0165863037109 0.0175323486328 0.0170364379883 0.0150413513184 0.0143203735352 0.0116920471191 0.0132255554199 0.0121612548828 0.0146942138672 0.0166168212891 0.0197486877441 0.0213088989258 0.0261268615723 0.0441093444824 0.532947540283 06
0.0335655212402 0.0151710510254 0.0104560852051 0.0125923156738 0.0130844116211 0.0156745910645 0.0181465148926 0.0264320373535 0.0386581420898 0.051139831543 0.0557823181152 0.0542945861816 0.0483512878418 0.0369644165039 0.0286979675293 0.0236358642578 0.0216255187988 0.0205688476562 0.0177345275879 0.017147064209 0.0157165527344 0.0150337219238 0.0139923095703 0.0148658752441 0.0330047607422 0.347663879395 08
0.0418128967285 0.0251617431641 0.0205307006836 0.0188484191895 0.014949798584 0.0128746032715 0.0115699768066 0.0110092163086 0.0115165710449 0.014232635498 0.0184478759766 0.0246238708496 0.0304336547852 0.030403137207 0.0270309448242 0.0235977172852 0.0193672180176 0.0195121765137 0.0181999206543 0.0203094482422 0.0198059082031 0.0197715759277 0.0192108154297 0.0220832824707 0.038402557373 0.466293334961 02
