740 26
0.27016499734 0.670006490346 0.356759922512 0.272530230436 0.231976985997 0.287936298376 0.270583580614 0.226203339026 0.196573862192 0.150736590792 0.132548134935 0.131287297528 0.137742303307 0.199127804741 0.293171424065 0.256702295427 0.202581570456 0.154058531198 0.150406945198 0.163249516441 0.181001890359 0.245739226825 0.413411938098 0.622679266261 0.312023062574 0.765887711235 13
0.37143755746 0.361958461787 0.799927918187 0.820974979087 0.670664078747 0.715405561516 0.584965380812 0.440556272001 0.379989829646 0.31601508451 0.25730549289 0.211148695102 0.17110278547 0.178800028135 0.226620406876 0.207464517259 0.180172104696 0.175593594699 0.175149213238 0.230464216634 0.322936357907 0.469170015243 0.665639445302 0.616342412453 0.564312362216 0.351764355342 1
0.699339526787 0.715682297584 0.679731495247 0.528024944861 0.34503673922 0.290906840498 0.175509396637 0.0989508905231 0.0711289092298 0.0486990965573 0.0307696343319 0.0210378681628 0.0223163381658 0.0525427305338 0.0996688219523 0.166987909585 0.161168877734 0.156681391496 0.175583288116 0.190522243714 0.218809073724 0.277746986282 0.397333690629 0.76292384658 0.544853315245 0.621891627294 4
0.705170077907 0.732394937531 0.34738928684 0.240436535098 0.133716900042 0.125464147207 0.0862908011871 0.0474016242028 0.0301614543605 0.0173092053501 0.0119878285504 0.0108076891346 0.0127708095781 0.0239853696281 0.0329601009304 0.0641317680039 0.0353173180351 0.0310601877413 0.0247422680411 0.0225338491299 0.0205576559548 0.0168352501041 0.0543310779124 0.956698165648 0.470917415634 0.82420721066 22
0.230488217934 0.761885445399 0.138712438618 0.158757319948 0.175239151532 0.292020793794 0.37325420376 0.472866055557 0.543541825578 0.436419870318 0.285268348985 0.182658196519 0.113275777814 0.159034958149 0.237344267466 0.245663220607 0.233954822518 0.175179458862 0.16039066739 0.1583172147 0.192265280403 0.236732714424 0.203322837811 0.652640355753 0.211336272681 0.67183416337 11
0.248778245513 0.765211747527 0.497004099654 0.431401627501 0.352141965894 0.371730340788 0.24997032641 0.164441811021 0.129544876685 0.114978702624 0.113871255443 0.106591865358 0.106857794429 0.147288457481 0.210692319823 0.198352899947 0.155611330226 0.129348426284 0.123060227889 0.142649903288 0.18367989918 0.257586254676 0.3982045957 0.683324068928 0.450271324401 0.736427872133 2
0.204734601056 0.355792633457 0.457719511644 0.462544680204 0.361292111465 0.391327667299 0.351295746785 0.322609877662 0.298658784644 0.256979299492 0.245737369498 0.26312460468 0.302459683987 0.503059717237 0.824317930925 0.689679341161 0.627465041234 0.462037548315 0.401302224633 0.429593810445 0.451559546313 0.618539559373 0.849400415355 0.423068371318 0.198363574699 0.53050695952 14
0.421928678572 0.530666883014 0.59670225706 0.686478059168 0.693400804103 0.812567043486 0.591256182 0.35596528528 0.294177472668 0.259665210668 0.17929279681 0.0952066661166 0.0535917901939 0.0807483998031 0.152026494244 0.231995794638 0.244711366081 0.213970182219 0.207487791644 0.23085106383 0.281742281033 0.369890536233 0.527165538959 0.636964980543 0.399355604543 0.44913804112 34
0.189178400349 0.614960246634 0.455151597063 0.380751387937 0.331727436572 0.379486756334 0.318021760633 0.260569516573 0.228101957793 0.217775848503 0.248045747863 0.245139289937 0.191073464734 0.257086586481 0.418388266835 0.311722446119 0.282000717103 0.178630590834 0.185567010308 0.208123791103 0.218336483931 0.273382291811 0.494540095131 0.559199555309 0.169238595897 0.685787255778 3
0.595127497947 0.814538374169 0.377979006172 0.24207164043 0.1354845418 0.118079049427 0.0872007912959 0.0495974347355 0.0353101957794 0.0214872894001 0.0177325428886 0.0187828286995 0.0277243850789 0.0562706618838 0.106134679073 0.123532503943 0.106848332736 0.0727498619552 0.0758545849158 0.0918762088975 0.127441713925 0.218165442704 0.414885777449 0.866203446359 0.615779209769 0.783867535012 33
0.290075966518 0.538009086483 0.759291796188 0.650201536237 0.522355469292 0.601122204801 0.529218595451 0.425743264439 0.374014747014 0.29572153341 0.25368553591 0.225118939581 0.205440625509 0.323978335795 0.502759817064 0.512703697215 0.474901398351 0.390392048592 0.363537710254 0.424371373308 0.503229363578 0.636344741583 0.68915388223 0.362923846583 0.340596913684 0.387770825353 7
0.2057507137 0.514887230246 0.425643104923 0.404935736557 0.397476778041 0.559947190361 0.57159248269 0.495277264647 0.406687007374 0.322960470985 0.267168564083 0.194400902016 0.14637563121 0.2113666737 0.284655417126 0.253548274049 0.219612764432 0.170900055218 0.174606619641 0.200967117989 0.248818525519 0.318068449493 0.380920479671 0.533907726516 0.407368153299 0.569178053037 29
0.214520733538 0.568067499596 0.693381988556 0.604912921135 0.4235754887 0.420331710537 0.341918892185 0.264438325606 0.232201881516 0.190591171763 0.171764335554 0.173005527597 0.163479394038 0.217134416544 0.326131524996 0.285088487822 0.284331301542 0.252898950856 0.272056429733 0.328143133462 0.401307498424 0.519883608148 0.645876599452 0.498665925515 0.36989147024 0.590890903675 8
0.227185851842 0.665219860459 0.350813172951 0.392691459428 0.38101344794 0.489273042331 0.41978239367 0.311212575371 0.261409865242 0.206408204238 0.161324169771 0.139839947199 0.108519302818 0.138355489906 0.202964832045 0.1832836867 0.155252778774 0.140392048592 0.119587628866 0.143230174082 0.159971644613 0.231120964389 0.283513097074 0.63652028905 0.295701204 0.705920912612 37
0.234080901923 0.611593379848 0.544803351802 0.584759297284 0.504748370996 0.578636851224 0.457131552918 0.354013453695 0.307526061532 0.265471119672 0.228503226483 0.176910595936 0.128620296465 0.182879651122 0.28276297114 0.284387594183 0.267479383291 0.248619547211 0.214758545849 0.258704061895 0.309073724007 0.384924483857 0.554900515843 0.476097832131 0.337586908597 0.552130421829 6
0.613223980262 0.718805776408 0.667342433661 0.342117271274 0.159295716068 0.109002392937 0.065400593472 0.0376773204139 0.0298118484616 0.0258010255297 0.0242904359687 0.0284354976213 0.0369441277082 0.0858127593723 0.184828891343 0.223585070965 0.25116529222 0.194505797902 0.187303309821 0.228433268859 0.289146187775 0.419426354439 0.616198834326 0.740022234575 0.781626250635 0.682326650491 12
0.157582135773 0.589485640111 0.250619453078 0.195908434103 0.21929155691 0.374618367851 0.449851632046 0.498588407513 0.552663361303 0.518055291788 0.462593777871 0.400214503753 0.329988597492 0.410986846733 0.498344109762 0.384264937796 0.310147006095 0.227222528989 0.247965274009 0.312959381045 0.360192186515 0.3427324373 0.348027065048 0.326070038913 0.40965745294 0.511739667137 30
0.301773358496 0.685137108552 0.273235121865 0.207087991483 0.164148065992 0.193456555821 0.191770524234 0.177825799031 0.167111619629 0.141647901462 0.118278159593 0.108186893271 0.0885160449584 0.123865794471 0.170950954109 0.154722270896 0.130512728576 0.111954721148 0.110146500271 0.113636363636 0.137051039697 0.199944575308 0.352448583106 0.647581989995 0.513947770054 0.822538628529 31
0.648920985149 0.902117475256 0.61805649412 0.429120085176 0.234541799528 0.140234342768 0.060296735905 0.028545536928 0.0192918891432 0.011666078841 0.00613818792298 0.004042570745 0.00309496660692 0.0118168389958 0.00662356095256 0.0171718941651 0.0136249551811 0.00207067918276 0.014975583288 0.0181818181818 0.0320573408949 0.0545933213248 0.162189321364 0.927793218455 0.556681363405 0.764670327333 5
0.715839260662 0.136865163071 0.509077803308 0.588143585062 0.523499237488 0.569230134501 0.454678536104 0.31375692726 0.207602339181 0.118071570037 0.069015266775 0.0475483320959 0.0449258836943 0.0988253499333 0.167796877464 0.252146486771 0.220867694515 0.177526228603 0.186652197504 0.206576402321 0.266698172652 0.391644727727 0.641589066794 0.685325180657 0.54710022045 0.507593751331 21
0.467726326997 0.557966899238 0.880614497455 0.719028062972 0.523637876057 0.454080369668 0.292542037587 0.189048830643 0.166412407831 0.164980059144 0.146923036567 0.129004757583 0.120736276266 0.223957234297 0.392051726857 0.465393376555 0.423628540696 0.344699061293 0.330765056971 0.398065764023 0.494092627598 0.716156297631 0.923427346419 0.467759866593 0.739104629474 0.412888945643 9
0.401727391496 0.573056952782 0.802360679371 0.672522625293 0.488562318036 0.52219655087 0.455113748764 0.355372764979 0.316615814899 0.281857890881 0.256492314148 0.194180898166 0.135331487213 0.16803826405 0.189717710141 0.163658664798 0.115632843313 0.14301490889 0.118502441671 0.181044487427 0.239209199747 0.396494388247 0.613586119115 0.552028904948 0.605943700188 0.445979653513 25
0.261939323561 0.416558494242 0.821327206378 0.806335082515 0.662934978511 0.764873339386 0.714263105836 0.624934648496 0.562706585304 0.448818470387 0.3751901789 0.327833237081 0.281055546507 0.303931912499 0.379908531777 0.31119677589 0.311939763356 0.311568194368 0.371351058056 0.475628626693 0.566950220539 0.673340723293 0.664165605951 0.434852695942 0.36709343734 0.214761843953 17
0.413279624524 0.778111309427 0.38509708519 0.209977945091 0.101587411618 0.111890420002 0.108486646884 0.0965808093131 0.0839371980676 0.0674733443664 0.0530140076595 0.0449632868576 0.0414073953412 0.0496588591125 0.076170950954 0.0574732784294 0.0713517389746 0.0695748205416 0.0572978838848 0.0731141199227 0.0846723377443 0.106553969793 0.172238226035 0.795108393552 0.424877056131 0.880585706383 20
0.258770019839 0.563483693007 0.353651394333 0.34447486501 0.350824899486 0.482176747257 0.503818001977 0.472866055557 0.421497584541 0.319433516916 0.229552489375 0.159447790336 0.119042189282 0.160230709713 0.207380539347 0.205887506571 0.178020795984 0.133627829928 0.134129137276 0.13829787234 0.169738500315 0.227310516835 0.330608963624 0.630183435242 0.339791419367 0.621708594049 24
0.307349881456 0.382362485803 0.503851871876 0.506882652672 0.438305836684 0.469716973348 0.372660731948 0.271583423374 0.21217899822 0.142814509346 0.118829022611 0.105079338888 0.0918716403323 0.142153759584 0.241759974768 0.26423690205 0.260129078523 0.219353948095 0.228106348345 0.26083172147 0.323724007561 0.464181792989 0.638775373483 0.456475819901 0.485755468881 0.647426893117 28
0.295374268158 0.713694629241 0.261116367077 0.208000608411 0.197490641897 0.269617955277 0.252067260139 0.217942908926 0.204455886092 0.18351013321 0.181732333036 0.229986524765 0.249812673074 0.3592178378 0.529254060873 0.438934641668 0.339906776622 0.226394257316 0.21030927835 0.237620889749 0.303008821675 0.434252459468 0.613117170229 0.382101167315 0.455019501441 0.675320308177 32
0.298749213724 0.577113418791 0.227868630898 0.235188987756 0.175585747955 0.216354484693 0.205895153314 0.183960126869 0.167111619629 0.127350172278 0.106814962489 0.0961416824795 0.0930770483792 0.125061546036 0.176943699731 0.186437708078 0.204553603442 0.177526228603 0.159196961475 0.177176015474 0.180293005671 0.225855618678 0.317143431367 0.615564202336 0.345429879599 0.843595964757 19
0.750919340014 0.60583319812 0.590710456367 0.468324587422 0.337896852903 0.297425530158 0.183066271019 0.0953609145723 0.0612763793542 0.0339672807185 0.0167619747127 0.013942743998 0.0185372210458 0.0379826967713 0.0895757766913 0.116348344138 0.121190390821 0.121893981226 0.131850244167 0.139264990329 0.168320730939 0.206872661771 0.297581563611 0.852751528629 0.501526199763 0.656957391563 4
0.389884840569 0.834982962842 0.277830337434 0.26640809187 0.269721336477 0.419465302419 0.458595450048 0.480743090168 0.438342232393 0.266312162565 0.139945438329 0.0826664466629 0.0627789542271 0.109938805655 0.166219839142 0.201506921325 0.181068483327 0.126725565985 0.113402061855 0.112379110251 0.151543793321 0.233476513787 0.25812286461 0.750416898276 0.390876716975 0.620401821822 11
0.272269802102 0.533181891937 0.548452493579 0.536352574339 0.450020795784 0.485106031851 0.381681503461 0.275138545188 0.214308415968 0.181339699938 0.174151408635 0.171217996315 0.161817885649 0.224027572624 0.355622141618 0.332398808481 0.299569738257 0.236333517394 0.233098209441 0.275628626693 0.313484562066 0.436053761952 0.61459100958 0.599332962759 0.425555367134 0.584250627849 23
0.0926960855478 0.509776083076 0.0 0.0600806144954 0.110494939692 0.209877052562 0.28193867458 0.374124289847 0.523677854055 0.601888276948 0.609044646135 0.594285399994 0.57299234403 0.611029049729 0.629869105819 0.452251620817 0.378988884905 0.26559911651 0.23722192078 0.238974854932 0.264571518588 0.289109048081 0.318751256113 0.393162868261 0.0835594370015 0.572098071765 26
0.10605070886 0.48223267889 0.172861197458 0.225720587116 0.213711354498 0.289256539318 0.336696340256 0.44086995922 0.560863208746 0.521202420033 0.458921357746 0.479030883042 0.530803062388 0.698389252305 0.779845450245 0.55125284738 0.460738615992 0.297763666483 0.249918610959 0.274371373308 0.286625708884 0.336497159484 0.424331747839 0.284658143412 0.0747837883642 0.537547354531 36
0.277253592685 0.690572773001 0.360318962023 0.24024640657 0.196242894773 0.246802541464 0.23256181998 0.200237008121 0.17464403763 0.136574513687 0.122396516447 0.110991942359 0.10480534289 0.143630864458 0.218419807601 0.210092868407 0.161527429186 0.13335173937 0.129245794899 0.147001934236 0.16981726528 0.257447692947 0.475447176261 0.652973874373 0.361243004917 0.793006427446 13
0.633134949439 0.209435339934 0.519935126369 0.695832382691 0.686642173854 0.818136809967 0.751691394658 0.591265553656 0.462178998221 0.288423451532 0.180053512407 0.138217418805 0.121974262909 0.25181121193 0.473584608106 0.493253898721 0.333811401937 0.206653782441 0.199457406402 0.254448742747 0.360743541272 0.583829846194 0.842165203996 0.579933296276 0.578514498896 0.24722257694 35
0.176537475203 0.764643842285 0.073883858181 0.0631987223364 0.100998197699 0.212847594686 0.270623145401 0.310341221987 0.347222222222 0.345343064109 0.346833849221 0.331903308308 0.326111744583 0.470704086657 0.674814697997 0.522691431575 0.418967371818 0.264494754279 0.257297883884 0.281431334623 0.313957151858 0.336566440349 0.326120452872 0.334963868817 0.308631507546 0.675490571659 27
0.16372719795 0.551882200227 0.241068612875 0.251730169595 0.24251351726 0.346191930027 0.344213649851 0.286431285072 0.239861428935 0.175316747606 0.138424007135 0.125732200314 0.0998533963188 0.131040303861 0.196341271093 0.176274750307 0.166009322337 0.114991717283 0.0972327726526 0.10580270793 0.0920762444866 0.099279479008 0.130032826422 0.596498054477 0.176233678142 0.86444047163 18
0.744278318092 0.122748661367 0.299094472225 0.459616700889 0.521662276446 0.755796682894 0.802492581602 0.715241713428 0.546020849224 0.326324642556 0.20077645454 0.132524819184 0.147287831895 0.372441443343 0.831256899542 1.0 0.557009680889 0.338487023744 0.222029300053 0.270116054159 0.327898550724 0.505542469167 0.745025792189 0.455530850471 0.695183991861 0.218005363301 10
0.351611264337 0.42187246471 0.266837860972 0.309263061829 0.322057396367 0.429614654673 0.382789317509 0.304520581366 0.25959827104 0.208822811253 0.173364461466 0.170090476584 0.168040397459 0.256383203207 0.380381643273 0.382512703698 0.280566511294 0.20320265047 0.155724362452 0.176595744681 0.229757403906 0.324996535956 0.478193876867 0.514952751531 0.352297778529 0.665738730686 15
0.641046112162 0.545594677918 0.262558003335 0.166324435318 0.0602037986969 0.044063041505 0.0242927794262 0.0107350737165 0.00600686498858 0.0034998236523 0.00498399874089 0.00651761405826 0.00860074930771 0.00886262924688 0.0261788361456 0.0166462239355 0.0392613840087 0.0259525124241 0.028106348345 0.0251450676986 0.0268588531819 0.00387972841946 0.0324914584308 0.942579210674 0.493004917755 0.921780956032 22
0.527108433737 0.821556060362 0.494886696401 0.452011559815 0.436330237071 0.566053304728 0.536300692385 0.445888954725 0.331172133231 0.183103176972 0.0933057027437 0.0496658691528 0.0301026225769 0.0334107054932 0.0580350102508 0.0800770983009 0.125851559699 0.123688569851 0.14584915898 0.174854932302 0.200063011972 0.352085354024 0.560527902461 0.719344080047 0.626123452602 0.49442387094 16
0.377776164903 0.235802368975 0.643510384285 0.805460491291 0.733883266324 0.818425612673 0.675727002967 0.497333658639 0.412852784134 0.324534035107 0.267142332512 0.201688529549 0.150936634631 0.153478230287 0.165904431478 0.109339407745 0.106310505558 0.0962175593593 0.109929462832 0.152417794971 0.194313169502 0.249480393515 0.365244188382 0.772762645914 0.404442937088 0.40031924403 1
0.276963274788 0.190816160961 0.421903860881 0.544033766827 0.478788298906 0.515430316034 0.424727992088 0.362204175525 0.307176455631 0.236143140074 0.197917213158 0.174683056954 0.165010588044 0.288457480481 0.525153761236 0.480988260031 0.44621728218 0.319988956377 0.263049376016 0.269148936171 0.281742281033 0.459886379384 0.825149058752 0.563535297387 0.178777344412 0.57720597625 14
0.245040402576 0.710530585753 0.504257332073 0.466081070803 0.399833633717 0.415174519349 0.294322453016 0.193928409606 0.139937706585 0.111641661467 0.0965846492839 0.083326458213 0.0877015800619 0.133291130337 0.210376912159 0.174872963027 0.186626030835 0.155162893428 0.1498643516 0.180464216634 0.227945809703 0.317583483441 0.432102900783 0.693663146195 0.465024588772 0.714915081088 2
0.209887743747 0.538009086483 0.418885434967 0.395885618678 0.381290725081 0.526198531233 0.505123639962 0.429054407305 0.37550851767 0.303073876122 0.25604637742 0.209773671039 0.162730086333 0.226700429064 0.338905535404 0.330997021201 0.296342775188 0.241441192711 0.232230059684 0.282978723404 0.301118462507 0.349383400304 0.376766932403 0.50394663702 0.471934882142 0.569424935087 29
0.217375526202 0.533871491157 0.633509032753 0.587915430831 0.455982254262 0.460599059328 0.362294757667 0.28277160085 0.243293923215 0.20214872894 0.179896122974 0.172785523747 0.16826844763 0.263417035943 0.383378016085 0.318906605923 0.289530297598 0.227360574268 0.242322300596 0.300193423598 0.350110270951 0.470624913397 0.614524016885 0.500444691498 0.384644734611 0.587319627124 8
0.330369671458 0.51663151063 0.690363562642 0.660924785155 0.575661999169 0.671260004951 0.61384767557 0.507615628593 0.456045003813 0.368512439296 0.288809611249 0.223606413113 0.167030460987 0.188225364001 0.309099511118 0.343437883301 0.360882036572 0.261733848703 0.273358654367 0.323984526112 0.394139886578 0.570527920186 0.672204729686 0.39549749861 0.467356282856 0.353386115013 7
0.327756810376 0.713816323219 0.425327746991 0.445052855731 0.417614030222 0.506890007425 0.428130563797 0.339339862675 0.290808543097 0.208036029192 0.137741986255 0.0905040838214 0.0643753054243 0.0749103186328 0.0999842296167 0.081829332399 0.0609537468627 0.0691606847045 0.0656538252847 0.0974854932301 0.121455576559 0.188721075239 0.292289140483 0.676431350749 0.36989147024 0.666194185503 37
0.278172932696 0.493144572449 0.38433121593 0.396037721499 0.392832385971 0.503424374948 0.491315529179 0.408176780174 0.33695652174 0.254049214573 0.194848119196 0.179083133955 0.220491936798 0.333544348315 0.517268569626 0.397932363763 0.318572965221 0.202926559912 0.205534454693 0.191102514507 0.223141146817 0.258417625052 0.344141488576 0.463646470262 0.249533661182 0.608445068744 30
0.199762907051 0.607496349181 0.282876064334 0.267206631684 0.287882989048 0.424539978545 0.43762611276 0.398347913981 0.370804729215 0.304918744405 0.2684801427 0.207271127245 0.152467828637 0.202363367799 0.316984702728 0.2758016471 0.244173538902 0.159442297074 0.170374389581 0.199613152805 0.24440768746 0.309685464874 0.460373819253 0.476876042244 0.30990334068 0.65777465628 3
0.648279866456 0.597152360862 0.636121998469 0.407065176058 0.248578954666 0.221222873174 0.152363996043 0.0869262137951 0.0564772438342 0.0368702352206 0.0368028959657 0.0488958556774 0.0683498941196 0.147358795808 0.299637281186 0.351673383564 0.342954463965 0.281888459415 0.274335322842 0.302127659574 0.354363579079 0.446930857694 0.594493200244 0.636631461923 0.667246057318 0.620014472397 12
0.388433251078 0.449415868896 0.530567193765 0.68252338581 0.722792180784 0.886500536347 0.723758654799 0.499703739848 0.398264683449 0.320844298544 0.227480195163 0.131837307153 0.0739859912038 0.0951677569109 0.169847027283 0.213947783425 0.228935102187 0.230121479845 0.203147042864 0.243230174081 0.282451165721 0.374324511569 0.518657466339 0.590550305724 0.368238087162 0.39889754395 34
0.890054192675 0.209475904592 0.473352254809 0.438968742869 0.270761125745 0.224234672828 0.13056379822 0.0643407340281 0.0343885075006 0.0169022491115 0.0105713236451 0.013832742073 0.0248574686432 0.0690018991349 0.0965147453082 0.148414228141 0.111868053066 0.0912479293204 0.085729788388 0.0965183752418 0.138783868935 0.215324927255 0.432370871578 0.824958310175 0.566135323045 0.685838334823 21
0.771181109986 0.633985072207 0.455647159526 0.283291505057 0.107375571884 0.0728195395659 0.0457764589515 0.0233871248824 0.0164950419527 0.0108521663637 0.00946959760769 0.0103401809532 0.0112396155726 0.0320039389463 0.0441570730168 0.0601016295774 0.0528863391896 0.0394809497515 0.0654367878458 0.0812379110254 0.136972274732 0.261188859637 0.474040329605 0.910227904394 0.778107512296 0.734959349593 33
0.630727730201 0.87433068311 0.578321394782 0.325271883794 0.137980036046 0.0802458948758 0.0319287833828 0.0116761353735 0.00664251207731 0.00249599826365 0.00196736792404 0.00291505101339 0.0015637726014 0.00316522473071 0.0154549755558 0.0212020325915 0.0147006095375 0.0113197128658 0.014975583288 0.0185686653772 0.0270163831125 0.0570874324515 0.152877336369 0.94674819344 0.568933355945 0.814600093644 5
0.374050418544 0.632808697065 0.676803171599 0.609095748725 0.451857756829 0.44405479 0.334915924828 0.234707748074 0.196097126875 0.162538321712 0.1394995016 0.121332123312 0.10330672748 0.156362101709 0.270304368396 0.327317329596 0.343671566869 0.27760905577 0.282040151925 0.305996131528 0.36381537492 0.527158098934 0.786829235617 0.500444691498 0.522977785314 0.537543097946 9
0.312805438624 0.553626480611 1.0 0.851509620503 0.627270206572 0.594727287731 0.459426310584 0.339932382976 0.275044495296 0.217233240185 0.188709931273 0.159667794186 0.130640169409 0.166279805866 0.248225831888 0.246188890835 0.277160272499 0.28119823302 0.299511665761 0.35754352031 0.428717706364 0.548427324371 0.660012058684 0.50917176209 0.439248770562 0.421214829952 17
0.316011032082 0.627048515333 0.330089651754 0.305422465588 0.25599611812 0.288926479083 0.267497527201 0.231501167613 0.219965675057 0.183076046556 0.161717643355 0.191898358221 0.198338491611 0.284026165858 0.425484939283 0.410548449273 0.334349229114 0.270568746549 0.200325556158 0.228239845261 0.26961247637 0.438617153941 0.62490788504 0.406892718176 0.414914363235 0.671625590603 32
0.301870131128 0.717994483207 0.778393476595 0.527302456461 0.363233051435 0.46550870534 0.468724035609 0.407131156112 0.39921815408 0.359884967036 0.301007292376 0.231444050271 0.187652712168 0.224871632552 0.26131524996 0.211144208866 0.165112943708 0.132523467697 0.125773195876 0.153191489362 0.196991178323 0.343217403353 0.565887318284 0.609171762089 0.33652704765 0.479576895245 25
0.406553926551 0.866177186436 0.564986259405 0.520039546732 0.494142520448 0.566424622493 0.417448071216 0.278379979783 0.233632087465 0.190889606338 0.147736215309 0.0997717460056 0.0647010913831 0.103749032848 0.120643431636 0.139653057649 0.130333452851 0.101187189398 0.123819858925 0.15 0.196597353497 0.327975613135 0.485161117441 0.691328515841 0.515007630997 0.54967437109 31
0.255564426381 0.394937530423 0.317069874308 0.402197885772 0.411340634964 0.490345738097 0.403006923839 0.318531943814 0.261727688787 0.184622480263 0.141598027386 0.126832219564 0.125329858283 0.179222058099 0.199810755401 0.140353951288 0.115812119038 0.0763390392047 0.095930548019 0.118665377176 0.155482041588 0.242275183594 0.395256916998 0.485047248474 0.295997965065 0.737492018901 28
0.243431557556 0.574233327924 0.522728296617 0.552171267777 0.487834465549 0.564072943313 0.462828882296 0.358335366491 0.321510297482 0.275726416887 0.228240910761 0.189588317796 0.151490470761 0.175283111768 0.273931556537 0.26388645523 0.271423449266 0.221562672557 0.230493760173 0.276595744681 0.303875236294 0.367881391159 0.540765056611 0.515397443024 0.275860607087 0.558489762909 6
0.418384380899 0.768862566931 0.303734738928 0.309567267474 0.310411756552 0.46303325357 0.522017804153 0.564741556585 0.508962623952 0.29154344936 0.148418236189 0.0961141819983 0.0871477439322 0.158823943167 0.2512222047 0.296478009462 0.251523843672 0.184566537824 0.143461747151 0.127176015474 0.156821045999 0.239088263821 0.338045153078 0.646914952751 0.302781075124 0.561618354404 11
0.642497701653 0.568878792798 0.651619588231 0.610084417066 0.494939692222 0.511964683554 0.369258160238 0.23205883378 0.169654207984 0.111967226458 0.0649231414931 0.0358331270798 0.0227072813161 0.0436801012869 0.0777479892761 0.152970036797 0.142344926498 0.116234124793 0.132501356484 0.149613152805 0.188484562066 0.280448940002 0.452602666309 0.768093385215 0.505341699167 0.549631805218 4
0.241592877535 0.649764724971 0.382303914943 0.352118031788 0.335366699015 0.443147124349 0.423897131552 0.354919661218 0.310354691077 0.251661737975 0.212633125229 0.184280724913 0.147190096107 0.233523246817 0.325500709667 0.32118451025 0.240588024382 0.192020982883 0.166142159522 0.181914893617 0.210617517328 0.257101288624 0.315736584711 0.643246247917 0.308758690858 0.646941642191 24
0.252903178983 0.682013629725 0.306843267107 0.262187238574 0.260432552337 0.347429655913 0.354104846685 0.298630232477 0.253368929571 0.20393933639 0.169482188762 0.147595082914 0.140511483955 0.188225364001 0.281974451979 0.233923252147 0.216385801363 0.145499723909 0.160607704829 0.171373307544 0.193683049779 0.267493418317 0.421987003418 0.594552529182 0.260895370526 0.72969395139 13
0.23185513137 0.669519714424 0.336396810381 0.293976728267 0.247088590046 0.301014935227 0.27643916914 0.217245826217 0.175088990593 0.144035378062 0.139997901474 0.142672496769 0.13692783841 0.20552859253 0.258476580981 0.272647625723 0.209035496593 0.20913859746 0.156701030927 0.201063829787 0.234483301827 0.294859359844 0.440409995312 0.600833796556 0.358190605391 0.763078363768 19
0.0985145400883 0.544012656174 0.105915213768 0.158377062896 0.140891446 0.189289545342 0.218674579624 0.303962915201 0.425311467075 0.414607015926 0.40664183411 0.47551082144 0.577357875876 0.752549764368 0.802712505913 0.588750657088 0.413947651489 0.261733848703 0.247531199131 0.269922630561 0.299936988027 0.326936400166 0.393716084947 0.274596998331 0.0897066304895 0.632869365345 36
0.60182900276 0.492617231869 0.46758570978 0.513993459579 0.469950090115 0.58569188877 0.577962413452 0.526506570005 0.3696287821 0.174068748474 0.0964272598498 0.065973654539 0.0665906499431 0.157698529929 0.240813751774 0.300157701069 0.244352814629 0.186085035892 0.171568095496 0.202127659575 0.242911153119 0.38707219066 0.619749447313 0.586214563645 0.519247074785 0.454224662665 10
0.480391445301 0.660717183189 0.334549713926 0.275458209748 0.203278802162 0.222460599059 0.218397626113 0.192743369001 0.169272819731 0.123307740308 0.0970305860132 0.0771663504112 0.0565890210132 0.0950270802562 0.143352783473 0.189066059226 0.170849766941 0.132799558255 0.107433532284 0.0958413926497 0.114209199748 0.171608701676 0.294097943324 0.748582545859 0.365355265387 0.76613884987 20
0.262374800408 0.526407593706 0.530567193765 0.390752148451 0.255164286705 0.259056027725 0.211948565777 0.168275765919 0.141272565472 0.122520958246 0.107103509784 0.0988367296428 0.0957810718357 0.180769501301 0.349156284497 0.420536183635 0.430441018287 0.324682495859 0.267607162234 0.306576402321 0.356253938247 0.510392129693 0.786628257522 0.554585881044 0.348058334745 0.720218788576 23
0.305063628007 0.519673860134 0.224850204984 0.2326792912 0.211077221682 0.287152405314 0.258199802176 0.214248370569 0.183638443936 0.156868064787 0.14650333141 0.153150180128 0.149535755009 0.220580994584 0.433370130894 0.400035044682 0.342595912513 0.263528437327 0.214867064568 0.233268858801 0.256143667296 0.349314119439 0.562269712602 0.474763757642 0.37680176361 0.749393436342 15
0.105760390962 0.485761804315 0.0500518088052 0.125522853449 0.172778316928 0.31718788679 0.413333333334 0.52019797149 0.697813374015 0.731164708754 0.686086774041 0.58719027583 0.461508388989 0.493353028065 0.541239552121 0.412300683371 0.339368949444 0.254555494203 0.244275637547 0.269535783366 0.306395715186 0.344603020645 0.381054465066 0.383879933298 0.131973885024 0.463193291618 26
0.168686795375 0.768294661692 0.0833896472498 0.0640352878545 0.102384583391 0.202698242429 0.276003956479 0.320588337806 0.35020976354 0.335820288124 0.347830648969 0.352226163958 0.317087473529 0.427094323697 0.5999053777 0.477834238654 0.407314449623 0.29320817228 0.297341291372 0.329400386847 0.35554505356 0.344949424968 0.326924365247 0.342523624236 0.346362557231 0.669169539864 27
0.22735520395 0.684001298068 0.302157949273 0.221233553882 0.177596007209 0.212971367275 0.186073194857 0.153776445575 0.12757437071 0.104967579153 0.101594879597 0.103539311938 0.113862192539 0.162059506225 0.268569626242 0.235850709655 0.20921477232 0.16827719492 0.129245794899 0.141295938104 0.151465028355 0.207080504364 0.318818248813 0.602779321846 0.290232321518 0.869901672839 18
0.735980064838 0.714546487101 0.368518268234 0.256749562705 0.143525578816 0.112385510356 0.0642136498517 0.0361088843191 0.0242181540809 0.0139992946092 0.0107811762237 0.00849764870887 0.0108160938264 0.0133642821974 0.0271250591389 0.0418783949535 0.0234851201147 0.0327167310883 0.022680412371 0.0317214700193 0.0285916824198 0.0234862131081 0.0939907550075 0.939799888827 0.49228421231 0.814472396035 22
0.314765084436 0.569649521337 0.395458845789 0.376834740283 0.359073894358 0.465467447809 0.496973293769 0.49043253982 0.480263157895 0.401014677555 0.316169141177 0.244314275501 0.182700765597 0.227544488992 0.359564737423 0.387594182583 0.42524202223 0.388045278851 0.409115572435 0.520502901354 0.626575299304 0.693016488843 0.634621826221 0.358699277378 0.833050703748 0.381637083388 1
0.611663521559 0.255030017849 0.645402531872 0.747281162066 0.698738389019 0.772753527518 0.633353115727 0.465825520196 0.377701500129 0.274776852329 0.194900582341 0.152270164728 0.131747841668 0.249701062109 0.434000946222 0.492728228491 0.326102545715 0.25124240751 0.219858925664 0.272727272727 0.36940768746 0.597755299984 0.845045889998 0.557698721512 0.487705613024 0.278946920359 35
0.533531717233 0.799529449944 0.545253863134 0.517719978706 0.488596977679 0.607269576699 0.572660731949 0.466836290124 0.336257309943 0.167828752815 0.07777661193 0.0412782223689 0.0249552044307 0.047408032637 0.106923198233 0.186963378307 0.216206525636 0.21880176698 0.202278893109 0.212282398452 0.243462507876 0.375917971455 0.528639378309 0.678210116732 0.614253010006 0.460281786065 16
0.261939323561 0.497931202337 0.578051087985 0.486767054527 0.324414252046 0.308441290536 0.268209693373 0.228155170611 0.215134757183 0.180010309558 0.173810398195 0.194180898166 0.207721127219 0.375184638109 0.628134363665 0.553705975118 0.483506633202 0.368442849254 0.340097666846 0.385686653772 0.437539382482 0.671123735624 0.951765257589 0.520956086714 0.280778361878 0.575145788107 14
0.235351042727 0.693128346586 0.520700995629 0.526579968057 0.453521419658 0.471532304645 0.330247279923 0.201805444216 0.143783371472 0.113296616837 0.0980536173338 0.078843879768 0.06401694087 0.100021101498 0.15754612837 0.175048186438 0.16045177483 0.145775814467 0.139880629408 0.176305609285 0.206836798991 0.261950949148 0.365311181082 0.694997220679 0.367983720536 0.720729579025 2
0.181593845261 0.43469089729 0.411451998017 0.38501026694 0.383578261472 0.535357702779 0.548130563799 0.482555505209 0.435291126367 0.351420277273 0.31268034206 0.257294502654 0.209903893142 0.299852289512 0.503390632393 0.450324163308 0.429186088204 0.334759801215 0.304177970699 0.353868471954 0.395872715815 0.450602743524 0.488711730423 0.408949416344 0.352848906224 0.518494870813 29
0.210371606911 0.556831088757 0.534351488938 0.486957183055 0.384756689311 0.43724729763 0.373887240355 0.290265239972 0.245582252735 0.206001247999 0.177771365616 0.166625415945 0.159863169897 0.251670535275 0.390632392367 0.36814438409 0.342058085336 0.271949199337 0.272490504612 0.322727272727 0.36381537492 0.458570042953 0.575668252159 0.507003891052 0.290656265898 0.624449836123 8
0.332885759909 0.542024987831 0.666441411001 0.672674728117 0.58214335228 0.651085073026 0.568071216617 0.472587222475 0.4176201373 0.327355598361 0.258276061067 0.213568737452 0.171070206874 0.243792642611 0.40656047942 0.427019449799 0.386877016852 0.315709552733 0.316657623439 0.362088974855 0.422889098928 0.585700429539 0.720171501306 0.3859922179 0.457308801085 0.361375728942 7
0.421432718829 0.664976472496 0.446411677254 0.531181078408 0.55739636767 0.703152075255 0.589475766569 0.416228085462 0.324466056446 0.21449306818 0.114553276323 0.0641036218133 0.038605636097 0.0482520925651 0.065289386532 0.0823550026278 0.0715310147006 0.0676421866369 0.0648941942481 0.0708897485494 0.0859325771896 0.126437577941 0.226368325853 0.807392996109 0.365228082076 0.572161920574 37
0.173416557799 0.732232678891 0.00572149389516 0.0327021066241 0.068972688202 0.154468190445 0.228367952522 0.339723258164 0.478197304856 0.535717192544 0.489454907926 0.386711767456 0.312689363089 0.400084405992 0.564264311623 0.421237077274 0.318035138042 0.178630590834 0.172436245251 0.164893617021 0.183601134215 0.26603852016 0.338380116568 0.354752640358 0.146006443954 0.672110841529 3
0.288007451494 0.512493915301 0.380231562825 0.418016579207 0.422916955498 0.552067002228 0.48981206726 0.385626154543 0.304252479025 0.213136547383 0.151723414301 0.123559662294 0.125688222838 0.217978476472 0.389213057877 0.366392149992 0.342954463965 0.234815019326 0.237764514378 0.263539651837 0.29938563327 0.362131079395 0.453674549474 0.510672595887 0.407961675427 0.602102754013 30
0.360925630234 0.591960084376 0.586655854393 0.656133546276 0.630736170803 0.713012624805 0.549317507417 0.35986894845 0.284706331045 0.244363656094 0.188290226116 0.112779473641 0.0702720312756 0.0983329816416 0.180097776376 0.226563868933 0.242739333094 0.222805080067 0.194791101465 0.217021276596 0.249291115311 0.349729804628 0.485831044416 0.614452473598 0.363320332372 0.497982377731 34
0.304011225627 0.703837416842 0.2477812317 0.278348163357 0.268993483987 0.33950821025 0.314302670623 0.274371754209 0.257500635648 0.209229767491 0.185430984733 0.232819074334 0.195895096921 0.258141661391 0.370919413341 0.362537234974 0.267479383291 0.175869685257 0.138469886055 0.134719535784 0.150047258979 0.196203408618 0.379781603805 0.643468593663 0.290571477023 0.689073340995 12
0.832377703593 0.0932175888376 0.53642384106 0.630656323673 0.541868847912 0.589900156778 0.477349159248 0.303196124219 0.175819984745 0.0886079383598 0.050915481874 0.0423507411379 0.0511483955042 0.110360835619 0.193660305946 0.228140879622 0.211545356759 0.171590281612 0.179924036896 0.199323017408 0.257640201638 0.422474712481 0.733369062773 0.692106725959 0.625699508225 0.454620525262 21
0.568805341852 0.783506409218 0.448934540705 0.290706517606 0.136905587134 0.114778447067 0.0837586547972 0.0549301174583 0.0431604373252 0.0325022382594 0.027097214207 0.0272804774084 0.0313406092197 0.0788492649645 0.127897807916 0.167864026635 0.128540695589 0.107537272225 0.1125339121 0.14419729207 0.18352236925 0.310724677843 0.55871909962 0.790272373541 0.710106833983 0.74816328268 33
0.739234044611 0.822935258802 0.612064693428 0.378964179785 0.191009288785 0.115232279891 0.0460929772502 0.0179498797533 0.0123633358759 0.00645703898642 0.00369865169719 0.00178753128181 0.00309496660692 0.00288387142134 0.00315407664404 0.0166462239355 0.00376479024735 0.00745444505795 0.01041779707 0.0179883945842 0.0323724007562 0.0822363863103 0.2675018423 0.97320733741 0.641639816855 0.741105861321 5
0.431968839214 0.645140353723 0.615939090867 0.535059700359 0.378136697628 0.345614324613 0.263738872404 0.19741382315 0.170925502161 0.138446512385 0.113005613556 0.0918791078843 0.0760710213389 0.0985439966239 0.123797508279 0.105484492728 0.0867694514163 0.0585311982331 0.0608790016276 0.0697292069635 0.113736609956 0.224608563115 0.495344007501 0.600111172872 0.43331354926 0.677661431067 25
0.257270044033 0.405322083403 0.36459881966 0.377633280097 0.322646610288 0.350854030859 0.308842729971 0.265971907567 0.258771929826 0.255188692043 0.251088610252 0.23273657289 0.211435087148 0.32278258423 0.486674026178 0.428070790258 0.416636787379 0.335173937052 0.327618014106 0.362765957447 0.386972274732 0.467992240541 0.550412005091 0.410672595887 0.337798880787 0.626697314093 28
0.562817535204 0.769998377415 0.436725683651 0.345007224883 0.260467211978 0.274156283522 0.217091988131 0.152939946325 0.109172387491 0.0641905640414 0.0492628928178 0.0490058576024 0.0651571917251 0.112752338749 0.218892919098 0.177150867356 0.14449623521 0.0871065709556 0.0711882799777 0.0672147001933 0.0653749212349 0.0773174449219 0.19119715951 0.839188438022 0.3244870273 0.743217128509 10
0.288890501768 0.647452539348 0.2926521602 0.286561715721 0.272494107862 0.341983662019 0.327359050445 0.294517444495 0.275966183574 0.206950812556 0.17047898851 0.177735610373 0.179508063203 0.259970457902 0.424854123955 0.412475906782 0.340086052349 0.268912203203 0.22072707542 0.231721470019 0.274810964083 0.400512678395 0.535271655393 0.395997776542 0.340427335933 0.671480866642 32
0.253979774521 0.615163069935 0.551245663827 0.584987451516 0.489290170525 0.52888027065 0.424490603365 0.328535080688 0.285977625222 0.24558452481 0.223099522586 0.186343261007 0.152500407232 0.211296335373 0.327393155653 0.307166637463 0.336321262101 0.287548315848 0.296364622896 0.348259187621 0.420211090106 0.563114867672 0.741140215717 0.434241245137 0.351916228589 0.51960158345 6
0.353800745151 0.466169073505 0.890570797856 0.877709331507 0.665361153474 0.665071375526 0.5109396637 0.38182705378 0.311848461735 0.238205051683 0.205786684853 0.177378104117 0.123472878319 0.140254624745 0.205014981864 0.271946732083 0.261025457153 0.260905577029 0.275854584915 0.338297872341 0.417848141146 0.552514895386 0.729215515511 0.508171206225 0.320078005765 0.400864087176 17
0.636255866844 0.656255070584 0.680497364507 0.465358582403 0.287882989048 0.247751464642 0.152363996043 0.089888815308 0.0645499618613 0.0411025801026 0.0289071926972 0.0224403927068 0.0216647662487 0.0383343884083 0.0889449613625 0.112843875942 0.106848332736 0.0835173937049 0.118393922951 0.159961315281 0.218966603655 0.344810863239 0.566088296374 0.804391328515 0.709598100728 0.649610522285 4
0.478274543961 0.449456433555 0.372798125874 0.444634572972 0.367981422433 0.343345160492 0.200039564787 0.095012373218 0.0554919908467 0.0300876312433 0.0180735533288 0.0183978219619 0.0174621273823 0.032496307238 0.0711244283236 0.0967233222357 0.0921477231983 0.0784097183877 0.0715138361365 0.0958413926497 0.10554505356 0.12477483719 0.195015743282 0.752084491385 0.334704086822 0.829979142724 19
0.537559878069 0.680431607984 0.518313285579 0.406684919006 0.261992236239 0.22402838518 0.175074183976 0.135582586874 0.11203279939 0.0757209908027 0.0604375426263 0.0612710722439 0.0594885160449 0.136597031722 0.25768806182 0.350096372875 0.3067407673 0.22487575925 0.158871405317 0.157253384913 0.162807183364 0.233892198974 0.404970858179 0.692495831018 0.308843479736 0.71549397693 20
0.313011080468 0.747850073016 0.175113754111 0.206213400258 0.240919173715 0.389264790823 0.520553907023 0.623087379316 0.619946605646 0.422583358203 0.230155815539 0.119654593955 0.0805342889722 0.107969332489 0.184040372181 0.176800420536 0.176228038724 0.119685256765 0.109929462832 0.105319148936 0.123188405797 0.170361646113 0.147584913247 0.754641467482 0.254960149228 0.610892606308 11
0.0879300333869 0.537278922605 0.0915889534642 0.148756559434 0.133820878969 0.195436917237 0.234460929773 0.319751838556 0.413965166539 0.406196586995 0.39305387965 0.45298792729 0.506173643917 0.713723007667 0.838668979656 0.558261783774 0.418070993188 0.273329652126 0.265111231686 0.301644100581 0.341918714555 0.398780656784 0.462182622094 0.230739299612 0.124851619468 0.64254458775 36
0.708460347415 0.268254097031 0.592557552823 0.652026770097 0.577360321642 0.630373793218 0.482215628091 0.335436199505 0.252479023645 0.169266664858 0.125780389276 0.110084426477 0.133637400228 0.27917282127 0.47957735373 0.43718240757 0.322875582646 0.220182219768 0.197504069452 0.245261121857 0.321439823566 0.509145074129 0.794131439676 0.630072262369 0.423732406309 0.385365853659 35
0.432791406593 0.650413759532 0.549984232103 0.536010342991 0.477748509635 0.538245729846 0.431414441147 0.318287964865 0.242531146707 0.181611004097 0.148024762604 0.120287105024 0.106499429875 0.154462966871 0.300268096515 0.2758016471 0.270347794908 0.192159028161 0.189365165491 0.212282398452 0.266698172652 0.424137453236 0.695585181218 0.593329627571 0.442767508904 0.521861831183 9
0.482036580057 0.515576829466 0.60927152318 0.512092174309 0.395570497712 0.440176582227 0.357388724035 0.282144226412 0.240497076024 0.182072221167 0.121111169404 0.069383714215 0.0408535592115 0.0737145670677 0.113546759186 0.16067986683 0.166547149516 0.160546659304 0.146066196419 0.164119922631 0.230938878387 0.370029097962 0.62396998727 0.56203446359 0.504409021535 0.595364576682 31
0.26366913437 0.755192276488 0.327386583772 0.265153243593 0.22196034937 0.299570921693 0.279050445104 0.237356662368 0.202326468345 0.161073279253 0.136168091915 0.111541951984 0.0920996905035 0.124076809454 0.185932818167 0.175924303488 0.145571889566 0.110436223081 0.120564297341 0.141489361702 0.165642722117 0.215602050713 0.392979165272 0.671095052806 0.360607088351 0.776252500747 13
0.495076692313 0.339323381469 0.300400955083 0.366377671307 0.366976292805 0.416123442529 0.319090009892 0.230594960092 0.183988049835 0.14053555441 0.124022873931 0.12259714545 0.118390617364 0.20074558627 0.381643273932 0.347468021727 0.343133739692 0.257040309222 0.245469343461 0.274564796905 0.313799621928 0.486628793128 0.7842165204 0.484380211229 0.56151432932 0.609419827183 15
0.221621425462 0.616988479636 0.401450646485 0.378203665677 0.339248578955 0.39858899249 0.301839762611 0.21194799763 0.159897025172 0.12249382783 0.0935155553224 0.0809614168249 0.0707607102133 0.103327002884 0.156599905377 0.163132994569 0.145930441018 0.108089453341 0.103309820944 0.107059961316 0.109010712035 0.102812803104 0.209419173309 0.616342412453 0.209767678479 0.833712169582 18
0.102276576185 0.473998052896 0.0665405234961 0.131340786372 0.179640926106 0.330060235992 0.407873392682 0.495102993969 0.625476735318 0.661276757372 0.621216095693 0.593652888927 0.517673888257 0.641204192165 0.688850339063 0.481864377081 0.38472570814 0.306736609608 0.288876831252 0.33085106383 0.352236925015 0.375779409726 0.39760166142 0.349749861035 0.141385450229 0.462235559527 26
0.320994822665 0.55898101574 0.510339235031 0.479390067685 0.433834742826 0.540308606322 0.559010880318 0.554703565577 0.524345283499 0.431889090859 0.344525470856 0.253774441052 0.191659879459 0.203770134346 0.216842769279 0.230594007359 0.208139117964 0.206791827719 0.218773738469 0.286073500967 0.374999999999 0.528266592763 0.684933342267 0.442745969982 0.597634390367 0.384174009281 1
0.755818454546 0.628671101735 0.449970716762 0.311088295688 0.139331762096 0.0855268586518 0.0447477744808 0.0248858527064 0.0165268243072 0.00990260180688 0.00771208226222 0.0105601848032 0.0138784818374 0.0274319476682 0.0447878883456 0.0816541089885 0.0426676228039 0.045554942021 0.0279978296255 0.0356866537715 0.0304032766227 0.0517528058749 0.156025993166 0.938243468595 0.531965406138 0.797756778616 22
0.226206028936 0.436110660394 0.40969500383 0.491368164879 0.498890891446 0.614200841652 0.587893175076 0.527168798577 0.491355199594 0.418215361241 0.355595194375 0.297060198553 0.250724873758 0.357740732925 0.505125374546 0.432977045734 0.366081032629 0.286581998895 0.263917525772 0.298162475822 0.318525519848 0.393653872801 0.550211027001 0.494274596998 0.218373749362 0.437070616781 24
0.308402283836 0.379928606199 0.57147362256 0.427751159785 0.223727991127 0.202244409605 0.152166172107 0.114182147712 0.100400457666 0.0868444613256 0.0987094066418 0.0997442455243 0.0984525166965 0.167053527467 0.337643904747 0.35657963904 0.342954463965 0.262424075096 0.25198046663 0.271760154739 0.321439823566 0.449771373146 0.744221879814 0.557754307951 0.614464982196 0.736236325715 23
0.204395896842 0.489899399645 0.483759066539 0.416457525288 0.313739082214 0.366366861952 0.346824925817 0.292077655013 0.269832189169 0.233701402642 0.235979224595 0.257707009872 0.298061573546 0.514173172963 0.874152341901 0.784124759067 0.643062029401 0.451822197681 0.384481823113 0.400773694391 0.45549779458 0.604406262988 0.784685469286 0.458532518065 0.195819908428 0.542255139831 14
0.221488363092 0.812712964465 0.0636121998484 0.0571526351814 0.0848814640234 0.184916247215 0.208466864491 0.223519570597 0.256515382659 0.245828698554 0.206180158438 0.159282787449 0.126079165988 0.184145741015 0.277401040845 0.243560539689 0.197920401578 0.134870237438 0.12707542051 0.153868471954 0.170841209829 0.222530137176 0.334226569306 0.480767092829 0.325546888247 0.838045375219 27
0.812757052313 0.341067661853 0.592782808486 0.456536618753 0.263239983363 0.190898588992 0.121424332344 0.0790840333205 0.0539664378337 0.037711278114 0.0292744347096 0.0307730385282 0.0435575826683 0.0958008018567 0.164800504652 0.176449973716 0.144137683758 0.113335173937 0.124145415084 0.15667311412 0.213216761185 0.297699875294 0.459636899578 0.776042245694 0.512209598101 0.664133997363 16
0.191839647749 0.481624208989 0.499166554038 0.508707886531 0.492860113684 0.560978628599 0.460336300693 0.342860130355 0.286835748792 0.238313573347 0.232726509626 0.227428980008 0.191040886138 0.278047408033 0.457656521054 0.430348694586 0.414306202941 0.350220872446 0.326315789473 0.372727272727 0.414618777567 0.484688928916 0.562939639583 0.413896609228 0.359632016279 0.548295236879 2
0.303140271932 0.522107739738 0.584313195478 0.560118640199 0.515943435465 0.604340292102 0.54290801187 0.430309156181 0.38294558861 0.316259258254 0.293426367977 0.261887083023 0.244339468969 0.358866146163 0.532250433685 0.512703697215 0.444424524919 0.32813362783 0.286923494302 0.324661508704 0.375472589791 0.523278370515 0.667113284653 0.393385214007 0.366372731898 0.405703826674 7
0.182900275803 0.509167613176 0.566788304726 0.546087154918 0.438895050602 0.483001897847 0.410326409496 0.338956467185 0.288297737098 0.240809571611 0.222155185982 0.226796468939 0.23495683336 0.343673067455 0.509225674184 0.413527247241 0.357655073503 0.255383765876 0.279978296256 0.315957446809 0.363579080025 0.451988360816 0.569102967776 0.468426903838 0.241393929115 0.569697356659 8
0.262834470413 0.677754340418 0.320854169482 0.376758688873 0.37439345626 0.489933162804 0.418358061326 0.340838590499 0.308288838038 0.231802273529 0.176407323855 0.14641256222 0.121713634142 0.150664697194 0.209272985333 0.154371824075 0.153101470061 0.130038652678 0.132392837764 0.148065764024 0.175803402646 0.236386310101 0.389495544985 0.584713729848 0.334152959131 0.670140041715 37
0.197549233078 0.348531559307 0.383745551201 0.394288539053 0.386420352141 0.566342107435 0.632166172106 0.651144958349 0.636060259343 0.554220136195 0.471905986044 0.352666171659 0.26906662323 0.387564183724 0.615202649424 0.53951287892 0.487629974902 0.412617338487 0.365165491046 0.430367504836 0.459357277882 0.512054870442 0.539693173445 0.335297387437 0.402535187384 0.353454220405 29
0.117615038468 0.438747363299 0.26426994639 0.335766978477 0.375086649106 0.516709299448 0.472799208706 0.365689589069 0.297101449274 0.253479475841 0.278841613767 0.257954514203 0.23756312103 0.31082506858 0.448982810282 0.366216926581 0.297597705271 0.176559911651 0.174064026044 0.187330754352 0.212744171392 0.26527643065 0.410263281301 0.472818232351 0.223503476342 0.67864044609 3
0.243020273868 0.546000324517 0.434383024732 0.526503916646 0.561832801884 0.715941909399 0.605301681505 0.442159562233 0.348652428172 0.299736834965 0.27572005666 0.20936116382 0.151164684802 0.181683899557 0.257530357988 0.221657613457 0.224632484762 0.205963556046 0.190124796527 0.21411992263 0.25472589792 0.340169045309 0.451664768543 0.574541411894 0.273020179752 0.517154045886 34
0.284184932502 0.452904429661 0.303824841193 0.379078256902 0.366283099959 0.476524465715 0.457091988129 0.396256665852 0.371948893975 0.319297864836 0.273306752006 0.242306740368 0.232546017267 0.325244425687 0.432897019398 0.348694585597 0.279311581211 0.202236333517 0.189799240369 0.193617021277 0.201717076244 0.257032007759 0.350170831379 0.515453029463 0.221638121078 0.597343889671 30
0.300188706636 0.837579101089 0.216695949905 0.220815271123 0.208685706363 0.277951976236 0.269713155292 0.245686800739 0.222540045767 0.173254835997 0.139079796443 0.151802656547 0.134679915296 0.189491453893 0.304526099984 0.315051690906 0.271064897812 0.198647156268 0.162018448181 0.166731141199 0.16981726528 0.246016350284 0.519394386014 0.649805447471 0.338138036289 0.731924403014 12
0.730597087145 0.911569041053 0.606027841601 0.423035972317 0.252738111743 0.163462331876 0.0685262116717 0.029974556481 0.0207538774473 0.0123172088228 0.00626934578459 0.00305255341968 0.0043329532497 0.0139269888161 0.0211323135152 0.0387243735767 0.0227680172104 0.0225013804528 0.0263700488333 0.031914893617 0.0436357908 0.0766246362753 0.198633348964 0.901445247359 0.574656605053 0.723713446559 5
0.3048942759 0.41010871329 0.44312294454 0.384553958475 0.31862609178 0.373710702202 0.313353115728 0.239064515005 0.186943808797 0.133997124176 0.101201406012 0.0850039875698 0.0800130314383 0.152282478723 0.29632550071 0.362887681794 0.35371100753 0.280646051905 0.284536082473 0.318665377176 0.346802142406 0.454066786752 0.618409593357 0.410116731516 0.489782940478 0.702507129785 28
0.597982290611 0.994320947591 0.405370095059 0.243478591527 0.145605157355 0.143782490304 0.0937685459941 0.0531874106862 0.0356915840326 0.0224097235411 0.0187818057815 0.0200753513188 0.0315035021991 0.056763030175 0.106134679073 0.100928684073 0.0788813194694 0.0604638321367 0.0595767769938 0.0755319148937 0.0994801512289 0.204447831508 0.51155624037 0.906170094497 0.763905375616 0.736351253564 33
0.249975806843 0.859200064904 0.598008739921 0.347060612974 0.229065576043 0.300189784634 0.339703264094 0.353490641664 0.359426646326 0.312488130444 0.270526205341 0.213596237935 0.167421404138 0.222761482732 0.295536981548 0.203784825652 0.146826819649 0.115267807841 0.10406945198 0.125241779497 0.151307498424 0.21899681308 0.348429021238 0.590994997222 0.222401220959 0.636521517047 25
0.470121449656 0.592893071555 0.346308059648 0.328960377214 0.257521142381 0.253486261243 0.20668644906 0.167299850127 0.139206712433 0.0959602810712 0.0690414983474 0.0528559249786 0.0417331812998 0.0614053597807 0.0909951111811 0.109689854565 0.0989602007888 0.0884870237438 0.0782419967439 0.0808510638301 0.0816005040955 0.121795760011 0.2097541368 0.696220122291 0.361370188232 0.807683139659 31
0.748403251565 0.148263832549 0.577735730053 0.656019469162 0.565714681824 0.625134086972 0.522294757665 0.365515318393 0.230708110857 0.120214872894 0.0723204448875 0.0567884937987 0.0631373187817 0.129844552296 0.259265100141 0.277378657789 0.267658659018 0.229431253451 0.215301139446 0.272050290135 0.365390674228 0.626299016212 0.871976954512 0.621734296831 0.800279803289 0.381913761548 21
0.273177045533 0.708056141491 0.318106050366 0.260438056125 0.22196034937 0.285790906841 0.294045499505 0.282213934683 0.268878718535 0.210369244961 0.177404123603 0.186893270632 0.196448933051 0.282338046001 0.428165904431 0.399334151043 0.345643599856 0.253451131971 0.209875203472 0.250967117989 0.279536862003 0.428363585975 0.634889797011 0.421178432462 0.376377819229 0.668884348529 32
0.74253641071 0.455176050625 0.62134522683 0.501254848278 0.335020102593 0.277869461177 0.172462908012 0.0963716845002 0.0626430205952 0.037982582273 0.025129846283 0.0165827901988 0.0215996090567 0.0551452486458 0.0941491878252 0.124583844402 0.105414126927 0.0958034235234 0.102658708626 0.146421663443 0.207151858853 0.322363863101 0.53895625377 0.841967759869 0.756698321181 0.620865789811 4
0.729859195821 0.255557358429 0.589043564447 0.686021750702 0.573339803134 0.596171301262 0.441503461919 0.316998361855 0.236778540554 0.147128245476 0.100519385132 0.0919066083657 0.0809903893142 0.193711753534 0.31856174105 0.399509374452 0.295625672284 0.266427388183 0.211937059142 0.272437137331 0.368068683049 0.625398364968 0.881154954112 0.64335742079 0.50966593183 0.388771123313 35
0.64731214013 0.745578452052 0.437041041582 0.41683778234 0.307950921945 0.284099348131 0.206211671612 0.149593949322 0.0839689804222 0.0408584063594 0.0267562037668 0.0229904023321 0.0371395992833 0.073995920377 0.19476423277 0.159278079551 0.170132664037 0.0912479293204 0.0739012479646 0.0590909090906 0.0606490233145 0.0870167659689 0.227038252829 0.768482490274 0.314397151094 0.727829566253 10
0.480318865827 0.48093460977 0.542730999684 0.568484295384 0.492756134756 0.567579833321 0.501325420377 0.440625980271 0.353324434274 0.229523318592 0.156917265621 0.12674971812 0.105978172341 0.16220018288 0.27266992588 0.342386542842 0.325206167085 0.275400331308 0.234508952793 0.259574468085 0.279379332073 0.385548011639 0.570509814432 0.587548638134 0.425470578259 0.470659345337 20
0.115776358446 0.579019957814 0.0764517727624 0.0722868659213 0.095591293498 0.200429078307 0.275054401583 0.371998187584 0.49354818205 0.530453891858 0.514007659618 0.490718587575 0.47685290764 0.652739677849 0.690427377385 0.523217101805 0.415561133022 0.31971286582 0.341833966358 0.403191489362 0.441162570888 0.522031314951 0.555838413614 0.173985547526 0.299516703407 0.547614182947 26
0.380038225192 0.396316728866 0.757760057664 0.847935204197 0.735165673089 0.810339136892 0.661167161226 0.494649890209 0.39778794813 0.327219946281 0.277084098421 0.218051315897 0.150187326926 0.156573116691 0.23765967513 0.270194497985 0.355503764791 0.408337934843 0.463483450894 0.573887814314 0.66808443604 0.79506720244 0.838078649429 0.422012229019 0.644013905374 0.226897373688 17
0.0525475395558 0.465033263021 0.101680407262 0.146056734353 0.131464023291 0.215859394339 0.28506429278 0.369906939458 0.464530892449 0.490490789224 0.538980116468 0.665319143085 0.877178693599 0.985439966239 0.850969878568 0.585421412301 0.44532090355 0.310049696301 0.294411285946 0.343133462282 0.393824826716 0.499030067892 0.508943525159 0.0877153974422 0.105392572493 0.502302813604 36
0.239863066726 0.550989777706 0.550840203629 0.606510000761 0.570463052821 0.613458206121 0.492542037586 0.378271931965 0.345315280956 0.307469003501 0.269424479304 0.23163655364 0.184622902753 0.26004079623 0.401040845293 0.389521640091 0.406597346719 0.344008834898 0.340640260444 0.382301740813 0.447227473219 0.571082167106 0.762912842499 0.338966092275 0.520391724604 0.433924998938 6
0.311099820972 0.687733246795 0.320719016082 0.277739752073 0.240953833356 0.306708474297 0.302670623146 0.268237426371 0.243579964405 0.193901082504 0.150280677824 0.114374501554 0.0961394363903 0.116269255117 0.163381170163 0.121955493254 0.091251344568 0.0839315295419 0.0499186109602 0.0616054158608 0.0722274732196 0.0891644727728 0.149996650363 0.69855475264 0.294047820926 0.786170348614 1
0.2449678231 0.431486289146 0.396314817318 0.444254315917 0.464335228059 0.655829688917 0.693452027697 0.643372486146 0.577962115433 0.469084891071 0.364356539532 0.270852239914 0.197263397948 0.254906098333 0.349944803659 0.353250394253 0.352276801721 0.32219768084 0.300488334237 0.327466150871 0.354599873975 0.464320354718 0.617203724796 0.475764313506 0.337544514158 0.389690546119 24
0.279600329028 0.598328736004 0.262873361267 0.219636474256 0.165326493831 0.240696427098 0.240039564788 0.22923564881 0.22177726926 0.191242301744 0.19138555165 0.207023622913 0.224596839876 0.360905957656 0.563160384797 0.488698090065 0.393151667264 0.280922142463 0.264677156809 0.304255319149 0.373030875866 0.515518913676 0.643665840426 0.356586992775 0.380023740886 0.688634912529 15
0.235520394833 0.747484991075 0.269721133485 0.287588409766 0.311659503675 0.453502764254 0.463580613254 0.408176780174 0.342359521995 0.257820342385 0.192093804102 0.150840139703 0.109561817886 0.1403953014 0.209272985333 0.213597336605 0.170132664037 0.166206515737 0.164948453607 0.197678916828 0.243304977946 0.365941526949 0.530582166545 0.568315730964 0.47892996439 0.635682969397 19
0.254548313738 0.701119584617 0.296121097446 0.25218647806 0.225703590738 0.28669857249 0.271849653808 0.231361751072 0.202898550725 0.163297973358 0.13734851267 0.125567197426 0.118553510344 0.159949356404 0.233086263996 0.19554932539 0.157762638938 0.127967973495 0.128703201301 0.141489361702 0.154379332073 0.209158930303 0.361224626515 0.637020566982 0.371884008819 0.785101945262 13
0.322252866891 0.138852831414 0.29679686444 0.497452277741 0.564952169693 0.654715735623 0.542235410486 0.445854100588 0.376843376559 0.292086057678 0.214757882587 0.153040178203 0.131096269751 0.230287683759 0.40656047942 0.40336428947 0.363571172463 0.289342904473 0.24981009224 0.250290135397 0.257325141776 0.371968962172 0.762443893619 0.590050027796 0.125657113786 0.549759502831 14
0.180614022355 0.681729677104 0.114114519982 0.103201764393 0.1082074033 0.1804191765 0.214005934718 0.233452999198 0.251620900075 0.214818633169 0.191962646241 0.192255864478 0.177944290601 0.276851656468 0.414130263365 0.337655510776 0.301900322696 0.227774710104 0.183939229517 0.185106382979 0.192422810334 0.23652487183 0.372814363236 0.474874930519 0.147956588093 0.841263355043 18
0.469202109645 0.616055492457 0.688786772987 0.606015666591 0.462532926661 0.4587424705 0.342512363997 0.240075284932 0.199847444699 0.162592582544 0.130265988143 0.107691884608 0.0821957973611 0.14145037631 0.231509225674 0.279481338706 0.233237719613 0.207620099392 0.203038524145 0.237717601547 0.321833648393 0.553900512679 0.7933275273 0.605836575875 0.668348312701 0.498131358277 9
0.712428025359 0.553910433231 0.346263008513 0.221841965168 0.0986413420215 0.0717881013284 0.0407517309594 0.0225506256316 0.0165586066616 0.0130225996365 0.0131682493049 0.0182603195556 0.0269750773741 0.0545122037 0.0984071912947 0.0983003329248 0.0743994263176 0.0519050248482 0.0477482365706 0.0500967117989 0.0628544423437 0.0882638215325 0.17237221143 0.88799332963 0.506995082245 0.838977567785 22
0.286265544105 0.715398344963 0.334820020723 0.256407331356 0.212740884514 0.269824242924 0.260890207715 0.246697570667 0.240465293669 0.195284733715 0.179581344106 0.168907955889 0.150806320248 0.215446296687 0.323608263681 0.304012616085 0.301362495519 0.229293208172 0.22691264243 0.265183752418 0.320967233774 0.434598863793 0.553024720307 0.392829349641 0.402704765135 0.699425360747 27
0.488846954084 0.538211909784 0.375726449522 0.434215529697 0.462117010952 0.694157933822 0.80731948566 0.843923181484 0.687770150014 0.340242545917 0.13587954462 0.0636911145946 0.0586414725526 0.121263276359 0.252641539189 0.276677764149 0.259770527071 0.18870789619 0.165382528486 0.173500967118 0.218336483931 0.392545378966 0.716486902929 0.565202890496 0.474775309478 0.363878602138 11
0.183638167127 0.290605224728 0.44650177952 0.561487565593 0.599057257728 0.768957834804 0.726963402571 0.61594228155 0.531528095603 0.45185707697 0.451445359634 0.420262354592 0.342401042514 0.483505662235 0.78378804605 0.731382512704 0.710290426677 0.564605190502 0.515680954963 0.557736943908 0.587192816633 0.643827074959 0.702820392577 0.259866592551 0.389096150586 0.245456093304 2
0.282019644845 0.456879766347 0.521106455827 0.427523005551 0.316303895745 0.33773413648 0.271216617211 0.210065874316 0.184973302822 0.148810331262 0.141257016946 0.144350026125 0.139729597654 0.244636702539 0.474530831099 0.481513930261 0.498565794191 0.400883489785 0.376234400432 0.3833655706 0.405166981726 0.481155604821 0.756682521606 0.54441356309 0.222825165336 0.656037968757 23
0.406904727345 0.640840499757 0.669910348246 0.688645524373 0.604048246222 0.621462166847 0.421681503461 0.245721654874 0.198004068142 0.159309802219 0.114369655317 0.0715287517532 0.0500081446491 0.073995920377 0.13310203438 0.186963378307 0.202402294729 0.172832689122 0.151600651111 0.174661508704 0.229048519218 0.323680199528 0.466001205871 0.645858810452 0.404188570458 0.558753671308 34
0.438053418496 0.544418302776 0.625580033336 0.718457677389 0.644738666297 0.662637181287 0.471414441147 0.33310097243 0.303171878973 0.238612007921 0.144273647762 0.0998817479306 0.0762664929141 0.114229443624 0.157861536035 0.188014718766 0.172642524203 0.179458862507 0.191318502441 0.24419729207 0.291745431632 0.468269363999 0.715013063579 0.510005558642 0.614083432255 0.448286723707 37
0.340591280788 0.566526042514 0.660719917105 0.643737166323 0.576563149868 0.655458371151 0.578120672601 0.477013697676 0.403763030765 0.315255432866 0.280782750119 0.249319363089 0.21189118749 0.296546388127 0.514114492982 0.557385666725 0.495876658301 0.375621203755 0.325447639717 0.355705996132 0.393982356647 0.515796037133 0.645139679776 0.383268482492 0.377988807868 0.352756140129 7
0.167948904051 0.556749959437 0.289138171824 0.306259031106 0.274019132123 0.322138790329 0.276122650841 0.221254051793 0.188215102975 0.158333107246 0.171029851529 0.176113081979 0.164847695064 0.247098543997 0.412080113547 0.365516032942 0.316959483686 0.211761457758 0.206511123168 0.217311411993 0.260081915563 0.334695857003 0.480873584779 0.468593663146 0.311853484823 0.770833865406 3
0.171989161466 0.435623884472 0.571698878226 0.614115141835 0.532580063775 0.606650713754 0.514263105835 0.418667874942 0.355072463767 0.296047098402 0.275746288233 0.27164975387 0.274214041375 0.413941056482 0.567418388267 0.454529525145 0.37468626748 0.306184428492 0.292566467715 0.318181818182 0.389256458727 0.472149092418 0.597306893551 0.442968315733 0.181787349499 0.48375260716 8
0.632977693911 0.867150738277 0.655358832273 0.617955738078 0.497296547901 0.47784470666 0.353194856579 0.237809766129 0.158117213323 0.083724463496 0.0416557368449 0.0284079971399 0.0311451376445 0.0749103186328 0.169216211954 0.261783774313 0.319290068125 0.25124240751 0.226695604991 0.20077369439 0.206836798991 0.283982264098 0.443625644804 0.715786548081 0.533873155842 0.513693440599 16
0.675206851504 0.6192601006 0.647024372662 0.440033462621 0.241889643698 0.164617542701 0.0991889218595 0.0614826949217 0.0386155606408 0.024824330557 0.0201196159697 0.0223303907818 0.0332301677797 0.0867974959557 0.162277243337 0.207464517259 0.200968088921 0.18387631143 0.141616928919 0.1750483559 0.180214240705 0.236386310101 0.416091646009 0.782434685936 0.560920807189 0.695939215936 12
0.178049547589 0.135404835308 0.449925665631 0.602669404517 0.6127131568 0.854732238633 0.858951533136 0.759157924088 0.668859649123 0.547925879705 0.474266827554 0.39248686852 0.326111744583 0.467749876908 0.739000157704 0.745750832311 0.71011115095 0.635008282717 0.597721106889 0.677949709865 0.689508506613 0.700637383953 0.670931868425 0.218954974988 0.595599457352 0.15236027753 29
0.286011515945 0.389542430635 0.292562057935 0.399916343447 0.450020795784 0.619069230136 0.616894164193 0.519396326374 0.436721332317 0.31197265254 0.19421856146 0.134779858648 0.131715263072 0.211437012028 0.298691058193 0.312072892938 0.26801721047 0.18511871894 0.186435160065 0.201740812379 0.207781978576 0.2624359152 0.358745896699 0.517398554754 0.240376462607 0.588720044268 30
0.729169690814 0.890840499756 0.519529666172 0.34002585748 0.166678219881 0.0897351266606 0.0300296735905 0.0121640932697 0.00966183574882 0.00496486611139 0.00170505220084 0.0014575255067 0.00335559537383 0.00675247942604 0.00662356095256 0.0187489048538 0.0030476873432 0.00151849806733 0.0106348345089 0.0120889748549 0.0149653434154 0.0252182347237 0.103905674282 0.941801000556 0.572452094284 0.783876048184 5
0.660618377126 0.71462761642 0.512726945081 0.34873374401 0.173956744766 0.134128228402 0.0940850642928 0.05820640619 0.0449084668193 0.0294365012616 0.026441424899 0.0260429557518 0.0281153282294 0.0640078778927 0.0965147453082 0.123532503943 0.107027608462 0.0865543898402 0.0911557243619 0.121179883946 0.181001890359 0.309824026604 0.514168955587 0.801500833799 0.763311853485 0.706120972206 33
0.740080805149 0.373519389909 0.575302968868 0.603239790097 0.488319700542 0.477102071128 0.350544015827 0.238437140566 0.178171878973 0.120214872894 0.0982634699123 0.100239254187 0.119302818048 0.225504677499 0.388739946381 0.307692307692 0.205629257798 0.162065157372 0.182745523602 0.264119922631 0.372400756143 0.621310793958 0.943056206875 0.650750416897 0.66796676276 0.416511301239 35
0.409699037115 0.387919844233 0.56404018561 0.593733363752 0.544225703591 0.626701873093 0.574243323442 0.46418737583 0.37865497076 0.291136493122 0.251691936414 0.229409014657 0.226095455286 0.319124991208 0.341271092887 0.274925530051 0.242201505917 0.229845389287 0.239717851328 0.290909090909 0.321912413358 0.48039351531 0.706571983654 0.350083379655 0.522341868747 0.401034350658 25
0.234117191659 0.302571799448 0.343695093932 0.422085329682 0.464577845556 0.682482052974 0.695825914937 0.647624690669 0.600718281212 0.499905043543 0.40978962279 0.295685174491 0.19283270891 0.258071323064 0.421857751143 0.427895566848 0.402832556472 0.369547211485 0.347151383613 0.374081237911 0.371219281663 0.437508660106 0.558250150735 0.418176764868 0.243725623199 0.400251138637 28
0.687569555333 0.353480447834 0.533585619678 0.508593809414 0.39688756412 0.391987787772 0.313036597427 0.237461224774 0.167270531401 0.105537317887 0.0678610775929 0.0469983224706 0.0383775859261 0.076598438489 0.132944330547 0.156299281584 0.142524202223 0.128520154611 0.118502441671 0.129497098646 0.18115942029 0.310586116114 0.62463991425 0.636353529738 0.589749024929 0.592487123825 31
0.376905211208 0.447996105792 0.82164256431 0.882690698913 0.722480244003 0.742511758395 0.587655786349 0.456658882575 0.376970505976 0.282753194607 0.223519227742 0.17592057861 0.128001303144 0.144826616023 0.201072386059 0.285964604872 0.343133739692 0.399779127553 0.435485621268 0.531914893617 0.60144927536 0.710613828462 0.726870771085 0.462923846582 0.609504832966 0.282637381348 17
0.799462911896 0.261520363458 0.518493490111 0.576241539279 0.436156938861 0.439268916579 0.341048466864 0.245094280436 0.177123061277 0.0925961094983 0.054430512565 0.0440282704947 0.051897703209 0.10262361961 0.172370288597 0.202558261784 0.163140910721 0.144395361679 0.109169831796 0.127659574468 0.156348456207 0.222322294582 0.377168888594 0.714508060036 0.450568085466 0.570735963906 21
0.30728939856 0.687895505435 0.340541514618 0.290896646134 0.263933176209 0.36170476112 0.361345202768 0.317242340804 0.280542842614 0.20678803006 0.169954357064 0.176690592086 0.183124287343 0.282197369347 0.420438416654 0.406868757666 0.314628899247 0.239370513528 0.195225176342 0.216247582205 0.241414618777 0.408895663016 0.622094191734 0.444635908838 0.435348482279 0.632150002129 32
0.777955194276 0.499026448159 0.69419290895 0.615255912997 0.487591848052 0.442321973759 0.267220573689 0.144017287651 0.108028222731 0.0653300415096 0.0252347725723 0.0122102136788 0.0138459032416 0.0371386368432 0.0891026651948 0.149115121781 0.128719971316 0.101049144119 0.114921323928 0.160928433269 0.234877126654 0.377996397394 0.625175855831 0.846081156197 0.777302017975 0.509760354147 4
0.423247205692 0.883903942885 0.34085687255 0.312381169672 0.288194925829 0.347635943558 0.310544015827 0.254714021819 0.17098906687 0.100518190944 0.0593095850164 0.0491708604902 0.044534940544 0.0791306182739 0.158019239868 0.168389696863 0.146468268197 0.102291551629 0.0718393922953 0.0819148936168 0.0864051669815 0.101219343217 0.236082267034 0.735908838243 0.265728336441 0.757732090411 10
0.108457928098 0.453918546163 0.146596386901 0.159289679824 0.161929848884 0.264295733972 0.351770524234 0.490571956361 0.70550470379 0.803575788817 0.796154451496 0.680526909222 0.502785469946 0.559752409085 0.626872733007 0.493604345541 0.438508425959 0.341662065157 0.351600651111 0.416924564797 0.481805293005 0.566648191767 0.582702485428 0.149527515286 0.339791419367 0.356727535862 26
0.253411235304 0.586646113905 0.475289453531 0.428701802417 0.387980036045 0.503176829772 0.499545004946 0.423268620821 0.374586829392 0.32450690469 0.285976601437 0.237714159998 0.200879622088 0.24407399592 0.347579246176 0.277028210969 0.264252420223 0.199337382661 0.226370048832 0.246034816248 0.273235664776 0.347997783011 0.435988477255 0.569483046136 0.328768865524 0.536585365855 24
0.0509507911171 0.42880902158 0.0985268279517 0.126777701726 0.133404963261 0.224523475534 0.340296735906 0.465476978843 0.594012204425 0.594047586749 0.604690205131 0.754118197069 0.943736764947 0.994935640429 0.834568680018 0.614158051516 0.491036213697 0.334483710657 0.2913727618 0.35164410058 0.407844990548 0.419634197035 0.431901922693 0.0976653696498 0.0810157707309 0.431460435023 36
0.600474185903 0.474484828818 0.214713700048 0.0819453950869 0.0 0.0 0.0 0.0 0.000349605898823 0.0 0.00322648339542 0.0082776448588 0.0145300537547 0.0271505943588 0.031067654944 0.0453828631512 0.0267120831839 0.0193263390392 0.0187737384698 0.0184719535784 0.0152804032768 0.00422613274225 0.0 0.923123957757 0.53052399525 0.973511258675 22
0.301011274013 0.199537562876 0.302788665136 0.419461556011 0.321294884237 0.263223038204 0.175786350149 0.131957756788 0.116037376049 0.0996228872188 0.100099679975 0.114016995298 0.128848346636 0.243370612647 0.510487304841 0.503241633082 0.475259949803 0.360298177802 0.309603906673 0.326982591876 0.356096408317 0.550367188584 0.954980907081 0.576987215121 0.216974732914 0.743885412676 14
0.537765519914 0.627535291255 0.538856602245 0.438702562934 0.28926937474 0.267183761036 0.197151335312 0.149942490676 0.129036359014 0.0931658482324 0.0718220450134 0.0810164177874 0.0931747841669 0.202644721109 0.357514587605 0.387068512353 0.311581211904 0.232330204307 0.175908844275 0.170116054158 0.190217391304 0.286199251766 0.442285790848 0.629627570875 0.36298117687 0.672340697231 20
0.272765761844 0.642260262858 0.546740550524 0.555745684083 0.480937196728 0.539731000908 0.441345202771 0.342790422084 0.303553267227 0.239181746656 0.187136036934 0.136732392817 0.104870500082 0.163747626081 0.262103769122 0.26546346592 0.260666905701 0.227498619547 0.222680412371 0.258704061895 0.304190296156 0.439794928637 0.579017887051 0.493107281825 0.461760217059 0.553330779383 6
0.359461944164 0.472294337174 0.272469252601 0.292341622938 0.270483848608 0.328038617047 0.276399604352 0.226761005193 0.19075769133 0.152337285331 0.133361313677 0.128592250365 0.123472878319 0.203699796019 0.374704305315 0.373576309795 0.351918250268 0.256488128106 0.22278893109 0.250193423598 0.296156269691 0.420534848274 0.638440409998 0.448249027237 0.44043581482 0.704592857448 15
0.366550539509 0.46483043972 0.357345587241 0.424557000532 0.44485650908 0.678232527435 0.834896142433 1.0 1.0 0.598252801216 0.26861130056 0.115337018398 0.0595210946409 0.0965041851307 0.207538243179 0.244086209917 0.252420222302 0.213003865268 0.196961475854 0.205029013539 0.248503465658 0.41388388527 0.695853152008 0.555252918289 0.510725792777 0.283050270293 11
0.33486959888 0.449537562875 0.343559940531 0.310061601643 0.212013032025 0.222501856589 0.177566765579 0.135652295145 0.108632087465 0.0862475921755 0.0704317716803 0.0665786651266 0.0652549275125 0.0982626433145 0.191925563791 0.201506921325 0.207601290785 0.175317504142 0.166793271839 0.168181818182 0.168714555765 0.235485658861 0.438199236286 0.641356309061 0.399228421232 0.843106457243 13
0.232544636378 0.692398182705 0.0962292201639 0.149517073542 0.182656314987 0.273289875402 0.271018793274 0.262486494022 0.261346300533 0.200982121056 0.150306909396 0.138519924099 0.130151490471 0.18027713301 0.283078378805 0.245312773787 0.218895661528 0.119547211485 0.13749321758 0.122727272727 0.136027095148 0.130386587225 0.191934079185 0.589494163425 0.167118874003 0.844021623462 27
0.206766826343 0.38065877008 0.511870973555 0.609057723021 0.647407458756 0.816775311494 0.724826904054 0.529504025652 0.433034579203 0.362869312787 0.345155028591 0.339630943542 0.270109138296 0.309558978687 0.449613625611 0.407219204486 0.419146647544 0.380176697956 0.366250678241 0.41005802708 0.441005040957 0.559373700981 0.662490788506 0.389382990549 0.402196031879 0.33940748308 2
0.426101998357 0.625628752232 0.367797450105 0.348885846834 0.303826424512 0.370905190198 0.336815034619 0.29340211216 0.237159928808 0.15784475976 0.103195005509 0.0707587382779 0.0468480208503 0.0548638953364 0.072228355149 0.0557210443312 0.0410541412693 0.0230535615681 0.0262615301138 0.0352998065762 0.0475740390672 0.0814050159344 0.18201915991 0.777821011672 0.405799559097 0.741488954158 1
0.580865631203 0.451646925199 0.517772671982 0.508441706593 0.399001802302 0.34520174932 0.206923837785 0.108222090551 0.0808225273328 0.0503269215118 0.0346781386075 0.0328630751039 0.0382798501384 0.0841949778432 0.128055511749 0.155598387944 0.147006095375 0.145775814467 0.138795442213 0.181044487427 0.190138626339 0.235277816267 0.369263750249 0.669093941081 0.447388502629 0.708977142129 19
0.18598490347 0.613783871492 0.382619272875 0.39314776789 0.335782614724 0.37239046126 0.297448071217 0.218535429228 0.165744978388 0.131908082151 0.113923718588 0.114374501554 0.109268610523 0.131321657171 0.197918309415 0.175573856668 0.163499462173 0.116096079514 0.102875746066 0.102417794971 0.101843100189 0.114936954413 0.211428954246 0.62084491384 0.207266406647 0.829583280128 18
0.460492572703 0.678890150902 0.568455196647 0.548558825767 0.48575488701 0.553469758232 0.437942631058 0.30601930919 0.23846300534 0.181393960769 0.140837311788 0.102989302313 0.0748656132921 0.115073503552 0.21621195395 0.254249167688 0.244352814629 0.209690778575 0.183505154639 0.223694390716 0.27756773787 0.454482471943 0.734574931334 0.617954419124 0.580379854164 0.497122547142 9
0.28593893647 0.533303585915 0.571743929361 0.599627348087 0.552336059891 0.633055532636 0.562453016816 0.475410407444 0.422482837528 0.360590357849 0.335213262682 0.312707972391 0.25079003095 0.276359288176 0.367607632865 0.326966882776 0.308712800287 0.236609607952 0.238307107976 0.244100580271 0.269218651543 0.371830400443 0.531721042406 0.482545858812 0.31270137358 0.412220661475 7
0.336006677313 0.559386662339 0.623642834618 0.666514563845 0.598710661306 0.642874824655 0.483363006924 0.330765745355 0.272311212815 0.221438454652 0.17420387178 0.123174655557 0.0864310148233 0.107547302525 0.207222835514 0.233572805327 0.269989243456 0.227774710104 0.225176342919 0.258413926499 0.286940768746 0.385686573368 0.52006431299 0.570372429128 0.344285229777 0.524747797215 34
0.11612715924 0.615528151873 0.142631887192 0.0720587116891 0.0946901427977 0.204802376434 0.267932739862 0.275173399325 0.313087973557 0.342738544181 0.379570851477 0.353271182246 0.271281967747 0.358655131181 0.537612363981 0.430699141406 0.331480817497 0.191744892325 0.158220293 0.119632495164 0.118777567738 0.111611472911 0.142627453609 0.424235686495 0.0103866372723 0.801804792917 3
0.323281076114 0.566039266592 0.474883993333 0.570005323599 0.585609316511 0.706287647497 0.62377843719 0.491338747343 0.421434019832 0.316394910334 0.211321546614 0.151032643071 0.111940055384 0.114792150243 0.199968459234 0.194848431751 0.204015776264 0.199199337383 0.19565925122 0.236847195358 0.266146817895 0.369474851045 0.540296107726 0.428237909949 0.396006443955 0.476976120548 37
0.724609280495 0.369462923903 0.663828445285 0.705528937563 0.584673506168 0.587094644774 0.457210682492 0.304764560314 0.197209509281 0.117501831303 0.0742353496668 0.0462558094766 0.0428082749635 0.0884152774849 0.200756978394 0.272647625723 0.265148798852 0.260629486471 0.256863809007 0.28413926499 0.348928796471 0.503879728417 0.69022576539 0.667092829352 0.66347295235 0.409662452646 16
0.622139159048 0.61208015577 0.67130693337 0.428397596775 0.21929155691 0.158800231042 0.0975667655787 0.0619009445469 0.0469743198577 0.0343199761251 0.0295892135774 0.0340730962793 0.045479719824 0.0931982837447 0.192083267623 0.260381987034 0.264431695948 0.260491441193 0.245794899619 0.311411992263 0.381301197227 0.565262574474 0.791585717159 0.660422456919 0.787646260811 0.625522496063 12
0.231443847681 0.245010546813 0.492994548814 0.576393642103 0.504713711355 0.527848832412 0.408783382788 0.295388797881 0.231788710908 0.174367183049 0.140102827763 0.119132084812 0.11141879785 0.170851797144 0.305156915313 0.279130891887 0.274291860882 0.210104914412 0.202712967987 0.24419729207 0.324039067422 0.465498129414 0.737991558921 0.522901612009 0.440902153636 0.635972417316 29
0.217460202256 0.699618692196 0.15448033518 0.163928815879 0.1945445723 0.354360920867 0.464767556876 0.543375971559 0.601608187135 0.526167286145 0.399401920151 0.265324643181 0.189574849324 0.251881550257 0.357356883772 0.263360785 0.243456435998 0.15378244064 0.161584373304 0.167311411992 0.224322621298 0.297422751835 0.433442754739 0.509282934963 0.268780735967 0.56631336994 30
0.284463153822 0.370152523123 0.48641708339 0.492584987452 0.452585609316 0.557059163298 0.489297725025 0.384580530481 0.317537503177 0.257359125316 0.23107392057 0.212111211946 0.192702394527 0.286769360624 0.511906639331 0.475205887506 0.473287916816 0.395913859746 0.374064026043 0.385880077369 0.391934467548 0.474227518359 0.728545588531 0.548526959422 0.272129896555 0.504350231986 23
0.206730536605 0.517686191791 0.540523494165 0.554262681571 0.452516290031 0.503176829772 0.40431256182 0.323132689693 0.274694889397 0.218942456388 0.19726142385 0.192145862553 0.196057989901 0.288668495463 0.432423907901 0.358682319958 0.305485837217 0.247791275538 0.244818231144 0.304738878143 0.370195337114 0.494180407371 0.606752863941 0.489049471928 0.29158894353 0.578665985614 8
0.790475153635 0.62429011845 0.698562868857 0.466993687732 0.244662415083 0.149476029375 0.058081107814 0.0223066466837 0.0174485125858 0.0111234705228 0.00647919836316 0.00354756208234 0.0051148395504 0.0186396567489 0.0264942438101 0.056597161381 0.0389028325565 0.0512147984535 0.0540423223004 0.0885880077368 0.149023314429 0.353193847859 0.718697661955 0.881156197889 0.949465830083 0.62651428085 5
0.52826970533 0.842649683597 0.3687435239 0.258612822268 0.155171218633 0.148692136315 0.0948367952523 0.059461155066 0.0406178489704 0.0275645025639 0.025785635591 0.0353931193797 0.0485095292394 0.0889779841036 0.154865163224 0.156124058175 0.126210111151 0.101877415792 0.090938686923 0.106286266925 0.127599243856 0.232852986005 0.493937160851 0.787548638133 0.694972019671 0.773072830207 33
0.396598441963 0.644491319164 0.372257512276 0.387519963494 0.385831138223 0.532345903127 0.550069238379 0.490571956361 0.405574624969 0.264738598443 0.170374062221 0.115529521767 0.094282456426 0.127171695857 0.240340640278 0.194322761521 0.198458228757 0.143429044726 0.12913727618 0.139264990329 0.146266540643 0.20791187474 0.359616801769 0.65608671484 0.352848906224 0.569948495297 31
0.424614119129 0.364473470714 0.506735144389 0.576545744924 0.592575904616 0.759221057843 0.767200791297 0.616987905615 0.511505212307 0.362787921538 0.230496825979 0.132882325441 0.0762339143183 0.100443131462 0.189560006308 0.204836166111 0.218178558623 0.184980673661 0.198589256646 0.244390715667 0.296943919344 0.508036580294 0.740537281437 0.331517509729 0.549389520094 0.376324862725 25
0.828168094069 0.118976147979 0.301392080012 0.366301619894 0.269236101484 0.284511923427 0.239169139466 0.186609041163 0.134375794559 0.0745272525027 0.0451445359634 0.0352006160108 0.040983873595 0.0665400576776 0.105188456079 0.10285614158 0.100215130871 0.0713694091658 0.0622897449808 0.0673114119925 0.0833333333333 0.104544824719 0.235077376568 0.720289049472 0.472825165338 0.719227003788 21
0.662432863989 0.378468278436 0.624363652744 0.686363982051 0.568071537502 0.606114365871 0.474421364985 0.34610156495 0.275902618866 0.181556743265 0.136456639211 0.1429200011 0.161557256882 0.350214531898 0.57908847185 0.498510601016 0.33542488347 0.228602981778 0.195876288659 0.235106382979 0.33254568368 0.51752805875 0.822335365445 0.599166203447 0.487663218585 0.355318605542 35
0.21726665699 0.465763426902 0.322385908006 0.278728420412 0.21703868016 0.259881178315 0.23509396637 0.192011432156 0.168796084414 0.151116416615 0.145454068517 0.121909633419 0.101156540153 0.148132517409 0.230247595017 0.232171018048 0.212262459663 0.20071783545 0.195442213781 0.239458413927 0.282608695651 0.373216017735 0.534132779527 0.516787103948 0.445311175174 0.801332311752 28
0.662783664782 0.532573422034 0.723611298825 0.661533196441 0.521627616803 0.461465467449 0.313590504451 0.217315534488 0.159007119248 0.0978322797689 0.0521221342007 0.0322305640349 0.022544388337 0.0545122037 0.0995111181201 0.147713334502 0.139297239154 0.13100496963 0.151058057515 0.198452611219 0.27654379332 0.445753082998 0.660614992964 0.786826014454 0.752077327456 0.491048397394 4
0.291176755215 0.556425442155 0.368608370499 0.380257053768 0.346457784556 0.384025084577 0.307181008903 0.213725558537 0.163520213578 0.12786565018 0.10151618488 0.0834914611007 0.0779280013032 0.108039670817 0.16464280082 0.147888557911 0.126568662604 0.103119823302 0.106565382528 0.113442940039 0.136972274732 0.171193016488 0.245796208214 0.678098943858 0.257842971 0.796828842633 24
0.731988193741 0.523770890801 0.450105870162 0.472697543539 0.39522390129 0.419093984653 0.351533135511 0.284165766268 0.187293414696 0.0850538538755 0.0358323277896 0.0211753705689 0.0204267796058 0.0495885207849 0.0988803027912 0.13807604696 0.112047328792 0.0966316951964 0.0876831253392 0.112572533849 0.139492753623 0.237148399612 0.489314664703 0.782934963868 0.487493640834 0.591588983955 10
0.303358010356 0.412542592894 0.77843852773 0.786447638602 0.668341882712 0.73137222543 0.608783382789 0.475166428495 0.386823035851 0.308093003065 0.281779549867 0.238539174437 0.188923277407 0.258282338046 0.426746569941 0.45996145085 0.506274650413 0.435808945334 0.388279978295 0.434526112186 0.471093257718 0.548843009557 0.607087827426 0.42718176765 0.336060708834 0.336713063466 17
0.223919775489 0.665341554437 0.16930215795 0.190889040993 0.203660058227 0.273124845284 0.282927794263 0.27886793768 0.278699466057 0.235356358013 0.21344630397 0.214861260072 0.204039745887 0.280016881198 0.419019082164 0.339582968285 0.269092864827 0.190226394258 0.143027672273 0.146905222437 0.160365469439 0.194332825273 0.278153681251 0.58037798777 0.21761064948 0.761341676244 32
0.0640392896894 0.450876196659 0.141820966797 0.191877709331 0.18435463746 0.287111147783 0.360712166174 0.431598759192 0.503527841342 0.505005561735 0.51335187031 0.640733712841 0.841081609383 1.0 1.0 0.646749605747 0.465758336321 0.291965764771 0.253391209983 0.274274661509 0.292375551354 0.380421227656 0.522476050111 0.225625347416 0.063549262335 0.47035287107 36
0.100268544056 0.472618854453 0.179754020814 0.155335006463 0.143317620962 0.22402838518 0.282453016815 0.389599525983 0.57033435037 0.666051710572 0.665783537066 0.635646123808 0.605929304447 0.739748188787 0.738527046207 0.560539688103 0.461634994622 0.375759249034 0.426370048832 0.538974854933 0.612870195335 0.624497713728 0.569772894756 0.0 0.30990334068 0.414689481975 26
0.410896598444 0.466615284765 0.347704644771 0.408814358507 0.383370303619 0.461341694859 0.380257171117 0.281795685057 0.239098652428 0.192110475054 0.15736320235 0.140032450568 0.125329858283 0.206794682422 0.3256584135 0.325039425268 0.26801721047 0.23067366096 0.222354856212 0.283752417795 0.365784499054 0.569627268947 0.777450257922 0.356031128404 0.574105477361 0.578338228411 15
0.249794358157 0.681770241766 0.319908095687 0.182371282987 0.144669347012 0.213218912452 0.220098911968 0.192499390052 0.167143401983 0.133807211264 0.113477781858 0.102026785469 0.0893956670467 0.14145037631 0.196025863428 0.200981251095 0.1554320545 0.134456101601 0.115680954964 0.126112185686 0.148471959672 0.195510599972 0.372613385141 0.6554196776 0.356622011192 0.846550036182 13
0.240927565686 0.592122343015 0.573726179213 0.629249372575 0.542284763621 0.593448304316 0.482334322454 0.375797288347 0.341374269007 0.292628665998 0.263338754524 0.217143800016 0.172177879134 0.213687838503 0.34363665037 0.350271596286 0.367873789889 0.320679182772 0.328811720021 0.39419729207 0.435097668556 0.529305805737 0.663093722786 0.350639244026 0.46235373919 0.460549951048 6
0.320438380028 0.0940694466971 0.271388025409 0.469883641341 0.463191459863 0.442156943641 0.299980217606 0.206510752501 0.162185354691 0.130822865515 0.123340853051 0.138354921211 0.14842808275 0.278539776324 0.51111812017 0.487821973016 0.464682681965 0.356847045831 0.309820944112 0.322630560929 0.344596723377 0.499445753083 0.888926107056 0.547526403557 0.153043920638 0.681305069596 14
0.169473073016 0.384877494726 0.408568725503 0.461403909042 0.508318314155 0.734631570262 0.727082096934 0.606915060471 0.499364352912 0.400770503812 0.384633544934 0.330363281358 0.251474181462 0.342266300907 0.619302949061 0.631154722271 0.664933667982 0.571783545002 0.503526858381 0.544584139265 0.543557025834 0.57253706526 0.612246265159 0.311728738187 0.325462099372 0.352313455072 2
0.261310301448 0.695440532209 0.505473712665 0.374591223668 0.30711909053 0.372638006436 0.407912957467 0.433724861455 0.451404780067 0.407227542799 0.35598866796 0.307097874213 0.262778954227 0.299430259548 0.408137517742 0.359207990187 0.355683040516 0.313224737714 0.317200217036 0.408994197292 0.523471959671 0.694194263545 0.734038989754 0.214508060036 0.605053416992 0.426433405695 1
0.431001112887 0.71462761642 0.352074604677 0.364058103278 0.382503812561 0.542412740326 0.62646884273 0.671220940364 0.56489956776 0.312352478364 0.157389433923 0.102384291725 0.0806971819514 0.173524653584 0.230720706513 0.296302786052 0.221943348871 0.156957482054 0.142376559956 0.15667311412 0.162964713295 0.296314258001 0.559054063111 0.612840466927 0.353400033916 0.478180734686 11
0.771870614994 0.620639299043 0.413254043338 0.22397140467 0.0855399972274 0.0487251423384 0.0257171117705 0.0119898225924 0.0092168827867 0.00683686480915 0.00765961911757 0.0105876852845 0.018244013683 0.0360835619328 0.0700205014981 0.08025232171 0.0629257798494 0.0549420209825 0.0417797069993 0.0423597678915 0.0377284183993 0.0484966052377 0.0945266965903 0.910561423014 0.492157028998 0.828144553696 22
0.395763778006 0.663029368814 0.660044150111 0.575709179406 0.42159988909 0.42672662761 0.318931750743 0.242654490955 0.209413933384 0.172630836431 0.144431037196 0.126474713308 0.0935983059132 0.126116620947 0.227093518372 0.230068337129 0.238795267121 0.155577029266 0.184481823114 0.207736943907 0.27654379332 0.449424968822 0.7265358076 0.600944969429 0.617093437342 0.550551228028 9
0.25373784294 0.513589161123 0.0801009145393 0.167921514943 0.261749618745 0.428335671259 0.341048466864 0.239203931546 0.173499872871 0.111587400635 0.0843082734379 0.0724087671535 0.0642449910408 0.106421889287 0.169058508121 0.175573856668 0.14861957691 0.0922142462728 0.127509495388 0.130657640232 0.14224952741 0.198836081474 0.368593823274 0.495386325736 0.240037307106 0.875648065383 27
0.333236560702 0.573827681325 0.640131549309 0.656095520572 0.577706918064 0.585238055946 0.434302670622 0.306925516711 0.247743452835 0.204047858054 0.164812968889 0.114429502516 0.0755171852092 0.110501512274 0.206749724018 0.257928859295 0.280925062746 0.262976256212 0.243841562669 0.257930367505 0.286310649023 0.396494388247 0.528036444029 0.564591439691 0.328260132269 0.548955007874 34
0.330430154354 0.736086321596 0.290039194484 0.188721575785 0.141861915985 0.195354402178 0.194737883284 0.163465895228 0.147311212815 0.121028785371 0.105608310162 0.0810714187499 0.0660042352174 0.0946050502922 0.134994480366 0.146311547223 0.114198637505 0.101187189398 0.109495387954 0.127079303675 0.155245746691 0.238949702092 0.312319957124 0.707559755422 0.409191114124 0.834827395395 20
0.307628102774 0.904429660879 0.2019642294 0.187390676097 0.174788576182 0.224688505652 0.195014836795 0.169460806525 0.149059242309 0.12322634906 0.106001783747 0.116079531392 0.112884834664 0.158120559893 0.270146664563 0.232171018048 0.208676945141 0.145637769189 0.126641345632 0.123210831722 0.127520478891 0.178398226409 0.402827091847 0.735742078935 0.385323045617 0.799650959861 12
0.213178013259 0.623965601168 0.48317340181 0.413681648794 0.323963676696 0.324820529746 0.257131552918 0.18992018403 0.150902618866 0.126319216474 0.120612769529 0.120012100212 0.118553510344 0.170078075543 0.255164800505 0.238829507623 0.237181785586 0.207344008834 0.181985892566 0.196808510638 0.22479521109 0.297076347512 0.466403162056 0.49316286826 0.316347295233 0.768573617673 18
0.384054289449 0.641448969657 0.414830832996 0.335766978477 0.237973104118 0.258725967489 0.215351137488 0.163744728312 0.131197559115 0.109037141539 0.10038822727 0.1013942744 0.0956507574523 0.140113948091 0.211796246649 0.209391974768 0.188956615274 0.157785753727 0.159196961475 0.20744680851 0.275992438563 0.417902175418 0.554096603473 0.513285158422 0.619043581481 0.720469927214 19
0.265677166499 0.397939315269 0.493805469209 0.507795269603 0.520899764313 0.717839755755 0.730207715135 0.612700846955 0.523455377574 0.402588241677 0.310345732123 0.224486428512 0.181918879296 0.281142294436 0.495190033117 0.50551953741 0.48906418071 0.359607951408 0.329245794899 0.33752417795 0.389650283553 0.473950394902 0.561599785622 0.440744858257 0.52814990673 0.361137360067 29
0.347704069291 0.691546324842 0.508762445376 0.586166248385 0.554623596285 0.615191022363 0.477507418397 0.330033808512 0.270404271549 0.209799506226 0.167934525995 0.139234936611 0.109887603844 0.158050221566 0.198864532408 0.177676537586 0.133918967372 0.147294312535 0.143895822028 0.185686653772 0.249527410208 0.403076070389 0.628860454213 0.543468593664 0.557105307785 0.518511897161 37
0.88513088499 0.30435664449 0.584132990943 0.493687732908 0.284728961598 0.204059740903 0.134638971316 0.0844515701786 0.0617848970251 0.0382538864321 0.0256807093018 0.0241179220636 0.0363251343867 0.0878525708661 0.154234347894 0.179954441914 0.179992828971 0.127001656543 0.111991318502 0.123984526112 0.142013232514 0.194956353055 0.357874991629 0.818843802113 0.508606070883 0.649563699825 16
0.356111191757 0.603804965115 0.756543677072 0.712639744468 0.576389851656 0.604959155047 0.510781404551 0.397023456834 0.322749809306 0.252068694213 0.219532028749 0.186480763413 0.159276755172 0.205317577548 0.293171424065 0.300332924478 0.304230907135 0.231778023192 0.226370048832 0.252127659575 0.301039697542 0.439864209504 0.577343069605 0.529238465817 0.434034254706 0.428514876773 7
0.230572893986 0.828695440534 0.399693652294 0.20849494258 0.164702620269 0.259097285255 0.305479723047 0.364399986058 0.438660055936 0.425350660625 0.367320707203 0.292027610482 0.238116957159 0.343040022508 0.47610786942 0.429647800947 0.368590892793 0.304665930426 0.32902875746 0.419342359768 0.471723377441 0.528682277955 0.498894620489 0.282545858809 0.598906223504 0.519290852594 30
0.20030725311 0.597963654064 0.631932243095 0.545706897862 0.404616664355 0.432626454329 0.359010880317 0.279948415879 0.245232646834 0.203125423913 0.189969046745 0.189698319721 0.189640006516 0.282197369347 0.425484939283 0.361135447696 0.344209394048 0.247377139701 0.270211611502 0.316827852998 0.385239445494 0.492725509212 0.578749916261 0.513285158422 0.295658809564 0.593836461925 8
0.282309962744 0.469617069611 0.505248456999 0.423264126548 0.322715929572 0.351885469097 0.304925816023 0.240807221777 0.208714721587 0.176184920915 0.176669639578 0.171933008828 0.172699136667 0.287402405571 0.566945276769 0.566322060627 0.558085335245 0.444091662066 0.394248507866 0.403288201161 0.42793005671 0.512470555634 0.778053192202 0.546192329073 0.309013057487 0.600374579662 23
0.100970145643 0.424225214994 0.26399963959 0.330747585367 0.365035352836 0.53053057183 0.549159248269 0.525983757972 0.520436053903 0.460810114219 0.42686637637 0.371999009983 0.312396155726 0.428571428571 0.497713294433 0.354301734712 0.294729293653 0.180563224737 0.191427021161 0.193520309478 0.208648393194 0.252667313288 0.404836872784 0.489994441358 0.120357809054 0.54595837058 3
0.858445831522 0.671345124128 0.59444970041 0.430336907749 0.232150284209 0.135159666639 0.0475173095944 0.0210518978077 0.0138888888889 0.00621286524323 0.0056397880489 0.00668261694581 0.0091220068415 0.0293310825067 0.0433685538558 0.0720168214478 0.0466116887773 0.0470734400887 0.0353771025501 0.0512572533848 0.0755356017641 0.15893030345 0.355664232597 0.891328515844 0.659911819568 0.684386838634 5
0.609558716798 0.746998215156 0.400324368158 0.258802950796 0.142139193124 0.126289297797 0.0926607319485 0.0630162768812 0.0467836257311 0.0332076290729 0.029300666282 0.0300580260156 0.0360970842156 0.0808187381302 0.131367292225 0.170141930962 0.137863033346 0.116648260629 0.0984264785671 0.132108317215 0.163673597983 0.255577109602 0.491726401825 0.78021122846 0.668348312701 0.75403311625 33
0.764503798329 0.149196819732 0.378519619769 0.480530838847 0.399140440871 0.408367026982 0.337329376854 0.244571468404 0.171974319858 0.0924875878347 0.0495252085409 0.0361081318923 0.0349242547647 0.083702609552 0.132313515218 0.151918696338 0.13858013625 0.110298177802 0.0984264785671 0.095647969052 0.108695652173 0.124428432867 0.263013331548 0.688715953306 0.384093606917 0.663320989231 21
0.270019838391 0.442844393964 0.301707437941 0.311658681268 0.308089560517 0.396319828369 0.355924826905 0.276463002335 0.220569539792 0.166716405762 0.132023503489 0.10532684322 0.0897866101972 0.130407258916 0.199495347737 0.21902926231 0.196665471495 0.186499171729 0.167444384155 0.193230174081 0.226843100189 0.304627961756 0.445769411135 0.541467481935 0.417924368322 0.751585578683 28
0.364820728699 0.682703228948 0.552281839888 0.499619742946 0.420040205185 0.48688010562 0.409653808112 0.307796870098 0.263698194762 0.207601942538 0.161140548764 0.13024227924 0.107346473367 0.157768868256 0.213846396467 0.259681093395 0.253316600932 0.232606294865 0.211394465544 0.248065764023 0.314902331442 0.491201330191 0.666041401487 0.505447470817 0.547863320331 0.542135955393 31
0.215730391446 0.544783384717 0.352975627338 0.379192334019 0.390163593512 0.543815496329 0.558219584571 0.51200724966 0.459954233409 0.358311402914 0.296338072504 0.230509033907 0.174425802248 0.223324189351 0.325816117331 0.28719116874 0.294012190749 0.28119823302 0.271947911014 0.293810444875 0.330576559546 0.37882776777 0.478930796543 0.530906058922 0.278997795489 0.530583578088 24
0.71748439542 0.548880415381 0.714871379016 0.574758536771 0.369645085262 0.282572819539 0.152245301682 0.0905858980167 0.0683956267482 0.049350226539 0.0295629820052 0.0212028710503 0.0257370907315 0.060139269888 0.105819271409 0.146136323813 0.113302258874 0.114853672004 0.130222463375 0.170793036751 0.236373660995 0.389219897463 0.608360688687 0.835130628129 0.712523316939 0.58719192951 4
0.432827696329 0.65382119098 0.478803441907 0.43862651152 0.341813392486 0.325150589981 0.252502472799 0.193823847199 0.165363590135 0.129222170976 0.0989192592203 0.0813464235625 0.070858446001 0.0846170078078 0.125847658098 0.11494655686 0.0907135173897 0.0825510767537 0.0563212154095 0.0768858800772 0.113106490233 0.214147152556 0.401889194077 0.558754863815 0.399143632353 0.728008342911 25
0.617264237677 0.679620314783 0.391809704015 0.431401627501 0.428878413976 0.5667134252 0.544015825914 0.467045414939 0.306350114416 0.139857294012 0.0628508472798 0.0374006545116 0.030819351686 0.092283885489 0.156284497713 0.243560539689 0.14126927214 0.116372170072 0.07281606077 0.0895551257258 0.0957781978574 0.140224470001 0.35191264152 0.749193996665 0.358614549771 0.556701996341 10
0.210057095854 0.725945156579 0.145920619903 0.161000836566 0.174338000832 0.259922435844 0.258358061326 0.249102506012 0.254227053141 0.224856887055 0.203714390641 0.20388856805 0.202215344519 0.26721530562 0.423592493297 0.371298405467 0.322875582646 0.207620099392 0.181768855127 0.177369439071 0.19722747322 0.237771927393 0.296308702351 0.54769316287 0.200313718838 0.778729834419 32
0.628768084389 0.354697387638 0.562193089157 0.684690851015 0.654339387217 0.758230877136 0.654045499507 0.48997943606 0.379322400204 0.268672508749 0.202665127748 0.163765365894 0.140250855188 0.32995709362 0.563002680964 0.604695987384 0.341520258157 0.204030922143 0.184698860553 0.248065764023 0.372085696282 0.647776084245 0.908420982116 0.55486381323 0.657028997796 0.24417060401 35
0.0942686408294 0.526813240305 0.175564265443 0.221385656703 0.179225010398 0.241191517452 0.261800197824 0.330138370917 0.426074243581 0.416614666704 0.404884318765 0.445397794461 0.504544714123 0.68277414363 0.748620091467 0.568424741545 0.403908210828 0.273329652126 0.260444926749 0.295551257254 0.321833648393 0.377857835665 0.484156226971 0.273985547525 0.114592165507 0.610590388628 36
0.290729181789 0.494158688952 0.644681713743 0.684082439728 0.619333148481 0.74123277498 0.663224530169 0.54658255202 0.476703534197 0.378306519439 0.314910025707 0.253554437203 0.188434598469 0.243440950974 0.373284970825 0.393727001928 0.486016493367 0.467007178354 0.498426478566 0.560735009671 0.635318210462 0.716364140221 0.688952904135 0.434963868816 0.44560793624 0.274051845232 17
0.262592538832 0.696211260751 0.411902509349 0.299946764012 0.263239983363 0.358156613581 0.337408506428 0.269840716601 0.231502669718 0.183917089449 0.163448927129 0.130957291753 0.0981267307379 0.126046282619 0.184040372181 0.218328368671 0.176048762997 0.167586968525 0.170265870862 0.193810444874 0.240390674228 0.334626576139 0.498090708113 0.548860478042 0.363193149057 0.717102966841 13
0.125562490928 0.57102871978 0.0937514078482 0.124762339341 0.159642312491 0.273372390461 0.348763600396 0.425185598272 0.549866514111 0.582245855829 0.539871989928 0.477353353684 0.423912689364 0.562917633817 0.613310203438 0.45996145085 0.359447830763 0.249447818884 0.258600108518 0.298065764023 0.346014492753 0.412290425382 0.440543980707 0.366981656476 0.335763947769 0.518039415996 26
0.382772052066 0.480245010546 0.289003018427 0.355996653738 0.339976431444 0.365211651128 0.296458951533 0.242061970653 0.212592168828 0.182886133645 0.174230103352 0.190165827902 0.197067926373 0.320039389463 0.547074593913 0.503241633082 0.368232341341 0.263390392049 0.202930005425 0.243520309478 0.302063642091 0.455798808368 0.696724057079 0.412395775431 0.426191283704 0.62059336824 15
0.359425654426 0.670493266268 0.567914583052 0.535173777473 0.45171911826 0.530365541713 0.434223541048 0.335331637097 0.292016272565 0.240918093274 0.215754682336 0.193548387097 0.150643427268 0.207427727369 0.344582873364 0.366216926581 0.331660093224 0.241993373826 0.22083559414 0.23500967118 0.279379332073 0.451226271305 0.668252160513 0.525236242358 0.48579786332 0.49002255991 9
