740 26
0.0582262674967 0.0377057393392 0.0207176208496 0.0144157409668 0.0116411844889 0.0101076761882 0.0092519124349 0.00863901774089 0.00813547770182 0.00731531778971 0.00659815470378 0.00621287027995 0.00556945800781 0.00457636515299 0.0025520324707 0.00263341267904 0.00161997477214 0.00221761067708 0.00202306111654 0.00289154052734 0.00384902954102 0.00733820597331 0.0156440734863 0.0380388895671 0.0477040608724 0.664375305176 13
0.0688718159993 0.0280494689941 0.0332260131836 0.0327555338542 0.0277353922526 0.0232823689779 0.0193557739258 0.0164591471354 0.0154736836751 0.0150616963704 0.0126457214355 0.00990549723307 0.00687154134115 0.00420888264974 0.00201543172201 0.00227610270182 0.00146102905273 0.0024159749349 0.00231297810872 0.00377527872721 0.0061403910319 0.0114390055339 0.0204315185547 0.037893931071 0.0552711486816 0.540664672852 01
0.103340148926 0.0391375223796 0.0298334757487 0.022959391276 0.0157890319824 0.0101992289225 0.00619633992513 0.00399653116862 0.00311660766602 0.00253295898438 0.00166447957357 0.00111516316732 0.00106430053711 0.00192642211914 0.000991821289062 0.00198237101237 0.00132624308268 0.00224177042643 0.00231806437174 0.00325012207031 0.00445938110352 0.00792566935221 0.0153388977051 0.0412470499674 0.0546875 0.621359507243 04
0.10395304362 0.0396614074707 0.0204531351725 0.0133425394694 0.00803629557292 0.00510025024414 0.00332895914714 0.00211588541667 0.00147755940755 0.0010617574056 0.000754038492839 0.00064214070638 0.000691731770833 0.00141016642253 0.000453948974609 0.00123596191406 0.000433603922526 0.00108464558919 0.000550587972005 0.00104141235352 0.00125885009766 0.0031369527181 0.00882848103841 0.0456797281901 0.0524698893229 0.681797027588 22
0.0540555318197 0.0405858357747 0.0145632425944 0.0106112162272 0.00955963134766 0.0102335611979 0.0125516255697 0.0176378885905 0.0220171610514 0.0207049051921 0.0140012105306 0.00858815511068 0.00461451212565 0.00385157267253 0.00210189819336 0.00255330403646 0.0018424987793 0.00241216023763 0.00214004516602 0.00282669067383 0.00403086344401 0.00717290242513 0.011656443278 0.0387242635091 0.0446840922038 0.636278788249 11
0.0559781392415 0.0406901041667 0.0246760050456 0.0197283426921 0.0160497029622 0.012690226237 0.00858942667643 0.00638580322266 0.00545374552409 0.00563939412435 0.00569279988607 0.00507100423177 0.00436401367188 0.00363922119141 0.00188700358073 0.00220998128255 0.00128682454427 0.0019900004069 0.00170262654622 0.00262069702148 0.00389226277669 0.00755564371745 0.0153554280599 0.039426167806 0.0518506368001 0.655574798584 02
0.0513483683268 0.0278561909993 0.023567199707 0.0207697550456 0.0163853963216 0.0132942199707 0.0118459065755 0.0121561686198 0.0122197469076 0.0122947692871 0.0120849609375 0.0123087565104 0.0119984944661 0.0100708007812 0.00683466593424 0.00577545166016 0.00463358561198 0.00505447387695 0.00496292114258 0.00639343261719 0.00821685791016 0.0141805013021 0.0239194234212 0.0334726969401 0.0442949930827 0.594060262044 14
0.0741793314616 0.0333379109701 0.0274899800618 0.028258005778 0.028569539388 0.0262769063314 0.0195579528809 0.0133730570475 0.0120404561361 0.0124206542969 0.00886408487956 0.00454457600911 0.00228500366211 0.00243631998698 0.00141398111979 0.00245412190755 0.00191879272461 0.00276947021484 0.00269190470378 0.00378036499023 0.00547536214193 0.00961685180664 0.0178031921387 0.0383656819661 0.0503234863281 0.569753011068 34
0.0497131347656 0.0359802246094 0.023494720459 0.0180346171061 0.0153007507324 0.012929280599 0.0107765197754 0.00989278157552 0.00939687093099 0.0104573567708 0.012196858724 0.0114771525065 0.00765101114909 0.00562413533529 0.00356165568034 0.00303268432617 0.00218327840169 0.00244394938151 0.00243504842122 0.00348154703776 0.00445175170898 0.00784556070964 0.0171839396159 0.0365867614746 0.0434214274089 0.640446980794 03
0.0923856099447 0.042236328125 0.0213165283203 0.0133972167969 0.00810114542643 0.00487263997396 0.00335820515951 0.00219599405924 0.0016835530599 0.0012575785319 0.00103251139323 0.00101089477539 0.00127538045247 0.00199381510417 0.00104395548503 0.00166702270508 0.000940958658854 0.00146865844727 0.00114949544271 0.001953125 0.00298436482747 0.00683212280273 0.0156720479329 0.0436096191406 0.0568148295085 0.669746398926 33
0.0603192647298 0.0335680643717 0.0320790608724 0.0270449320475 0.0222943623861 0.0197601318359 0.0175641377767 0.0159187316895 0.0152346293132 0.0141105651855 0.0124702453613 0.0105514526367 0.00821177164714 0.00683339436849 0.00424194335938 0.0044911702474 0.0035514831543 0.00439453125 0.00452041625977 0.00632476806641 0.00905100504557 0.0145072937012 0.0208778381348 0.032096862793 0.0485610961914 0.551420847575 07
0.0514551798503 0.0328432718913 0.0226618448893 0.0188433329264 0.0177129109701 0.0184911092122 0.0189259847005 0.0184555053711 0.0165417989095 0.0153872172038 0.0131238301595 0.00913111368815 0.00590642293294 0.0047976175944 0.00248336791992 0.00261052449544 0.00174077351888 0.00237274169922 0.00230662027995 0.00338745117188 0.00494384765625 0.00866572062174 0.0150273640951 0.036008199056 0.0505638122559 0.60561243693 29
0.0523770650228 0.0345102945964 0.0302187601725 0.0255304972331 0.0186703999837 0.0141881306966 0.0115445454915 0.0100339253743 0.00956090291341 0.00918324788411 0.00849914550781 0.0081418355306 0.00657399495443 0.00490188598633 0.00281778971354 0.00283940633138 0.00219980875651 0.00312805175781 0.00344848632812 0.00505956013997 0.00740559895833 0.0123697916667 0.0200564066569 0.0352020263672 0.0494397481283 0.612098693848 08
0.0537083943685 0.0375556945801 0.0205497741699 0.0184338887533 0.0171089172363 0.0163129170736 0.0140469868978 0.0117403666178 0.0107294718424 0.0099245707194 0.00799306233724 0.00660832722982 0.00442886352539 0.00347773234049 0.00182469685872 0.0021006266276 0.00128428141276 0.00209172566732 0.00166193644206 0.00262832641602 0.00350952148438 0.00706990559896 0.013178507487 0.0383555094401 0.0472145080566 0.646461486816 37
0.054433186849 0.0358746846517 0.0260251363118 0.0248565673828 0.0216484069824 0.0190671284993 0.0152473449707 0.0133018493652 0.0125745137533 0.0126927693685 0.0112495422363 0.00832239786784 0.00521341959635 0.00428263346354 0.00246810913086 0.00283432006836 0.00208028157552 0.0030886332194 0.00277709960938 0.00414657592773 0.00591659545898 0.00989278157552 0.0183296203613 0.0346857706706 0.0484708150228 0.600519816081 06
0.0942878723145 0.0392354329427 0.029483795166 0.0167427062988 0.00897471110026 0.00459289550781 0.00265757242839 0.00176111857096 0.00146357218424 0.00145975748698 0.00135040283203 0.00145721435547 0.0016352335612 0.00252787272135 0.00167846679688 0.0023930867513 0.0019645690918 0.00259017944336 0.00245539347331 0.00374857584635 0.00559488932292 0.0105260213216 0.0194931030273 0.0407231648763 0.0617891947428 0.639413197835 12
0.046391805013 0.0351816813151 0.0177218119303 0.0118535359701 0.0111757914225 0.0127792358398 0.0150133768717 0.0185763041178 0.0223821004232 0.0245310465495 0.0225969950358 0.0186475118001 0.0130729675293 0.00840632120768 0.00420633951823 0.00355911254883 0.00238291422526 0.00289154052734 0.00316619873047 0.00485992431641 0.00674184163411 0.0091183980306 0.0144030253092 0.0312538146973 0.0506324768066 0.58845392863 30
0.0615488688151 0.0381800333659 0.0183601379395 0.0122273763021 0.00915273030599 0.00719579060872 0.00671895345052 0.00687408447266 0.00695673624674 0.00688934326172 0.00590642293294 0.00514475504557 0.00364812215169 0.00321578979492 0.00156656901042 0.00189336140951 0.00110880533854 0.00182978312174 0.00155131022135 0.00223922729492 0.00313949584961 0.00649770100911 0.0144869486491 0.0386085510254 0.0537605285645 0.681298573812 31
0.0980402628581 0.0449816385905 0.0280927022298 0.0196520487467 0.0117352803548 0.00555547078451 0.00249354044596 0.0014279683431 0.00104268391927 0.000797271728516 0.000470479329427 0.000329335530599 0.000314076741536 0.00119018554688 0.00024159749349 0.000895182291667 0.000279744466146 0.000817616780599 0.000436147054036 0.000984191894531 0.00144449869792 0.00382995605469 0.0108757019043 0.0450185139974 0.0550422668457 0.66401163737 05
0.105074564616 0.0209935506185 0.025016784668 0.024969736735 0.022336324056 0.0187772115072 0.0151685078939 0.011833190918 0.00857671101888 0.00578435262044 0.00351842244466 0.00234095255534 0.00194676717122 0.00276311238607 0.00154113769531 0.0026003519694 0.00174967447917 0.00243377685547 0.00244776407878 0.00346120198568 0.00523249308268 0.0100161234538 0.0199750264486 0.0394719441732 0.054754892985 0.587215423584 21
0.0789934794108 0.0341936747233 0.0355033874512 0.0293464660645 0.022341410319 0.0152282714844 0.00995763142904 0.00728352864583 0.00692876180013 0.0079828898112 0.00729497273763 0.00610733032227 0.00490570068359 0.00502522786458 0.00334930419922 0.00414784749349 0.00318781534831 0.00397364298503 0.00413640340169 0.00597890218099 0.00890350341797 0.0159721374512 0.0253245035807 0.0344950358073 0.0605138142904 0.558924357096 09
0.0720558166504 0.0346666971842 0.0332946777344 0.0277913411458 0.0210545857747 0.0173276265462 0.0151824951172 0.0133514404297 0.0129381815592 0.0134607950846 0.0126063028971 0.00912094116211 0.00547536214193 0.00401433308919 0.00171788533529 0.00195821126302 0.00100326538086 0.00211588541667 0.00164922078451 0.0031255086263 0.00478871663411 0.0101051330566 0.0194435119629 0.0364227294922 0.0565198262533 0.568809509277 25
0.0573616027832 0.0297609965007 0.0338300069173 0.0322659810384 0.0274518330892 0.0248069763184 0.0235112508138 0.0231857299805 0.0227839152018 0.0212860107422 0.0183601379395 0.0153007507324 0.011163075765 0.00647099812826 0.00325139363607 0.00302886962891 0.00239562988281 0.00366846720378 0.00461196899414 0.00699869791667 0.0100797017415 0.0151863098145 0.0204035441081 0.0337422688802 0.0493558247884 0.499738057454 17
0.0732701619466 0.0410944620768 0.0215174357096 0.0123240152995 0.00685755411784 0.00468190511068 0.00404230753581 0.00391006469727 0.00362904866536 0.00341288248698 0.00274276733398 0.00222142537435 0.00180943806966 0.00187428792318 0.000802357991536 0.00118764241536 0.000689188639323 0.0014394124349 0.000932057698568 0.00170644124349 0.0022939046224 0.00478363037109 0.0110664367676 0.0419832865397 0.0510889689128 0.698638916016 20
0.0570284525553 0.034366607666 0.0206298828125 0.0168215433757 0.0160013834635 0.0160942077637 0.0167477925618 0.0176378885905 0.0171343485514 0.0152219136556 0.0113004048665 0.00751495361328 0.00483957926432 0.00387318929036 0.00186030069987 0.00226465861003 0.00144577026367 0.00202941894531 0.00183232625326 0.0025634765625 0.00366719563802 0.00699996948242 0.0140724182129 0.038210550944 0.0485369364421 0.621304829915 24
0.0621350606283 0.028689066569 0.0248692830404 0.0222524007161 0.0192108154297 0.0157101949056 0.0125325520833 0.0102945963542 0.00875981648763 0.00694402058919 0.0059331258138 0.00500106811523 0.00377909342448 0.00354639689128 0.00213750203451 0.00268809000651 0.00202814737956 0.0028190612793 0.00293350219727 0.00417455037435 0.00615310668945 0.0113474527995 0.0199216206868 0.034236907959 0.0529149373372 0.628987630208 28
0.0608762105306 0.0390752156576 0.0180180867513 0.0122578938802 0.0103759765625 0.00954310099284 0.00865681966146 0.0083376566569 0.00845082600911 0.00885136922201 0.00898234049479 0.0107765197754 0.00994364420573 0.00747044881185 0.00445556640625 0.00395584106445 0.00259399414062 0.00288391113281 0.00272496541341 0.0038693745931 0.00581868489583 0.0107981363932 0.0194346110026 0.0325355529785 0.0519930521647 0.637320200602 32
0.0612309773763 0.0347938537598 0.017079671224 0.0131670633952 0.00957234700521 0.00790150960286 0.00717290242513 0.00709788004557 0.00695673624674 0.00621922810872 0.00535074869792 0.00458780924479 0.00382614135742 0.00323740641276 0.00161488850911 0.0021235148112 0.00163396199544 0.00243377685547 0.00212605794271 0.00307464599609 0.00383758544922 0.00697326660156 0.0138168334961 0.0378761291504 0.0487060546875 0.687589009603 19
0.108762105306 0.0356941223145 0.0273208618164 0.0209630330404 0.0155270894368 0.0104001363118 0.00643920898438 0.00386555989583 0.0027224222819 0.0018424987793 0.000985463460286 0.000787099202474 0.000916798909505 0.00166320800781 0.000910441080729 0.00161488850911 0.00104268391927 0.00192133585612 0.0018056233724 0.00257619222005 0.00364430745443 0.00662485758464 0.0134455362956 0.0433019002279 0.0533879597982 0.631834665934 04
0.070810953776 0.0428771972656 0.0184898376465 0.0142110188802 0.0130259195964 0.0141614278158 0.0152943929036 0.0179252624512 0.0178082784017 0.0127321879069 0.00695673624674 0.00396474202474 0.00264358520508 0.00296401977539 0.00152842203776 0.00223286946615 0.00146738688151 0.00196584065755 0.00158945719401 0.0022226969401 0.00337346394857 0.00711313883464 0.0126965840658 0.0409609476725 0.0500691731771 0.620914459229 11
0.0584475199382 0.0334167480469 0.026128133138 0.0232378641764 0.0196406046549 0.0161844889323 0.0128224690755 0.0104242960612 0.00884501139323 0.00874964396159 0.00861485799154 0.00805918375651 0.00650914510091 0.00502649943034 0.00305557250977 0.00318272908529 0.0023078918457 0.00297546386719 0.00299199422201 0.0043690999349 0.00598780314128 0.0108311971029 0.0194625854492 0.0375048319499 0.0511093139648 0.61011505127 23
0.0395711263021 0.0326830546061 0.0106480916341 0.00731150309245 0.00718434651693 0.0077018737793 0.00961685180664 0.014035542806 0.0212224324544 0.0284601847331 0.0296961466471 0.0276209513346 0.0225575764974 0.0120226542155 0.00526682535807 0.00405248006185 0.00287119547526 0.00324503580729 0.0030403137207 0.00388717651367 0.00519816080729 0.00813420613607 0.0138473510742 0.0327885945638 0.0408515930176 0.606484731038 26
0.0409749348958 0.0318196614583 0.0155270894368 0.0128504435221 0.0109710693359 0.0101483662923 0.0113766988118 0.0164705912272 0.022710164388 0.0246785481771 0.0224189758301 0.0222918192546 0.0209108988444 0.0136019388835 0.00647608439128 0.00477091471354 0.00345102945964 0.00354131062826 0.00318908691406 0.00435256958008 0.00555419921875 0.00900395711263 0.0158513387044 0.0303064982096 0.0405883789062 0.596163431803 36
0.0589714050293 0.0383504231771 0.0208180745443 0.0133361816406 0.0103302001953 0.00883992513021 0.00802993774414 0.00769170125326 0.00725809733073 0.00665156046549 0.00610605875651 0.0052744547526 0.0042839050293 0.00357309977214 0.00194931030273 0.00229517618815 0.00132878621419 0.0020268758138 0.00177510579427 0.00267791748047 0.00366846720378 0.00755310058594 0.0168215433757 0.0387318929036 0.0491803487142 0.672476450602 13
0.0963808695475 0.0232683817546 0.025323232015 0.0285708109538 0.0283215840658 0.0264485677083 0.0247141520182 0.0219573974609 0.0187619527181 0.0137685139974 0.00890096028646 0.00653330485026 0.00495402018229 0.00552876790365 0.00400670369466 0.00435002644857 0.00255076090495 0.00270207722982 0.00259780883789 0.00409062703451 0.0067507425944 0.0135434468587 0.0237820943197 0.0370610555013 0.0556971232096 0.509435017904 35
0.0483843485514 0.0406723022461 0.0127334594727 0.00741577148438 0.0068359375 0.00779342651367 0.00925318400065 0.011708577474 0.0141626993815 0.0164362589518 0.0169855753581 0.0154889424642 0.0129216512044 0.00948588053385 0.00562922159831 0.00456364949544 0.00315475463867 0.00323486328125 0.00327555338542 0.00444539388021 0.00599543253581 0.00900522867839 0.0139872233073 0.0314572652181 0.047602335612 0.637371063232 27
0.0470377604167 0.03400293986 0.0174522399902 0.0137201944987 0.0120277404785 0.0119031270345 0.0116182963053 0.0108362833659 0.00986735026042 0.00846735636393 0.00688298543294 0.0059560139974 0.00409062703451 0.00334548950195 0.00177129109701 0.0020497639974 0.00136057535807 0.00185775756836 0.00139999389648 0.00213623046875 0.00241343180339 0.0046501159668 0.0102653503418 0.0374399820964 0.0436312357585 0.693815867106 18
0.108064015706 0.0205510457357 0.0190900166829 0.0206718444824 0.022268931071 0.0245272318522 0.0263468424479 0.0264803568522 0.0221163431803 0.0155448913574 0.00990549723307 0.00627009073893 0.00594202677409 0.00770950317383 0.00689061482747 0.00802739461263 0.00413386027018 0.00391642252604 0.00286229451497 0.00429662068685 0.00622049967448 0.0121065775553 0.0219383239746 0.0342152913411 0.059196472168 0.50070699056 10
0.0667877197266 0.0299275716146 0.0181795756022 0.0156440734863 0.0149459838867 0.0144742329915 0.0128580729167 0.0114962259928 0.0106569925944 0.0100377400716 0.00857671101888 0.00800704956055 0.00675201416016 0.00561141967773 0.00325520833333 0.00354639689128 0.00217310587565 0.00267028808594 0.00208536783854 0.00306701660156 0.00463612874349 0.00879287719727 0.0168736775716 0.0355745951335 0.0489120483398 0.634457906087 15
0.0972124735514 0.033805847168 0.0180587768555 0.0108642578125 0.00533930460612 0.00259145100911 0.00133641560872 0.000778198242188 0.000511169433594 0.000414530436198 0.000414530436198 0.000443776448568 0.000528971354167 0.00113677978516 0.000399271647135 0.000891367594401 0.000461578369141 0.00103759765625 0.000590006510417 0.00107574462891 0.00136057535807 0.00289916992188 0.00841395060221 0.0453567504883 0.0531323750814 0.710945129395 22
0.0852355957031 0.0424563090007 0.0246162414551 0.0204175313314 0.0191383361816 0.018679300944 0.0177917480469 0.016653696696 0.0135205586751 0.00883229573568 0.00469589233398 0.00243886311849 0.0013682047526 0.00158055623372 0.000656127929688 0.00135167439779 0.00107574462891 0.00193786621094 0.00196965535482 0.00304412841797 0.00415674845378 0.00929005940755 0.0184364318848 0.0402501424154 0.0571250915527 0.583281199137 16
0.0695381164551 0.0240948994954 0.0288111368815 0.032236735026 0.0300547281901 0.0264574686686 0.0222727457682 0.0185305277507 0.016788482666 0.0154609680176 0.0131225585938 0.00946807861328 0.00608444213867 0.00375111897786 0.00152587890625 0.00156402587891 0.000937143961589 0.00168482462565 0.00154876708984 0.00274912516276 0.00406392415365 0.00740687052409 0.0147298177083 0.0414721171061 0.0504760742188 0.555169423421 01
0.0589408874512 0.0226847330729 0.0225563049316 0.023494720459 0.0206960042318 0.0171190897624 0.0142059326172 0.0136006673177 0.0125605265299 0.0113182067871 0.00976689656576 0.00821940104167 0.00663375854492 0.00619125366211 0.00442250569661 0.0042610168457 0.00334803263346 0.00374603271484 0.00334294637044 0.0042839050293 0.00547536214193 0.0112686157227 0.0234591166178 0.0366859436035 0.0437075297038 0.608010609945 14
0.0555852254232 0.0389760335286 0.0248807271322 0.0208880106608 0.0177993774414 0.0140291849772 0.010014851888 0.00746154785156 0.00586954752604 0.00548299153646 0.00485483805339 0.00399525960286 0.00361633300781 0.00338617960612 0.00188446044922 0.00203959147135 0.00150680541992 0.00222778320312 0.00201670328776 0.00311787923177 0.00460688273112 0.00865681966146 0.015998840332 0.0396626790365 0.0522931416829 0.649148305257 02
0.0518900553385 0.0335680643717 0.022471110026 0.0185407002767 0.0171190897624 0.0174509684245 0.0167897542318 0.0160395304362 0.0152943929036 0.0144551595052 0.0125846862793 0.00984191894531 0.00654474894206 0.00507481892904 0.00292078653971 0.00317255655924 0.00228500366211 0.00302251180013 0.00298182169596 0.00446573893229 0.00578816731771 0.0092404683431 0.0149485270182 0.0353228251139 0.052500406901 0.605686187744 29
0.052677154541 0.0334383646647 0.0285288492839 0.0249621073405 0.0198593139648 0.0154291788737 0.0121994018555 0.0107027689616 0.010004679362 0.00972493489583 0.00889333089193 0.00813166300456 0.00676091512044 0.00573857625326 0.00327936808268 0.00308481852214 0.00223668416341 0.0028928120931 0.0031000773112 0.00469207763672 0.00657908121745 0.0114657084147 0.0194613138835 0.0352427164714 0.0498822530111 0.611031850179 08
0.0645548502604 0.0328979492188 0.0301335652669 0.0274035135905 0.0242500305176 0.0219217936198 0.0202840169271 0.0189056396484 0.0185165405273 0.0175221761068 0.0141728719076 0.0104815165202 0.00671259562174 0.00437927246094 0.00268046061198 0.00326283772786 0.00274276733398 0.00320943196615 0.00346374511719 0.0050048828125 0.00728988647461 0.0132993062337 0.0205561319987 0.0328420003255 0.0523630777995 0.541149139404 07
0.0642801920573 0.0390790303548 0.022652943929 0.0201848347982 0.0184516906738 0.016855875651 0.0143152872721 0.0127665201823 0.011905670166 0.0100008646647 0.00684992472331 0.00432713826497 0.00270589192708 0.0023307800293 0.000994364420573 0.00136439005534 0.000615437825521 0.00143559773763 0.00102996826172 0.0020268758138 0.00288772583008 0.00629170735677 0.0133450826009 0.0392684936523 0.0494397481283 0.634593963623 37
0.0590680440267 0.0321617126465 0.0214958190918 0.0185457865397 0.0175425211589 0.0167490641276 0.0163459777832 0.0152778625488 0.0137519836426 0.0121574401855 0.0096181233724 0.0084228515625 0.00879923502604 0.0070063273112 0.00435892740885 0.00365829467773 0.00244267781576 0.00266774495443 0.00266901652018 0.00325775146484 0.00452931722005 0.00757090250651 0.0143292744954 0.0344009399414 0.0458297729492 0.617342631022 30
0.0508257548014 0.0357462565104 0.0186322530111 0.0142377217611 0.0136922200521 0.0143178304036 0.0146204630534 0.0149192810059 0.0151062011719 0.0145416259766 0.0131874084473 0.00972620646159 0.00614420572917 0.00463485717773 0.00274403889974 0.00277201334635 0.00191497802734 0.00226720174154 0.00225702921549 0.0033696492513 0.00487263997396 0.00851186116536 0.0165354410807 0.0347035725911 0.0476404825846 0.632078806559 03
0.097972869873 0.0354220072428 0.0286026000977 0.0189145406087 0.0122502644857 0.00805155436198 0.00545247395833 0.00355784098307 0.00253041585286 0.0019785563151 0.00195693969727 0.00240325927734 0.00286102294922 0.00364049275716 0.00260416666667 0.00332260131836 0.00261561075846 0.00339508056641 0.00347518920898 0.00471750895182 0.00664774576823 0.0110308329264 0.0190811157227 0.0383580525716 0.0583585103353 0.620798746745 12
0.0706583658854 0.0307909647624 0.0256233215332 0.0281257629395 0.0296478271484 0.0285555521647 0.0238164265951 0.018616994222 0.0162048339844 0.0152880350749 0.0111999511719 0.00623830159505 0.00308100382487 0.0026969909668 0.00155766805013 0.00232315063477 0.00180689493815 0.0029182434082 0.00264104207357 0.0039431254069 0.00548680623372 0.00969823201497 0.0176417032878 0.0373039245605 0.0493901570638 0.554744720459 34
0.123387654622 0.0232696533203 0.0240084330241 0.0199813842773 0.013064066569 0.00814437866211 0.00475184122721 0.0027338663737 0.00164667765299 0.00104268391927 0.000685373942057 0.000782012939453 0.00116348266602 0.00222396850586 0.000966389973958 0.00184758504232 0.0009765625 0.00163904825846 0.00126520792643 0.00201416015625 0.00316747029622 0.00677998860677 0.0160039265951 0.0426661173503 0.0553258260091 0.640462239583 21
0.110891977946 0.0365765889486 0.0235087076823 0.0147755940755 0.00706990559896 0.00347773234049 0.0020268758138 0.00123977661133 0.000930786132812 0.000759124755859 0.000631968180339 0.000620524088542 0.000631968180339 0.00155512491862 0.000544230143229 0.00120671590169 0.000558217366536 0.00116221110026 0.00102742513021 0.00181325276693 0.00313822428385 0.00762176513672 0.0167948404948 0.0446166992188 0.0616836547852 0.655136108398 33
0.0961278279622 0.0441106160482 0.0269711812337 0.0161794026693 0.00819269816081 0.00370661417643 0.00158182779948 0.000812530517578 0.000536600748698 0.000367482503255 0.000268300374349 0.000277201334635 0.000254313151042 0.00103378295898 0.000312805175781 0.000924428304036 0.000287373860677 0.000902811686198 0.000436147054036 0.000989278157552 0.00136311848958 0.00387573242188 0.0106989542643 0.0454521179199 0.055409749349 0.678927103678 05
0.0691464742025 0.0365397135417 0.0297508239746 0.0256703694661 0.01970799764 0.0149192810059 0.0113194783529 0.00894927978516 0.00811640421549 0.00786844889323 0.00693511962891 0.00575256347656 0.00422541300456 0.00380325317383 0.0023676554362 0.00314585367839 0.00262069702148 0.00335566202799 0.0035654703776 0.00476837158203 0.00680033365885 0.012503306071 0.0227317810059 0.0352427164714 0.0540313720703 0.596162160238 09
0.0627085367839 0.0340576171875 0.0388730367025 0.0337766011556 0.0261433919271 0.0195630391439 0.0153210957845 0.0127881368001 0.0112749735514 0.0104319254557 0.00932057698568 0.00752512613932 0.00529225667318 0.00398254394531 0.00218963623047 0.00255711873372 0.0021489461263 0.00338872273763 0.00377019246419 0.00544611612956 0.00784810384115 0.0128936767578 0.0203247070312 0.0354423522949 0.0515200297038 0.561411539714 17
0.063045501709 0.0363591512044 0.0199648539225 0.0155156453451 0.0125223795573 0.0101381937663 0.00915273030599 0.00883229573568 0.00907135009766 0.00883102416992 0.00801213582357 0.00901540120443 0.0079345703125 0.00611114501953 0.00361887613932 0.00374984741211 0.00255457560221 0.00329081217448 0.00260798136393 0.00374603271484 0.00527954101562 0.0108782450358 0.0196584065755 0.0331026713053 0.0507901509603 0.636216481527 32
0.0615590413411 0.0392100016276 0.0326182047526 0.0229352315267 0.0164566040039 0.0155804951986 0.015619913737 0.0152397155762 0.016242980957 0.0171178181966 0.0147641499837 0.0108439127604 0.00751749674479 0.0050417582194 0.00229517618815 0.00230280558268 0.0013542175293 0.00201924641927 0.0017344156901 0.0027592976888 0.00410715738932 0.00912729899089 0.0185381571452 0.0377298990885 0.0484390258789 0.578845977783 25
0.0725631713867 0.0438550313314 0.0265947977702 0.0226923624674 0.0212593078613 0.0186907450358 0.0139719645182 0.0105425516764 0.0096181233724 0.00919723510742 0.00733439127604 0.00475565592448 0.00271860758464 0.00285212198893 0.00116093953451 0.00178400675456 0.00110753377279 0.00173060099284 0.00171152750651 0.00271733601888 0.00410079956055 0.00884755452474 0.0170059204102 0.0396092732747 0.0537923177083 0.59978612264 31
0.0566914876302 0.0290832519531 0.0195973714193 0.0187517801921 0.0182215372721 0.0163459777832 0.0135078430176 0.0120073954264 0.0107421875 0.00890350341797 0.00703684488932 0.0060068766276 0.00508499145508 0.00421651204427 0.00179926554362 0.00178909301758 0.00100453694661 0.0015017191569 0.00138473510742 0.00230534871419 0.00343704223633 0.00727462768555 0.0152994791667 0.0348904927572 0.0472234090169 0.655892690023 28
0.0554161071777 0.0347035725911 0.0254020690918 0.0237668355306 0.0210278828939 0.0186182657878 0.0154304504395 0.0134595235189 0.0131340026855 0.013173421224 0.0112368265788 0.00890858968099 0.00610605875651 0.00414530436198 0.00239690144857 0.002685546875 0.00210825602214 0.00283940633138 0.00296147664388 0.00438181559245 0.00583267211914 0.00957997639974 0.018061319987 0.0355847676595 0.0466194152832 0.602419535319 06
0.0738067626953 0.0408045450846 0.0192209879557 0.0156542460124 0.014518737793 0.0155042012533 0.0173327128092 0.0209897359212 0.0206336975098 0.0139147440592 0.00736745198568 0.00458653767904 0.00359471638997 0.00384775797526 0.00221379597982 0.00292205810547 0.00196711222331 0.00249862670898 0.0019416809082 0.00241724650065 0.00345865885417 0.00721613566081 0.0142135620117 0.0385932922363 0.0474268595378 0.603354136149 11
0.0973650614421 0.0345357259115 0.0290400187174 0.0257034301758 0.0212885538737 0.0170122782389 0.0124231974284 0.00885264078776 0.00705846150716 0.00549825032552 0.00332005818685 0.00179926554362 0.00107955932617 0.00176620483398 0.000815073649089 0.00188064575195 0.00119272867839 0.00186920166016 0.00181325276693 0.00271224975586 0.00396982828776 0.00797526041667 0.0163879394531 0.0413653055827 0.0535024007161 0.599773406982 04
0.0552228291829 0.0370712280273 0.0214385986328 0.0170771280924 0.0154342651367 0.0148913065592 0.0141792297363 0.0133349100749 0.0126876831055 0.0120455423991 0.0104802449544 0.00866317749023 0.00593821207682 0.00519816080729 0.00281270345052 0.00310134887695 0.00188954671224 0.00256729125977 0.00220743815104 0.0031369527181 0.00432713826497 0.00754674275716 0.0137901306152 0.0385093688965 0.0476061503092 0.628842671712 24
0.0564117431641 0.0380821228027 0.0193087259928 0.0140698750814 0.012685139974 0.0119412740072 0.0119361877441 0.0112813313802 0.0104077657064 0.00980885823568 0.00838851928711 0.00696690877279 0.00567754109701 0.00437927246094 0.00246175130208 0.00246810913086 0.00171788533529 0.00213877360026 0.00214258829753 0.00299835205078 0.0040537516276 0.00773747762044 0.015806833903 0.0373954772949 0.0461705525716 0.653563181559 13
0.05419921875 0.0376904805501 0.0201428731283 0.0151329040527 0.0121955871582 0.0105107625326 0.00944010416667 0.0083122253418 0.0072758992513 0.00700124104818 0.00695927937826 0.0067392985026 0.00553766886393 0.00469207763672 0.00227228800456 0.00274912516276 0.00166575113932 0.00272496541341 0.00209681193034 0.00338872273763 0.0047124226888 0.00823974609375 0.0161565144857 0.0375391642253 0.0490887959798 0.663536071777 19
0.0401827494303 0.0337562561035 0.0136375427246 0.0105985005697 0.00829950968424 0.00706736246745 0.00758361816406 0.0114758809408 0.0172869364421 0.0196825663249 0.0198847452799 0.0221290588379 0.0227279663086 0.014581044515 0.00666046142578 0.00504302978516 0.00311915079753 0.00320943196615 0.00316111246745 0.00429407755534 0.00576909383138 0.00882848103841 0.0152702331543 0.0300763448079 0.0410359700521 0.624638875326 36
0.093090057373 0.0321451822917 0.0238456726074 0.0224901835124 0.0203717549642 0.0192845662435 0.0191307067871 0.0195948282878 0.0150591532389 0.00840886433919 0.00484720865885 0.00319290161133 0.00279235839844 0.00382741292318 0.00212987263997 0.00294876098633 0.0019162495931 0.00251261393229 0.0022710164388 0.00340270996094 0.00484848022461 0.00993220011393 0.0195604960124 0.0372047424316 0.0539194742839 0.571272532145 10
0.0803248087565 0.0374145507812 0.0200907389323 0.0145136515299 0.0105883280436 0.00808970133464 0.00757471720378 0.00741831461589 0.0070432027181 0.0060297648112 0.00487645467122 0.0037104288737 0.00240198771159 0.00269444783529 0.00134404500326 0.00214258829753 0.00139490763346 0.00202178955078 0.00151952107747 0.00200525919596 0.0027707417806 0.00597763061523 0.0133794148763 0.0409189860026 0.0493036905924 0.664450327555 20
0.0574073791504 0.0332043965658 0.0256233215332 0.0183690388997 0.0124918619792 0.00921758015951 0.00736745198568 0.00652567545573 0.00592295328776 0.0059928894043 0.00536473592122 0.0047124226888 0.0039316813151 0.00424448649089 0.0030034383138 0.00382232666016 0.00323613484701 0.00378926595052 0.00339635213216 0.00477600097656 0.00667826334635 0.0121955871582 0.0227279663086 0.0364812215169 0.0487848917643 0.650732676188 23
0.0618947347005 0.0329933166504 0.0169944763184 0.0130831400553 0.0108744303385 0.0100835164388 0.00885391235352 0.00820287068685 0.00761795043945 0.00760269165039 0.00727462768555 0.00722376505534 0.0060297648112 0.00496419270833 0.00368245442708 0.0036735534668 0.00261306762695 0.00322596232096 0.00277837117513 0.00381215413411 0.00506210327148 0.00923919677734 0.0184694925944 0.0346552530924 0.0496470133464 0.659447987874 15
0.0409444173177 0.031930287679 0.0120608011882 0.00949986775716 0.00946935017904 0.0110092163086 0.0138397216797 0.0193646748861 0.0281893412272 0.0345191955566 0.0334307352702 0.0272928873698 0.0182062784831 0.00989532470703 0.00455220540365 0.00376256306966 0.00259017944336 0.00314331054688 0.00312296549479 0.00428899129232 0.00587336222331 0.00915273030599 0.0150299072266 0.0325762430827 0.04230372111 0.573951721191 26
0.0475591023763 0.0407867431641 0.013001759847 0.00744374593099 0.00688680013021 0.00748062133789 0.00942611694336 0.012082417806 0.0142822265625 0.0159899393717 0.0170338948568 0.0164286295573 0.0125694274902 0.00869750976562 0.00502522786458 0.00423812866211 0.00307210286458 0.00349934895833 0.00374476114909 0.00507609049479 0.00666681925456 0.00915908813477 0.0140024820964 0.0316301981608 0.0487340291341 0.635482788086 27
0.0537261962891 0.0381444295247 0.0191764831543 0.012700398763 0.00964609781901 0.00779724121094 0.00653584798177 0.00599670410156 0.00537490844727 0.00517018636068 0.00509770711263 0.00492986043294 0.00463740030924 0.00390625 0.00235366821289 0.00248209635417 0.00166702270508 0.00234858194987 0.00177510579427 0.00260289510091 0.00337219238281 0.0066286722819 0.01384862264 0.0375836690267 0.0470504760742 0.69544728597 18
0.107191721598 0.0391019185384 0.0210494995117 0.0138880411784 0.00839614868164 0.00469716389974 0.00261942545573 0.00170389811198 0.00123977661133 0.000906626383464 0.000695546468099 0.000535329182943 0.000615437825521 0.00121815999349 0.000406901041667 0.00107447306315 0.000349680582682 0.00109990437826 0.000526428222656 0.00116221110026 0.00138854980469 0.0032590230306 0.00958124796549 0.0452931722005 0.0531107584635 0.678888956706 22
0.0629145304362 0.0345598856608 0.0218098958333 0.0179036458333 0.0163040161133 0.0155792236328 0.0165278116862 0.0182787577311 0.0194854736328 0.0190455118815 0.0154991149902 0.0114390055339 0.00732421875 0.0050900777181 0.00308736165365 0.00358327229818 0.0031992594401 0.00437291463216 0.00505447387695 0.00758870442708 0.0110422770182 0.0155474344889 0.01984278361 0.0320002237956 0.0633316040039 0.549588521322 01
0.094123840332 0.0246976216634 0.0288645426432 0.0302912394206 0.0287653605143 0.0250498453776 0.0209108988444 0.0173810323079 0.0153821309408 0.0131289164225 0.00962066650391 0.00718307495117 0.00533548990885 0.00549062093099 0.0036875406901 0.0043462117513 0.00249608357747 0.00311279296875 0.00283686319987 0.00433095296224 0.00689061482747 0.0137990315755 0.0238367716471 0.0365524291992 0.052973429362 0.518911997477 35
0.0859107971191 0.0417658487956 0.0260378519694 0.0226147969564 0.0210558573405 0.0199495951335 0.0189603169759 0.0174179077148 0.013724009196 0.00811640421549 0.0039431254069 0.00205103556315 0.00116729736328 0.00183359781901 0.0010503133138 0.00212732950846 0.00171661376953 0.00281397501628 0.00263086954753 0.00353622436523 0.0048573811849 0.00972747802734 0.0178311665853 0.0393091837565 0.0567690531413 0.573081970215 16
0.0573616027832 0.0323117574056 0.0269635518392 0.0215797424316 0.0150324503581 0.0107396443685 0.00917561848958 0.00871022542318 0.00887807210286 0.00868733723958 0.00859832763672 0.00912094116211 0.00830078125 0.00775909423828 0.00525283813477 0.00478871663411 0.00361251831055 0.00419235229492 0.00424575805664 0.00581614176432 0.00799051920573 0.0151456197103 0.0258623758952 0.035711924235 0.0467669169108 0.607395172119 14
0.0545667012533 0.0384305318197 0.0253448486328 0.0229110717773 0.0197690327962 0.0157661437988 0.0111694335938 0.00774892171224 0.00602340698242 0.00556055704753 0.00492604573568 0.00378799438477 0.00269190470378 0.00278472900391 0.00145848592122 0.00204086303711 0.00132115681966 0.00214131673177 0.00189971923828 0.0030632019043 0.00426610310872 0.00763575236003 0.0147310892741 0.0396931966146 0.0493825276693 0.650885264079 02
0.0489158630371 0.0303293863932 0.0222613016764 0.0181770324707 0.0172030131022 0.0177332560221 0.0181719462077 0.0179913838704 0.0176862080892 0.016721089681 0.0153299967448 0.0120391845703 0.0083859761556 0.00639724731445 0.0042470296224 0.00403849283854 0.00322723388672 0.00388209025065 0.00382486979167 0.00539779663086 0.00731786092122 0.0110982259115 0.0170733133952 0.0331497192383 0.0489285786947 0.590471903483 29
0.0519409179688 0.0341580708822 0.0257301330566 0.0215861002604 0.0172462463379 0.0147094726562 0.0125719706217 0.010976155599 0.0100962320964 0.00990549723307 0.00879033406576 0.00784683227539 0.0064328511556 0.00552622477214 0.00333786010742 0.00344212849935 0.00260925292969 0.00330352783203 0.00345357259115 0.00498835245768 0.00680033365885 0.0112444559733 0.0187238057454 0.0353927612305 0.0470631917318 0.622123718262 08
0.0648193359375 0.0336939493815 0.0294583638509 0.0277964274089 0.0244878133138 0.0212999979655 0.0188128153483 0.0176277160645 0.0169792175293 0.0155932108561 0.0126927693685 0.0100173950195 0.00687026977539 0.00538380940755 0.0034662882487 0.0038693745931 0.00292714436849 0.00370661417643 0.00397109985352 0.00550587972005 0.00775400797526 0.0135777791341 0.0214665730794 0.0326245625814 0.0520617167155 0.543535868327 07
0.0741271972656 0.0375480651855 0.0232480367025 0.0230649312337 0.0235799153646 0.0229047139486 0.0195007324219 0.0155715942383 0.0132522583008 0.0103034973145 0.0057258605957 0.00310643513997 0.00170008341471 0.00184885660807 0.000714619954427 0.0013682047526 0.000690460205078 0.00142161051432 0.00102106730143 0.00167719523112 0.00231424967448 0.00514856974284 0.0120938618978 0.0422643025716 0.0492998758952 0.606503804525 37
0.0480562845866 0.0396563212077 0.010809580485 0.0063959757487 0.00566101074219 0.00599416097005 0.00789515177409 0.0127805074056 0.0194028218587 0.0253588358561 0.0238990783691 0.0180231730143 0.0123977661133 0.00820922851562 0.00473785400391 0.00382741292318 0.00243886311849 0.00244394938151 0.00228118896484 0.00291315714518 0.00389099121094 0.00771077473958 0.0142199198405 0.031909942627 0.042724609375 0.636361440023 03
0.0601018269857 0.0327682495117 0.0213801066081 0.0192807515462 0.0186462402344 0.018248240153 0.0162976582845 0.0144551595052 0.0124435424805 0.0102399190267 0.00752766927083 0.00585556030273 0.00509897867839 0.00491714477539 0.00332641601562 0.0034294128418 0.00261561075846 0.00296147664388 0.00304667154948 0.00421015421549 0.00576019287109 0.00947443644206 0.0164082845052 0.0354766845703 0.0505816141764 0.615447998047 30
0.0677668253581 0.0352592468262 0.0272064208984 0.0272432963053 0.0262705485026 0.0232086181641 0.0182100931803 0.0135154724121 0.011661529541 0.0117034912109 0.00930023193359 0.00535710652669 0.00293604532878 0.00275421142578 0.00164031982422 0.00241470336914 0.0019048055013 0.00285085042318 0.00254313151042 0.00359853108724 0.00495147705078 0.00924682617188 0.0170186360677 0.0378506978353 0.0492426554362 0.584344228109 34
0.0617841084798 0.038766225179 0.0176417032878 0.0146102905273 0.0129992167155 0.0116971333822 0.0106569925944 0.0103963216146 0.0105730692546 0.0100568135579 0.00916163126628 0.0109074910482 0.00783920288086 0.00564320882161 0.00317891438802 0.00340143839518 0.00208028157552 0.00241851806641 0.00188318888346 0.00251642862956 0.00334930419922 0.00642903645833 0.0150057474772 0.0385144551595 0.0470606486003 0.641428629557 12
0.117324829102 0.0196253458659 0.0257886250814 0.0263913472493 0.0230102539062 0.0194142659505 0.0158971150716 0.0114479064941 0.00730514526367 0.00440343221029 0.00264104207357 0.0021006266276 0.00218963623047 0.00297164916992 0.00174967447917 0.00242614746094 0.0016835530599 0.00237909952799 0.00236892700195 0.00336583455404 0.00508626302083 0.0105819702148 0.0217170715332 0.0396270751953 0.0571123758952 0.57139078776 21
0.0896186828613 0.0412635803223 0.0233192443848 0.0150235493978 0.0081532796224 0.00477091471354 0.0032475789388 0.00239054361979 0.00199762980143 0.00177383422852 0.00148646036784 0.00140380859375 0.0014165242513 0.00240198771159 0.00121943155924 0.00198872884115 0.00109481811523 0.00178909301758 0.00157928466797 0.00264104207357 0.00388971964518 0.00853093465169 0.0184020996094 0.041872660319 0.0596440633138 0.659080505371 33
0.107533772786 0.0424995422363 0.0279235839844 0.0179748535156 0.0101381937663 0.00478490193685 0.00203704833984 0.00104141235352 0.000765482584635 0.000553131103516 0.000352223714193 0.000225067138672 0.000314076741536 0.00102869669596 0.000213623046875 0.000891367594401 0.000209808349609 0.000867207845052 0.000382741292318 0.000981648763021 0.00144958496094 0.00433731079102 0.0128746032715 0.0460573832194 0.0575904846191 0.656972249349 05
0.0752347310384 0.0369262695312 0.0280329386393 0.0231946309408 0.0170033772786 0.0118853251139 0.00903193155924 0.00758870442708 0.00710932413737 0.0067392985026 0.00565083821615 0.00439071655273 0.0031623840332 0.00275802612305 0.00118637084961 0.00153605143229 0.000798543294271 0.00133768717448 0.00097401936849 0.00166193644206 0.00276311238607 0.00695037841797 0.0171991984049 0.0375226338704 0.051342010498 0.638019561768 25
0.0568707784017 0.0294087727865 0.020938873291 0.0179303487142 0.0149676005046 0.0120468139648 0.0104815165202 0.0100898742676 0.0106239318848 0.0122108459473 0.0123443603516 0.0109036763509 0.00844573974609 0.00681177775065 0.00411224365234 0.00387700398763 0.00313822428385 0.00388590494792 0.00409952799479 0.00551478068034 0.00717417399089 0.011417388916 0.0182444254557 0.0331891377767 0.0484771728516 0.62279510498 28
0.0889892578125 0.0408401489258 0.0229746500651 0.0168393452962 0.0126864115397 0.00968297322591 0.00753275553385 0.00596618652344 0.004638671875 0.0032590230306 0.00256093343099 0.00240834554036 0.00273640950521 0.0030148824056 0.001953125 0.00205612182617 0.00120798746745 0.00160090128581 0.00109481811523 0.00162887573242 0.00198237101237 0.0042470296224 0.0114262898763 0.0429916381836 0.0480779012044 0.657602945964 10
0.0601946512858 0.0369987487793 0.0189081827799 0.0148849487305 0.0131276448568 0.0117734273275 0.0110766092936 0.0111312866211 0.0113118489583 0.00995000203451 0.00843683878581 0.00836054484049 0.00719960530599 0.00567626953125 0.0036137898763 0.00376383463542 0.00259526570638 0.00327555338542 0.00284703572591 0.00379180908203 0.00536346435547 0.0101788838704 0.0179570515951 0.0328534444173 0.0485560099284 0.636173248291 32
0.0565249125163 0.0359865824382 0.0262069702148 0.0248641967773 0.0210812886556 0.0175336201986 0.0141983032227 0.0123723347982 0.0117123921712 0.0117607116699 0.0109875996908 0.00875854492188 0.00614547729492 0.00479634602865 0.00282796223958 0.00299962361654 0.00256856282552 0.00344721476237 0.00373331705729 0.00532404581706 0.00771077473958 0.0131632486979 0.0218645731608 0.0337282816569 0.048900604248 0.590802510579 06
0.0670178731283 0.0313161214193 0.0357844034831 0.0346527099609 0.0275408426921 0.0217310587565 0.0169766743978 0.0143165588379 0.012747446696 0.0114148457845 0.0101483662923 0.00834401448568 0.00501251220703 0.00351206461589 0.00184122721354 0.00274403889974 0.00203450520833 0.00320180257161 0.00349299112956 0.00519307454427 0.00767262776693 0.0129686991374 0.0216382344564 0.0354194641113 0.0479456583659 0.555332183838 17
0.0967089335124 0.0372746785482 0.0298550923665 0.0208638509115 0.0136922200521 0.00886917114258 0.00545247395833 0.00366592407227 0.00285339355469 0.00217692057292 0.00157419840495 0.00118001302083 0.00103886922201 0.00166956583659 0.000905354817708 0.00158945719401 0.000940958658854 0.00156784057617 0.00164794921875 0.00284830729167 0.00446192423503 0.00915654500326 0.0185419718424 0.0421956380208 0.0596288045247 0.629639943441 04
0.0801022847493 0.0307922363281 0.0211702982585 0.0201708475749 0.0166308085124 0.0118153889974 0.00698471069336 0.00385284423828 0.00249099731445 0.0016606648763 0.00104904174805 0.000993092854818 0.000874837239583 0.00156402587891 0.00076166788737 0.00147247314453 0.000836690266927 0.00152079264323 0.0010986328125 0.00200525919596 0.00263086954753 0.00511805216471 0.0114987691243 0.0409990946452 0.0483843485514 0.683521270752 19
0.0863342285156 0.0380325317383 0.0252774556478 0.0189018249512 0.0127423604329 0.00813802083333 0.00618235270182 0.00533294677734 0.00475311279297 0.00379943847656 0.00310262044271 0.00297546386719 0.0025151570638 0.00344594319661 0.00226593017578 0.00331115722656 0.00235875447591 0.00286992390951 0.00212224324544 0.00281270345052 0.00355529785156 0.00712076822917 0.0154838562012 0.0396359761556 0.0476086934408 0.6493212382 20
0.0627301534017 0.0401458740234 0.0155906677246 0.0121981302897 0.0119692484538 0.0132306416829 0.0172856648763 0.0231183369954 0.025074005127 0.0200564066569 0.0113296508789 0.00567499796549 0.00333658854167 0.00292841593424 0.0016721089681 0.00205357869466 0.00143305460612 0.00190099080404 0.00154876708984 0.00212987263997 0.00291570027669 0.00595474243164 0.0105985005697 0.0410575866699 0.0459925333659 0.618073781331 11
0.0390701293945 0.0335451761882 0.0132331848145 0.0102767944336 0.00804011027018 0.00725682576497 0.00809097290039 0.0120519002279 0.0168329874674 0.0192883809408 0.0192260742188 0.0210876464844 0.0199495951335 0.0138791402181 0.00695037841797 0.00482177734375 0.0031483968099 0.00331624348958 0.00336710611979 0.00471115112305 0.00644683837891 0.0101470947266 0.0165697733561 0.0290730794271 0.0420900980632 0.627529144287 36
0.104298909505 0.0251121520996 0.0273729960124 0.0271059672038 0.0243123372396 0.0206616719564 0.0160535176595 0.0126241048177 0.0103721618652 0.00818379720052 0.00627009073893 0.00523249308268 0.00540924072266 0.00602340698242 0.00405502319336 0.0039431254069 0.00247319539388 0.00282669067383 0.0025749206543 0.00396982828776 0.00611623128255 0.0121726989746 0.0228703816732 0.0382080078125 0.0510546366374 0.550702412923 35
0.0753211975098 0.0370915730794 0.0261713663737 0.0232264200846 0.0206578572591 0.017822265625 0.0144208272298 0.0119984944661 0.00997416178385 0.00876235961914 0.00734837849935 0.00570424397786 0.00435002644857 0.00376892089844 0.00260925292969 0.00277201334635 0.0021006266276 0.00256856282552 0.00247955322266 0.00353622436523 0.00523249308268 0.010612487793 0.0209999084473 0.0373675028483 0.0516255696615 0.591477711995 09
0.0804977416992 0.0328648885091 0.0278447469076 0.0224266052246 0.0176429748535 0.0147997538249 0.0120417277018 0.010679880778 0.00989278157552 0.00878397623698 0.00604375203451 0.00335057576497 0.00178782145182 0.00230916341146 0.00110371907552 0.00193659464518 0.00136439005534 0.00227737426758 0.00197219848633 0.00290298461914 0.00465520222982 0.00961939493815 0.0196406046549 0.0366516113281 0.0534744262695 0.613435109456 31
0.0575434366862 0.0403760274251 0.0198885599772 0.0141690572103 0.0112737019857 0.0104662577311 0.00952402750651 0.00904591878255 0.00836563110352 0.00779978434245 0.00677363077799 0.00529988606771 0.00378799438477 0.00321960449219 0.00168736775716 0.00204722086589 0.00121561686198 0.00181579589844 0.00167338053385 0.00260543823242 0.00360107421875 0.00678507486979 0.015256245931 0.0391464233398 0.0491612752279 0.66747156779 13
0.0818684895833 0.0273399353027 0.0191268920898 0.0175539652507 0.0165939331055 0.0140584309896 0.0108108520508 0.00879923502604 0.00763193766276 0.00683720906576 0.00618489583333 0.0058110555013 0.00481414794922 0.00460561116536 0.00326538085938 0.00329208374023 0.00261688232422 0.00316619873047 0.0031369527181 0.00435511271159 0.0059928894043 0.0117594401042 0.0226821899414 0.0348752339681 0.0551872253418 0.61763381958 15
0.0531234741211 0.0360438028971 0.0219790140788 0.0179494222005 0.0155766805013 0.0135180155436 0.0102564493815 0.00811894734701 0.00666809082031 0.00599161783854 0.00470606486003 0.00388590494792 0.0029551188151 0.0028444925944 0.00145085652669 0.00195439656576 0.00121815999349 0.0017941792806 0.00147120157878 0.00215276082357 0.00268681844076 0.00471496582031 0.0117721557617 0.037893931071 0.0446370442708 0.684636433919 18
0.0405782063802 0.03156153361 0.0125261942546 0.00969441731771 0.00972112019857 0.0114059448242 0.0136642456055 0.0184491475423 0.0252952575684 0.0312436421712 0.0302861531576 0.0275917053223 0.0203984578451 0.0125681559245 0.00574239095052 0.00426737467448 0.00291188557943 0.00362396240234 0.00364557902018 0.00509516398112 0.00661341349284 0.00972493489583 0.0153439839681 0.031795501709 0.0425860087077 0.573665618896 26
0.0635693868001 0.0342254638672 0.0250523885091 0.0213330586751 0.0190467834473 0.0178858439128 0.0185216267904 0.0206235249837 0.0212491353353 0.0204925537109 0.0168736775716 0.0118764241536 0.00767389933268 0.00466028849284 0.00193659464518 0.00244394938151 0.00165939331055 0.00270334879557 0.00282414754232 0.00450642903646 0.00698089599609 0.012523651123 0.0207977294922 0.0339228312174 0.0562705993652 0.550346374512 01
0.109277089437 0.0364100138346 0.0233484903971 0.0157051086426 0.00824228922526 0.0038693745931 0.00199381510417 0.0012944539388 0.000932057698568 0.000714619954427 0.00054677327474 0.000630696614583 0.00073496500651 0.00147247314453 0.00054931640625 0.00136311848958 0.00048573811849 0.00121815999349 0.000588734944661 0.00121434529622 0.00141779581706 0.00377782185872 0.0107587178548 0.0452575683594 0.0543009440104 0.673895517985 22
0.0536053975423 0.0303738911947 0.022211710612 0.021733601888 0.0214335123698 0.0201632181803 0.0194498697917 0.0196189880371 0.0199292500814 0.0198516845703 0.0174102783203 0.0138778686523 0.00997924804688 0.00744374593099 0.0042610168457 0.00391260782878 0.00277964274089 0.00343831380208 0.00335311889648 0.00466537475586 0.00606918334961 0.0100529988607 0.0182406107585 0.0351015726725 0.0448951721191 0.566148122152 24
0.062245686849 0.0286127726237 0.0267779032389 0.0196062723796 0.0113385518392 0.00746663411458 0.00544611612956 0.00455220540365 0.00428771972656 0.0043207804362 0.00495783487956 0.00475438435872 0.00403594970703 0.00399653116862 0.00291061401367 0.00335820515951 0.00261561075846 0.00321578979492 0.00321324666341 0.00431823730469 0.00611623128255 0.0110829671224 0.0219230651855 0.036553700765 0.0567754109701 0.655517578125 23
0.0513127644857 0.0320599873861 0.0243021647135 0.0192286173503 0.0146408081055 0.0125249226888 0.0117022196452 0.0110422770182 0.0110664367676 0.0112037658691 0.0116119384766 0.0120582580566 0.0118268330892 0.0102717081706 0.00723648071289 0.00646082560221 0.00474421183268 0.00496037801107 0.00476582845052 0.00601450602214 0.00828043619792 0.013921101888 0.0226910909017 0.0342839558919 0.0442186991374 0.597569783529 14
0.0531094868978 0.042179107666 0.0124435424805 0.0072135925293 0.00624465942383 0.0069325764974 0.00725555419922 0.00854110717773 0.0105336507161 0.0117721557617 0.0101674397786 0.00750732421875 0.00511423746745 0.00430552164714 0.00242487589518 0.0025380452474 0.0015869140625 0.00204086303711 0.00174967447917 0.00276819864909 0.00368499755859 0.00691223144531 0.0141410827637 0.034792582194 0.0481096903483 0.685930887858 27
0.115262349447 0.0273946126302 0.0273793538411 0.0205688476562 0.0127881368001 0.0071169535319 0.00445810953776 0.00327173868815 0.0024299621582 0.00201797485352 0.00159200032552 0.00156529744466 0.00189336140951 0.00270843505859 0.00151697794596 0.00205103556315 0.00120544433594 0.0018424987793 0.00171534220378 0.00280507405599 0.0043690999349 0.00829188028971 0.0165214538574 0.0415471394857 0.0537083943685 0.633978525798 16
0.0499928792318 0.031800587972 0.0247370402018 0.0223134358724 0.0212122599284 0.0185228983561 0.0153503417969 0.0128949483236 0.0117467244466 0.0114199320475 0.0114542643229 0.0106582641602 0.00764973958333 0.00600306193034 0.00387827555339 0.00389353434245 0.00312169392904 0.00402450561523 0.00408426920573 0.00564575195312 0.00762049357096 0.011723836263 0.018482208252 0.0332628885905 0.0491320292155 0.599374135335 02
0.0616925557454 0.0330696105957 0.0271402994792 0.0240325927734 0.0220591227214 0.0198593139648 0.018004099528 0.0160853068034 0.0155919392904 0.0150731404622 0.0143966674805 0.0122515360514 0.00973002115885 0.00746409098307 0.0044797261556 0.0044911702474 0.00333531697591 0.0038210550944 0.00362269083659 0.00501378377279 0.00698852539062 0.0124320983887 0.0204594930013 0.0327936808268 0.0493342081706 0.556777954102 07
0.0490531921387 0.0326639811198 0.0266456604004 0.0235633850098 0.0192324320475 0.0161196390788 0.0137430826823 0.012752532959 0.0118052164714 0.011536916097 0.0109418233236 0.0106290181478 0.00936381022135 0.00718943277995 0.00429407755534 0.00377146402995 0.00271987915039 0.00315093994141 0.00354131062826 0.00489934285482 0.00679651896159 0.0111236572266 0.0185991923014 0.0345102945964 0.0455856323242 0.605767567952 08
0.0574556986491 0.0379486083984 0.0197041829427 0.0179011027018 0.0168660481771 0.0163332621257 0.0140012105306 0.0128211975098 0.0126050313314 0.0111147562663 0.00872421264648 0.00691223144531 0.00494384765625 0.00370025634766 0.00187555948893 0.00189081827799 0.0012690226237 0.00199635823568 0.00181198120117 0.00269190470378 0.00376510620117 0.00716654459635 0.0151901245117 0.0371704101562 0.0483678181966 0.635772705078 37
0.0505930582682 0.0276285807292 0.021479288737 0.018487294515 0.0173072814941 0.0186882019043 0.0208727518717 0.0241419474284 0.0257186889648 0.0262260437012 0.0230484008789 0.0164489746094 0.0106951395671 0.0079828898112 0.00514856974284 0.00468571980794 0.00364176432292 0.00459925333659 0.00453948974609 0.00640360514323 0.00834274291992 0.0122261047363 0.0180409749349 0.0314648946126 0.0504188537598 0.541169484456 29
0.0421905517578 0.0304565429688 0.0181070963542 0.0165303548177 0.0168914794922 0.0171585083008 0.0157508850098 0.0137278238932 0.0121574401855 0.0121307373047 0.0136896769206 0.0120697021484 0.00946553548177 0.00659561157227 0.00380833943685 0.00342814127604 0.0022939046224 0.00242487589518 0.00230026245117 0.00320816040039 0.00436147054036 0.00769678751628 0.0155843098958 0.034610748291 0.0450490315755 0.638312021891 03
0.0553728739421 0.0338185628255 0.0229085286458 0.0229085286458 0.0237426757812 0.0232988993327 0.020009358724 0.0165176391602 0.0142199198405 0.0142987569173 0.0135383605957 0.00982284545898 0.00609334309896 0.0042610168457 0.00226465861003 0.00237909952799 0.00177637736003 0.00269571940104 0.00248845418294 0.00356038411458 0.00503921508789 0.00907135009766 0.0163701375326 0.036937713623 0.0465342203776 0.59007136027 34
0.059700012207 0.0309003194173 0.0192235310872 0.0179786682129 0.0165685017904 0.0159200032552 0.0152460734049 0.0148429870605 0.0151519775391 0.0152155558268 0.0134213765462 0.0113461812337 0.00926971435547 0.00685628255208 0.00367863972982 0.00330098470052 0.00216420491536 0.00266138712565 0.00248463948568 0.00329081217448 0.00418345133464 0.00754547119141 0.0144437154134 0.0355860392253 0.0449930826823 0.614026387533 30
0.0613822937012 0.042958577474 0.0167643229167 0.0126864115397 0.0107866923014 0.00979995727539 0.00922393798828 0.00934982299805 0.00917434692383 0.00837071736654 0.00691477457682 0.00716145833333 0.00544993082682 0.00440216064453 0.00264358520508 0.00305684407552 0.00210571289062 0.00262832641602 0.00215911865234 0.00293731689453 0.00366846720378 0.00734329223633 0.0176556905111 0.0386594136556 0.0484873453776 0.654229482015 12
0.106625874837 0.0452779134115 0.0277531941732 0.0194485982259 0.0124028523763 0.00627136230469 0.00275802612305 0.00148010253906 0.00110117594401 0.000827789306641 0.000476837158203 0.000283559163411 0.000362396240234 0.00122833251953 0.000358581542969 0.00105158487956 0.000344594319661 0.00100580851237 0.000569661458333 0.00116475423177 0.00163141886393 0.00423431396484 0.0115674336751 0.0444157918294 0.0555814107259 0.651776631673 05
0.0618769327799 0.0295588175456 0.0231552124023 0.0181617736816 0.014820098877 0.0127512613932 0.0106264750163 0.00910822550456 0.00775019327799 0.00653076171875 0.0050786336263 0.00407282511393 0.00331624348958 0.00372950236003 0.00257746378581 0.00340398152669 0.00269190470378 0.00338363647461 0.00359471638997 0.00493494669596 0.00652567545573 0.0111618041992 0.0195350646973 0.0331764221191 0.053035736084 0.645441691081 28
0.0926856994629 0.0478719075521 0.0220896402995 0.0134442647298 0.00847244262695 0.00566482543945 0.00356928507487 0.00232696533203 0.00169881184896 0.00130081176758 0.00108337402344 0.00107065836589 0.00142288208008 0.00200271606445 0.00104395548503 0.00150299072266 0.000742594401042 0.00135548909505 0.000958760579427 0.00173823038737 0.00253295898438 0.0065803527832 0.0175069173177 0.0445238749186 0.0612576802572 0.6555519104 33
0.0561040242513 0.0436363220215 0.0275268554688 0.016908009847 0.0115343729655 0.0104853312174 0.0114733378092 0.0132827758789 0.0146509806315 0.0148963928223 0.0132865905762 0.0100186665853 0.00672785441081 0.00500361124674 0.00257110595703 0.00224939982096 0.00122451782227 0.00186030069987 0.00148010253906 0.00239181518555 0.0033696492513 0.0068473815918 0.0144106547038 0.0373140970866 0.0450159708659 0.625729878743 25
0.0792452494303 0.0352884928385 0.0204226175944 0.0163027445475 0.0125783284505 0.00904591878255 0.00719833374023 0.00649007161458 0.00584030151367 0.00474802652995 0.00351969401042 0.00258636474609 0.00182215372721 0.0020866394043 0.000921885172526 0.00156656901042 0.000885009765625 0.00161361694336 0.00117746988932 0.00180816650391 0.00224431355794 0.00506337483724 0.0117785135905 0.0397211710612 0.0491841634115 0.676860809326 31
0.108497619629 0.0213508605957 0.0269546508789 0.0272394816081 0.0238850911458 0.0205001831055 0.0173416137695 0.0137214660645 0.00950113932292 0.0058848063151 0.00367863972982 0.00276819864909 0.00265757242839 0.00332387288411 0.00227864583333 0.00278345743815 0.00208155314128 0.00291188557943 0.00278345743815 0.00432205200195 0.00682576497396 0.0143229166667 0.0243479410807 0.0380172729492 0.0623486836751 0.549671173096 21
0.0585428873698 0.0388984680176 0.0196266174316 0.0140113830566 0.0112737019857 0.0100415547689 0.0100059509277 0.0106824239095 0.0110282897949 0.0101102193197 0.00877253214518 0.00878397623698 0.0078608194987 0.00608062744141 0.00364049275716 0.00366846720378 0.00263468424479 0.00313313802083 0.00271987915039 0.00404485066732 0.00543975830078 0.010690053304 0.019847869873 0.0334294637044 0.0496342976888 0.63539759318 32
0.107880910238 0.0309715270996 0.0281855265299 0.0220642089844 0.0154215494792 0.00979741414388 0.00609842936198 0.00390243530273 0.00277709960938 0.00203069051107 0.0013910929362 0.000909169514974 0.00103632609049 0.00197347005208 0.00094731648763 0.00167465209961 0.000930786132812 0.00168100992839 0.00146357218424 0.00267028808594 0.00427118937174 0.00874455769857 0.0180269877116 0.0430552164714 0.0610415140788 0.621053059896 04
0.106548309326 0.0247141520182 0.0272738138835 0.0282427469889 0.024164835612 0.0196075439453 0.0147450764974 0.0119514465332 0.00974400838216 0.00714619954427 0.00504557291667 0.00439198811849 0.00335439046224 0.00447845458984 0.00275675455729 0.00366973876953 0.00227991739909 0.00325266520182 0.00274403889974 0.00432713826497 0.00686899820964 0.0143063863118 0.0245221455892 0.038511912028 0.0536321004232 0.551719665527 35
0.0978711446126 0.0400746663411 0.0229835510254 0.0192413330078 0.0144284566243 0.00998942057292 0.00718307495117 0.00584411621094 0.00363032023112 0.00216547648112 0.00146993001302 0.00120544433594 0.00164286295573 0.00231424967448 0.00175857543945 0.00192642211914 0.00138982137044 0.00163904825846 0.00112660725911 0.00152206420898 0.00190607706706 0.00442504882812 0.0121065775553 0.041374206543 0.0477752685547 0.653006235758 10
0.080317179362 0.0317789713542 0.0259666442871 0.0243123372396 0.0212084452311 0.018726348877 0.0166676839193 0.0164616902669 0.0144068400065 0.0110079447428 0.00777943929036 0.00600306193034 0.00432968139648 0.00390879313151 0.00238672892253 0.00325520833333 0.0024897257487 0.00333531697591 0.00300852457682 0.00415802001953 0.00543721516927 0.00990422566732 0.0186258951823 0.0372352600098 0.0511067708333 0.576182047526 20
0.041997273763 0.0348536173503 0.0128059387207 0.00771967569987 0.00663757324219 0.00741068522135 0.00939559936523 0.0139579772949 0.0200169881185 0.0251121520996 0.025089263916 0.0228322347005 0.0188051859538 0.0127766927083 0.00575510660807 0.00456746419271 0.00313059488932 0.00374348958333 0.00426610310872 0.00604629516602 0.00804901123047 0.0124092102051 0.0183474222819 0.027774810791 0.0473289489746 0.599170684814 26
0.0697758992513 0.0291264851888 0.0320358276367 0.0336570739746 0.030101776123 0.0262082417806 0.0218048095703 0.0184326171875 0.016185760498 0.0155868530273 0.013604482015 0.0102246602376 0.0060551961263 0.00380706787109 0.00210444132487 0.00273132324219 0.00270462036133 0.00455983479818 0.00569152832031 0.00829060872396 0.0117123921712 0.0174204508464 0.0237045288086 0.0334485371908 0.0576616923014 0.503363291423 17
0.0353507995605 0.0312805175781 0.0135180155436 0.010186513265 0.00795364379883 0.0078862508138 0.0097173055013 0.0138816833496 0.018856048584 0.0232391357422 0.026299794515 0.0309054056803 0.0344301859538 0.0187911987305 0.00704956054688 0.00501887003581 0.00334167480469 0.00365447998047 0.0037104288737 0.00525665283203 0.00728480021159 0.0119870503743 0.0174573262533 0.0258013407389 0.0415064493815 0.58563486735 36
0.0550409952799 0.0339749654134 0.026195526123 0.0255839029948 0.0240592956543 0.0201403299967 0.0163853963216 0.0141868591309 0.0140864054362 0.0146611531576 0.0132331848145 0.0108528137207 0.00739924112956 0.00567754109701 0.00342178344727 0.00359725952148 0.00306701660156 0.00396728515625 0.00425211588542 0.00577163696289 0.00814692179362 0.0133094787598 0.0222778320312 0.0315488179525 0.0539538065592 0.565208435059 06
0.0625292460124 0.0382614135742 0.0197003682454 0.0145899454753 0.0119705200195 0.0106862386068 0.0102831522624 0.0101725260417 0.0100161234538 0.00933837890625 0.0074577331543 0.00543085734049 0.00394566853841 0.00307846069336 0.00150553385417 0.00165557861328 0.000830332438151 0.00157165527344 0.000845591227214 0.00155512491862 0.00209299723307 0.00446446736654 0.0106442769368 0.0397745768229 0.0471649169922 0.670434315999 01
0.0555775960286 0.0302289326986 0.0218340555827 0.0201581319173 0.0201657613118 0.0214462280273 0.0228424072266 0.023858388265 0.0233942667643 0.0222358703613 0.0178349812826 0.0126660664876 0.00789260864258 0.00558471679688 0.00300979614258 0.00333404541016 0.00268173217773 0.00376637776693 0.00378163655599 0.00505065917969 0.00665156046549 0.011349995931 0.0195121765137 0.034678141276 0.048469543457 0.55199432373 24
0.0592180887858 0.0354588826497 0.0180676778158 0.0126469930013 0.00919596354167 0.00865173339844 0.00827026367188 0.00874964396159 0.0091438293457 0.00921376546224 0.00945027669271 0.00971476236979 0.0089594523112 0.00750096638997 0.00472895304362 0.00431696573893 0.00297164916992 0.00338617960612 0.00336201985677 0.00474548339844 0.00694910685221 0.0122896830241 0.020014444987 0.0319519042969 0.0497436523438 0.641297658285 15
0.0545845031738 0.0401344299316 0.0182609558105 0.0149192810059 0.0145645141602 0.0152104695638 0.0154546101888 0.0152778625488 0.013968149821 0.0123341878255 0.0094846089681 0.0071169535319 0.00446955362956 0.0035146077474 0.00187555948893 0.00232060750326 0.00138982137044 0.00232950846354 0.00219345092773 0.0033442179362 0.00485483805339 0.00954437255859 0.0178680419922 0.0367952982585 0.0527102152507 0.62547938029 19
0.0565846761068 0.0386810302734 0.0190060933431 0.0137354532878 0.0114110310872 0.0100695292155 0.00929260253906 0.00882720947266 0.00838851928711 0.00790405273438 0.00683085123698 0.00594838460286 0.00482050577799 0.00386810302734 0.00206756591797 0.00218963623047 0.00130208333333 0.00197728474935 0.00176874796549 0.00260543823242 0.00341924031576 0.00666681925456 0.014653523763 0.0383669535319 0.0494995117188 0.670115152995 13
0.0637016296387 0.0210558573405 0.0190251668294 0.0219370524089 0.0238571166992 0.021411895752 0.0179824829102 0.0166524251302 0.0153477986654 0.0139401753743 0.0105832417806 0.00721867879232 0.00531005859375 0.00513966878255 0.0034662882487 0.00369771321615 0.00276184082031 0.00346374511719 0.00318781534831 0.00403594970703 0.00508117675781 0.0096549987793 0.022268931071 0.0372924804688 0.0421142578125 0.599811553955 14
0.0488128662109 0.0380732218424 0.0138689676921 0.00875345865885 0.00710042317708 0.00679397583008 0.00743357340495 0.00890350341797 0.0103378295898 0.0103187561035 0.00947825113932 0.00903193155924 0.00713857014974 0.0059814453125 0.00352732340495 0.00322087605794 0.00232442220052 0.00289662679036 0.0024159749349 0.00317891438802 0.00403340657552 0.00716908772786 0.0148735046387 0.034657796224 0.0427831013997 0.686892191569 18
0.0791486104329 0.0360145568848 0.0300890604655 0.02556737264 0.0200996398926 0.0153719584147 0.0115636189779 0.00914510091146 0.00826644897461 0.00787099202474 0.00648752848307 0.00512186686198 0.00340143839518 0.00353368123372 0.00205485026042 0.00279871622721 0.00183741251628 0.0027109781901 0.00263977050781 0.00387064615885 0.00612258911133 0.0129941304525 0.0228551228841 0.0376536051432 0.0583915710449 0.58438873291 09
0.104715983073 0.0340665181478 0.0204213460286 0.0127207438151 0.00674947102865 0.00344594319661 0.00186538696289 0.0012092590332 0.000933329264323 0.000860850016276 0.000811258951823 0.000986735026042 0.0012461344401 0.00196202596029 0.000981648763021 0.00148391723633 0.000710805257161 0.00127665201823 0.000820159912109 0.00140380859375 0.0019416809082 0.00444793701172 0.0110689798991 0.0441080729167 0.0535519917806 0.686209360758 22
0.0599187215169 0.0391286214193 0.0200983683268 0.0138765970866 0.0109354654948 0.00954945882161 0.00894037882487 0.00938669840495 0.00989151000977 0.00940322875977 0.00887807210286 0.00795237223307 0.00607935587565 0.0048713684082 0.00279744466146 0.00297673543294 0.00232060750326 0.00291061401367 0.00291951497396 0.00423177083333 0.00610860188802 0.010804494222 0.0182940165202 0.0327809651693 0.0504239400228 0.644521077474 27
0.0812136332194 0.0335744222005 0.0212529500326 0.0198224385579 0.0200843811035 0.0226275126139 0.0265019734701 0.0311749776204 0.0277875264486 0.0161972045898 0.00675964355469 0.00308736165365 0.00248209635417 0.00316874186198 0.00222524007161 0.00277837117513 0.00202560424805 0.00253677368164 0.00219853719076 0.0030263264974 0.00445175170898 0.0100326538086 0.0213966369629 0.0367240905762 0.0525856018066 0.544283548991 11
0.0491307576497 0.0258127848307 0.023250579834 0.0240783691406 0.0251083374023 0.0249328613281 0.0239194234212 0.0228576660156 0.021536509196 0.0214284261068 0.0220565795898 0.0195744832357 0.013557434082 0.0097173055013 0.00650787353516 0.0060780843099 0.00522104899089 0.00599924723307 0.00630315144857 0.00807825724284 0.0104064941406 0.0146446228027 0.0211372375488 0.0297393798828 0.0500157674154 0.508907318115 02
0.0594724019368 0.0310249328613 0.0253562927246 0.019598642985 0.0147349039714 0.0116424560547 0.00927225748698 0.00805028279622 0.00767135620117 0.00722503662109 0.00702031453451 0.00681686401367 0.00564702351888 0.00539906819661 0.00401433308919 0.00426483154297 0.00371932983398 0.0044911702474 0.00466918945312 0.0057856241862 0.00746790568034 0.0116589864095 0.022159576416 0.0362485249837 0.0450286865234 0.631560007731 23
0.0726000467936 0.0367914835612 0.0295562744141 0.028330485026 0.0252914428711 0.0203870137533 0.014108022054 0.0093510945638 0.00819269816081 0.00771713256836 0.00571695963542 0.00344975789388 0.00214513142904 0.00231424967448 0.00126139322917 0.00212732950846 0.00161870320638 0.00239054361979 0.00203704833984 0.00304158528646 0.00462468465169 0.00876871744792 0.0166422526042 0.038569132487 0.0504684448242 0.602498372396 34
0.0758743286133 0.0337689717611 0.0283050537109 0.0293273925781 0.0267842610677 0.021656036377 0.0157063802083 0.0125389099121 0.0124003092448 0.0114339192708 0.00716654459635 0.0047607421875 0.00317001342773 0.00304158528646 0.00146102905273 0.00213495890299 0.00140762329102 0.00245157877604 0.00250244140625 0.00395584106445 0.00563685099284 0.011422475179 0.0213686625163 0.0354614257812 0.0567639668783 0.569498697917 37
0.0656293233236 0.0344619750977 0.029296875 0.0268287658691 0.0242830912272 0.0214347839355 0.0191357930501 0.0177892049154 0.01642481486 0.0150260925293 0.0137837727865 0.0116704305013 0.00846354166667 0.00633748372396 0.00433349609375 0.00481541951497 0.00370025634766 0.00425847371419 0.00407409667969 0.00542195638021 0.0072873433431 0.0122947692871 0.0200424194336 0.0325622558594 0.0496826171875 0.540960947673 07
0.0474815368652 0.0341555277507 0.018809000651 0.0155436197917 0.01318359375 0.0111618041992 0.00942993164062 0.00845845540365 0.0078010559082 0.00767135620117 0.00846354166667 0.00828552246094 0.00662740071615 0.00544357299805 0.00351079305013 0.00342305501302 0.00243123372396 0.00274912516276 0.00268046061198 0.00360234578451 0.00512568155924 0.00897089640299 0.0169245402018 0.0345141092936 0.0476989746094 0.665852864583 03
0.0479062398275 0.0303586324056 0.0267842610677 0.0258382161458 0.0226694742839 0.0199305216471 0.0170834859212 0.0156606038411 0.014476776123 0.0141258239746 0.0135396321615 0.0127029418945 0.0108960469564 0.0084597269694 0.00476328531901 0.00406901041667 0.00284067789714 0.00361887613932 0.00368881225586 0.00492858886719 0.00721104939779 0.0114936828613 0.0191345214844 0.0339279174805 0.0437978108724 0.580093383789 08
0.0963643391927 0.0438855489095 0.0291455586751 0.0259666442871 0.0213750203451 0.0159606933594 0.0119069417318 0.00906244913737 0.00659688313802 0.00417455037435 0.00219217936198 0.00145594278971 0.00140889485677 0.0023307800293 0.00155258178711 0.00267028808594 0.00244776407878 0.00311279296875 0.00291697184245 0.00338490804036 0.00426610310872 0.00804011027018 0.0162175496419 0.040168762207 0.0543581644694 0.589037577311 16
0.100803375244 0.0361150105794 0.0289103190104 0.0200169881185 0.0120048522949 0.00630696614583 0.00374348958333 0.00262959798177 0.00181579589844 0.00141398111979 0.00114822387695 0.00117492675781 0.0014902750651 0.00254567464193 0.00149663289388 0.00227610270182 0.00160853068034 0.00249226888021 0.00192006429036 0.00304667154948 0.00383631388346 0.00716654459635 0.0156949361165 0.0416933695475 0.0551694234212 0.64347966512 12
0.0485432942708 0.0209477742513 0.0233472188314 0.0254554748535 0.0256093343099 0.0275764465332 0.0281613667806 0.0280825297038 0.0270309448242 0.025931040446 0.0231628417969 0.0182902018229 0.0129216512044 0.00943247477214 0.00614674886068 0.00618235270182 0.00521977742513 0.00664774576823 0.00726445515951 0.00965881347656 0.0120582580566 0.015687306722 0.0205319722493 0.028803507487 0.056209564209 0.481096903483 29
0.0598920186361 0.0289141337077 0.0189056396484 0.0186754862467 0.0196406046549 0.0203132629395 0.0203819274902 0.0193354288737 0.0177434285482 0.0148722330729 0.00958760579427 0.00637435913086 0.0053342183431 0.00479888916016 0.00259653727214 0.00303522745768 0.00208409627279 0.00250371297201 0.00244522094727 0.00339762369792 0.00428136189779 0.00764465332031 0.0146064758301 0.0356305440267 0.0455551147461 0.611450195312 30
0.106475830078 0.0446281433105 0.0253117879232 0.0166727701823 0.00924555460612 0.00399907430013 0.00152079264323 0.000830332438151 0.000657399495443 0.000483194986979 0.000255584716797 0.000209808349609 0.000324249267578 0.0010986328125 0.00024159749349 0.000906626383464 0.000204722086589 0.000812530517578 0.000385284423828 0.000904083251953 0.00116856892904 0.00329081217448 0.00976943969727 0.0453389485677 0.0555152893066 0.669748942057 05
0.0992698669434 0.0391044616699 0.0251197814941 0.0169639587402 0.00951258341471 0.00536727905273 0.00357945760091 0.00251007080078 0.00206756591797 0.00163014729818 0.00145467122396 0.00134658813477 0.00129063924154 0.00213368733724 0.000966389973958 0.00166702270508 0.000942230224609 0.00159581502279 0.00132878621419 0.00233840942383 0.00384902954102 0.00851440429688 0.0175565083822 0.0421295166016 0.0612398783366 0.646521250407 33
0.107622782389 0.0284118652344 0.0268859863281 0.0254745483398 0.0210456848145 0.0159378051758 0.0118217468262 0.00908533732096 0.00739924112956 0.0058848063151 0.00493621826172 0.00477727254232 0.00484975179036 0.0050532023112 0.00332260131836 0.0030034383138 0.00164159138997 0.00229136149089 0.00240198771159 0.00421778361003 0.00693893432617 0.0142313639323 0.025697072347 0.0386810302734 0.0583801269531 0.560006459554 35
0.0728937784831 0.0288632710775 0.0265680948893 0.025156656901 0.0230967203776 0.0205485026042 0.0190111796061 0.0173212687174 0.0154202779134 0.0138956705729 0.0123736063639 0.0107498168945 0.00901794433594 0.00674565633138 0.00293986002604 0.00276565551758 0.00190099080404 0.00291570027669 0.00306955973307 0.00457000732422 0.00612386067708 0.0116449991862 0.0212084452311 0.0318031311035 0.054012298584 0.555383046468 25
0.0544370015462 0.0261878967285 0.0203488667806 0.019416809082 0.0201746622721 0.0222676595052 0.0229187011719 0.0240135192871 0.0243047078451 0.0236803690592 0.0200373331706 0.0138142903646 0.00771967569987 0.00564193725586 0.00358963012695 0.00387573242188 0.0030403137207 0.00420252482096 0.00432840983073 0.0056635538737 0.00691986083984 0.0108578999837 0.0183931986491 0.0333607991536 0.0456555684408 0.555149078369 28
0.102102915446 0.0277837117513 0.0257085164388 0.0223096211751 0.0176912943522 0.0133145650228 0.0106163024902 0.00904973347982 0.00696309407552 0.00519688924154 0.00346247355143 0.00231552124023 0.00169118245443 0.00236129760742 0.00126012166341 0.0019048055013 0.00119400024414 0.00198237101237 0.00164922078451 0.00244776407878 0.00385157267253 0.00852839152018 0.0196533203125 0.0383516947428 0.0560340881348 0.612575531006 31
0.0694465637207 0.0307464599609 0.0338389078776 0.0348192850749 0.0296363830566 0.024117787679 0.0194422403971 0.0170466105143 0.0153528849284 0.0135027567546 0.0110079447428 0.00827662150065 0.00518925984701 0.00359471638997 0.00180943806966 0.00284576416016 0.00261688232422 0.00448099772135 0.00536346435547 0.0077387491862 0.0106366475423 0.0158704121908 0.0215937296549 0.0343844095866 0.0566266377767 0.520014444987 17
0.113864898682 0.0249010721842 0.0252825419108 0.0245717366536 0.0191319783529 0.0147717793783 0.0115165710449 0.00932820638021 0.00735727945964 0.0045903523763 0.00281143188477 0.00217819213867 0.00221888224284 0.00283177693685 0.00157801310221 0.00224049886068 0.00134023030599 0.00212860107422 0.00153986612956 0.00242360432943 0.00345102945964 0.00690841674805 0.0149561564128 0.0401395161947 0.0518595377604 0.606077829997 21
0.0621287027995 0.0382664998372 0.0202598571777 0.0150299072266 0.0128135681152 0.0123812357585 0.0121688842773 0.0119603474935 0.0114949544271 0.00994237263997 0.0084114074707 0.0083122253418 0.00734074910482 0.0060780843099 0.00357818603516 0.00372314453125 0.00241470336914 0.0030034383138 0.00254821777344 0.0035883585612 0.00482432047526 0.0103327433268 0.0196050008138 0.0339660644531 0.0514030456543 0.624423980713 32
0.111604054769 0.032346089681 0.0302416483561 0.0258763631185 0.0210189819336 0.0148658752441 0.0091438293457 0.0056406656901 0.00459289550781 0.00331242879232 0.00139617919922 0.000706990559896 0.000733693440755 0.00164794921875 0.000906626383464 0.00185267130534 0.00109608968099 0.00172932942708 0.00160725911458 0.00286102294922 0.00471878051758 0.009765625 0.0196634928385 0.0431493123372 0.0616594950358 0.587862650553 04
0.0743179321289 0.0444107055664 0.020268758138 0.0157483418783 0.0137036641439 0.0119476318359 0.0105361938477 0.00967915852865 0.00711186726888 0.00496164957682 0.00304794311523 0.0024159749349 0.00193150838216 0.00240707397461 0.00146230061849 0.00199254353841 0.00122197469076 0.00174077351888 0.00110244750977 0.00182215372721 0.00232187906901 0.00468571980794 0.0122782389323 0.0406290690104 0.0463155110677 0.661938985189 10
0.0412279764811 0.0309321085612 0.0147857666016 0.0106290181478 0.00907135009766 0.00937906901042 0.0118611653646 0.0182838439941 0.02849706014 0.0379130045573 0.038766225179 0.031608581543 0.0198173522949 0.0110956827799 0.00524266560872 0.00435256958008 0.00329335530599 0.00394566853841 0.00438054402669 0.00622685750326 0.00870513916016 0.0132280985514 0.0188573201497 0.0272153218587 0.0485369364421 0.542147318522 26
0.0564651489258 0.0350926717122 0.0240631103516 0.0196380615234 0.0173645019531 0.0167414347331 0.0166104634603 0.0158284505208 0.0152575174967 0.0154596964518 0.014035542806 0.0111338297526 0.00803375244141 0.00538889567057 0.00299072265625 0.00278091430664 0.00205739339193 0.00263468424479 0.00291315714518 0.0039800008138 0.00533803304036 0.00921503702799 0.0160725911458 0.0368220011393 0.0482063293457 0.595876057943 24
0.0351829528809 0.0301450093587 0.0134290059408 0.00954182942708 0.00802485148112 0.0081532796224 0.0114924112956 0.0173683166504 0.0240364074707 0.0280927022298 0.0294850667318 0.0350112915039 0.0370279947917 0.0189628601074 0.00691731770833 0.00522740681966 0.00366592407227 0.00387954711914 0.00367482503255 0.00536855061849 0.00751113891602 0.0105298360189 0.0159950256348 0.0260289510091 0.0407752990723 0.564472198486 36
0.0929476420085 0.0315767923991 0.0167083740234 0.00804265340169 0.00313059488932 0.00123341878255 0.000555674235026 0.000386555989583 0.000284830729167 0.000250498453776 0.000329335530599 0.000525156656901 0.000760396321615 0.00146738688151 0.000438690185547 0.00109990437826 0.000372568766276 0.0009765625 0.000480651855469 0.000988006591797 0.00117365519206 0.00290552775065 0.00779724121094 0.044911702474 0.0542577107747 0.726398468018 22
0.0614687601725 0.0229581197103 0.0191942850749 0.0193290710449 0.0149180094401 0.00934600830078 0.00620524088542 0.0052007039388 0.00491333007812 0.0049196879069 0.00502522786458 0.00541432698568 0.00522232055664 0.00537618001302 0.00430425008138 0.00442250569661 0.00355402628581 0.00411732991536 0.00388844807943 0.00504430135091 0.00667572021484 0.012929280599 0.0259234110514 0.0369936625163 0.0448532104492 0.657802581787 14
0.0863558451335 0.0363744099935 0.0258572896322 0.0199724833171 0.0137430826823 0.00946807861328 0.00689188639323 0.00585683186849 0.00543340047201 0.00461705525716 0.00365447998047 0.00388844807943 0.00382995605469 0.00463994344076 0.00307083129883 0.00357945760091 0.0023930867513 0.00293858846029 0.00232187906901 0.00298182169596 0.00399780273438 0.00808080037435 0.0161921183268 0.0381978352865 0.0492324829102 0.636430104574 20
0.0584996541341 0.0368359883626 0.0260798136393 0.0238863627116 0.0207748413086 0.0178680419922 0.0147399902344 0.0128924051921 0.0124155680339 0.0114606221517 0.00924428304036 0.00646464029948 0.00428644816081 0.00393676757812 0.00230153401693 0.0026969909668 0.00203196207682 0.00289408365885 0.00286992390951 0.00414657592773 0.00583775838216 0.0108998616536 0.0187873840332 0.0350748697917 0.0521952311198 0.600878397624 06
0.0676129659017 0.0315081278483 0.0183385213216 0.0150782267253 0.013053894043 0.0113436381022 0.00943883260091 0.00865936279297 0.00790278116862 0.00739034016927 0.00663757324219 0.00608825683594 0.00501251220703 0.00465901692708 0.00320943196615 0.00348154703776 0.00267918904622 0.00316111246745 0.00287119547526 0.00403467814128 0.00570805867513 0.0105463663737 0.0199152628581 0.0340487162272 0.0515556335449 0.646064758301 15
0.0683581034342 0.0312741597493 0.0207341512044 0.0194994608561 0.0194511413574 0.0221366882324 0.0273882548014 0.0368690490723 0.0402793884277 0.0282897949219 0.013193766276 0.00547536214193 0.00251642862956 0.00272115071615 0.00186157226562 0.00254185994466 0.00197347005208 0.00276056925456 0.00256856282552 0.00344085693359 0.00493876139323 0.0104242960612 0.0210049947103 0.036496480306 0.0536638895671 0.520137786865 11
0.0650278727214 0.0307947794596 0.0203450520833 0.0156707763672 0.0109087626139 0.00809097290039 0.0062624613444 0.00533548990885 0.00461705525716 0.00429280598958 0.00358708699544 0.00322087605794 0.00274022420247 0.00275293986003 0.00173568725586 0.00223286946615 0.00165557861328 0.00241343180339 0.00221506754557 0.00295639038086 0.0036506652832 0.00715001424154 0.0161145528158 0.0384661356608 0.0503196716309 0.687442779541 13
0.054271697998 0.0384076436361 0.0133641560872 0.0103022257487 0.00983174641927 0.00965627034505 0.0092658996582 0.00996271769206 0.0107269287109 0.00967025756836 0.00745900472005 0.00654729207357 0.00527318318685 0.0042355855306 0.00247065226237 0.00255076090495 0.00173568725586 0.00189971923828 0.00187174479167 0.00235875447591 0.00312296549479 0.00522104899089 0.0114402770996 0.0372797648112 0.0433578491211 0.687716166178 27
0.0515619913737 0.0286356608073 0.0250956217448 0.0256690979004 0.0268821716309 0.0264066060384 0.0238507588704 0.0197041829427 0.0175959269206 0.0172576904297 0.0169041951497 0.0158462524414 0.0107358296712 0.00657272338867 0.00381342569987 0.00372568766276 0.00315602620443 0.00430043538411 0.00455220540365 0.00613657633464 0.00804646809896 0.0130945841471 0.0203717549642 0.0327021280924 0.0504086812337 0.536973317464 02
0.0746180216471 0.036314646403 0.0210291544596 0.0169690450033 0.0142771402995 0.0126647949219 0.0113805135091 0.0110905965169 0.00975926717122 0.00764846801758 0.0051752726237 0.00341415405273 0.00202178955078 0.00196838378906 0.000770568847656 0.00117492675781 0.000474294026693 0.00101089477539 0.000568389892578 0.0012092590332 0.00169499715169 0.00432205200195 0.0112520853678 0.0415878295898 0.0505167643229 0.657086690267 01
0.0908864339193 0.0308609008789 0.0252621968587 0.0223045349121 0.0177688598633 0.0118726094564 0.00720596313477 0.00433476765951 0.00350443522135 0.00260925292969 0.00185394287109 0.00166193644206 0.00168736775716 0.00249862670898 0.001220703125 0.00189971923828 0.00122578938802 0.00214131673177 0.00188700358073 0.0031255086263 0.00399653116862 0.00714619954427 0.0148061116536 0.0391006469727 0.0517641703288 0.647374471029 19
0.0493774414062 0.0359433492025 0.0214474995931 0.0184491475423 0.0154495239258 0.0127105712891 0.0101153055827 0.00835927327474 0.00690205891927 0.0064328511556 0.00569534301758 0.00543085734049 0.00445810953776 0.00335057576497 0.00178400675456 0.00204467773438 0.0013427734375 0.0018679300944 0.00146611531576 0.00209172566732 0.00257110595703 0.00493748982747 0.0118103027344 0.0379969278971 0.0445620218913 0.683403015137 18
0.0782330830892 0.0379842122396 0.0266927083333 0.0236460367839 0.0209515889486 0.0182914733887 0.0146306355794 0.0115509033203 0.00981140136719 0.0087521870931 0.00699996948242 0.00490442911784 0.00311533610026 0.00305684407552 0.00193150838216 0.00261561075846 0.0019162495931 0.00273005167643 0.00241088867188 0.00368626912435 0.0054079691569 0.0111694335938 0.0217399597168 0.0379308064779 0.0557530721029 0.584087371826 09
0.0598843892415 0.0334205627441 0.0267855326335 0.0253537495931 0.0233942667643 0.0207443237305 0.0186322530111 0.0177307128906 0.0171737670898 0.0171508789062 0.0164222717285 0.0146013895671 0.00998179117839 0.00597254435221 0.00315221150716 0.00314331054688 0.00237274169922 0.0029780069987 0.00305302937826 0.0039545694987 0.00527318318685 0.00965245564779 0.01788965861 0.0348332722982 0.0477244059245 0.558724721273 07
0.0651473999023 0.0342381795247 0.0282503763835 0.0275904337565 0.0250956217448 0.0210469563802 0.0160903930664 0.0124537150065 0.0111656188965 0.0106290181478 0.00861740112305 0.00583775838216 0.00356674194336 0.00292078653971 0.00185902913411 0.00246556599935 0.00209808349609 0.00289662679036 0.00289916992188 0.00414276123047 0.00555928548177 0.00990676879883 0.0176684061686 0.0368423461914 0.0486717224121 0.592339833577 34
0.0420341491699 0.0359980265299 0.0146738688151 0.00771204630534 0.00660451253255 0.00754547119141 0.0091667175293 0.010425567627 0.0127970377604 0.0163141886393 0.0185724894206 0.016476949056 0.0107816060384 0.00746027628581 0.00452295939128 0.00389607747396 0.00253423055013 0.00256474812826 0.00211461385091 0.00231806437174 0.0028444925944 0.00487645467122 0.0105044047038 0.033499399821 0.0386568705241 0.675104777018 03
0.0638097127279 0.0344467163086 0.0240516662598 0.0243631998698 0.0246149698893 0.023001352946 0.0206031799316 0.0183118184408 0.0171318054199 0.015079498291 0.0104166666667 0.00712585449219 0.00456237792969 0.0030517578125 0.00180053710938 0.00218454996745 0.00163014729818 0.00263341267904 0.00255330403646 0.00385920206706 0.0052235921224 0.00960922241211 0.0180524190267 0.0335909525553 0.0502230326335 0.578069051107 37
0.105996449788 0.0282847086589 0.0293846130371 0.0288950602214 0.0245806376139 0.0193277994792 0.0152498881022 0.0115051269531 0.00816090901693 0.00575764973958 0.00377146402995 0.00228118896484 0.00186411539714 0.0025749206543 0.00180689493815 0.00274912516276 0.0020637512207 0.0031992594401 0.0032704671224 0.00448099772135 0.00656000773112 0.0120760599772 0.0208981831868 0.0390548706055 0.0582453409831 0.557960510254 16
0.095225016276 0.0358899434408 0.0295956929525 0.0196278889974 0.0111757914225 0.00612767537435 0.00369135538737 0.00264485677083 0.00215021769206 0.00185902913411 0.00160725911458 0.00171788533529 0.00196838378906 0.00266138712565 0.00173695882161 0.0026601155599 0.00205866495768 0.00319798787435 0.00314076741536 0.00483957926432 0.00708262125651 0.0132026672363 0.0228220621745 0.0389022827148 0.0619697570801 0.622444152832 12
0.0541559855143 0.0243835449219 0.0245628356934 0.0245768229167 0.0216471354167 0.0175018310547 0.0136934916178 0.011163075765 0.00954437255859 0.0084228515625 0.00696436564128 0.00565083821615 0.0045420328776 0.0040651957194 0.0026486714681 0.0027961730957 0.00212860107422 0.0027338663737 0.00263595581055 0.00395584106445 0.00615819295247 0.0113716125488 0.0218048095703 0.0357564290365 0.0515696207682 0.625565846761 29
0.0526860555013 0.0386339823405 0.0150082906087 0.0107841491699 0.0102678934733 0.012154897054 0.0154927571615 0.0202102661133 0.0243403116862 0.0249112447103 0.0195337931315 0.0124104817708 0.00759251912435 0.0055300394694 0.00306955973307 0.00268173217773 0.00190989176432 0.00221506754557 0.00215403238932 0.00294494628906 0.00454839070638 0.00828679402669 0.0160242716471 0.0354448954264 0.0464070638021 0.604756673177 30
0.0597292582194 0.0283063252767 0.0243771870931 0.0217742919922 0.0197347005208 0.0184020996094 0.0162811279297 0.0144170125326 0.0129750569661 0.0123125712077 0.0113741556803 0.00995000203451 0.00771458943685 0.00616073608398 0.00431569417318 0.00421905517578 0.0035400390625 0.00444539388021 0.00464375813802 0.00581868489583 0.00725428263346 0.011531829834 0.0216255187988 0.0363426208496 0.0465075174967 0.586246490479 23
0.0515581766764 0.0329310099284 0.0259043375651 0.0238367716471 0.0197321573893 0.0167414347331 0.0135498046875 0.0121752421061 0.0112609863281 0.0105120340983 0.00973510742188 0.00902684529622 0.00784556070964 0.00619506835938 0.00367482503255 0.00337346394857 0.00234985351562 0.00308100382487 0.00312932332357 0.00475184122721 0.00690333048503 0.0118980407715 0.0193138122559 0.0349820454915 0.0470911661784 0.608446756999 08
0.112920125326 0.0362726847331 0.0303649902344 0.0209185282389 0.0121065775553 0.00584030151367 0.00242233276367 0.00120035807292 0.000968933105469 0.000771840413411 0.000487009684245 0.000306447347005 0.000392913818359 0.00131352742513 0.000401814778646 0.00118128458659 0.00045903523763 0.00127029418945 0.000893910725911 0.00190989176432 0.0033327738444 0.00931040445964 0.0214385986328 0.0439516703288 0.0668233235677 0.622740427653 05
0.0853576660156 0.0431175231934 0.0210558573405 0.0139503479004 0.00882339477539 0.00581614176432 0.00360361735026 0.00255584716797 0.00189590454102 0.00154240926107 0.00142288208008 0.00177892049154 0.0020866394043 0.00258509318034 0.00143686930339 0.00190353393555 0.00107828776042 0.00173695882161 0.00132624308268 0.00214258829753 0.00298690795898 0.00710169474284 0.0171724955241 0.041810353597 0.0591901143392 0.666521708171 33
0.0715166727702 0.0369059244792 0.0211550394694 0.0182609558105 0.0172856648763 0.017640431722 0.0182342529297 0.0182838439941 0.0164972941081 0.0126584370931 0.00843175252279 0.00548426310221 0.00387318929036 0.00327555338542 0.00212605794271 0.00218073527018 0.00159072875977 0.00211970011393 0.00177383422852 0.00257619222005 0.00328826904297 0.00664393107096 0.0146230061849 0.0388031005859 0.0489285786947 0.605842590332 31
0.0744616190592 0.028128306071 0.0249506632487 0.0245819091797 0.0248705546061 0.0246327718099 0.0252126057943 0.0228958129883 0.0207354227702 0.0172538757324 0.0113461812337 0.00628662109375 0.00316874186198 0.00279235839844 0.00171661376953 0.00225702921549 0.00173060099284 0.00250244140625 0.00258763631185 0.00395838419596 0.00572077433268 0.0121523539225 0.021853129069 0.0313784281413 0.0548235575358 0.548001607259 25
0.116882324219 0.0204327901204 0.0191548665365 0.0175514221191 0.0130081176758 0.0100021362305 0.00824228922526 0.00719451904297 0.00564702351888 0.00374348958333 0.00236129760742 0.00177001953125 0.00179290771484 0.00217946370443 0.00103632609049 0.00151697794596 0.000893910725911 0.00145594278971 0.000990549723307 0.00163014729818 0.00227228800456 0.00474675496419 0.012259165446 0.0402717590332 0.0525271097819 0.650436401367 21
0.0994606018066 0.0285669962565 0.0282707214355 0.0282541910807 0.0239715576172 0.0199139912923 0.0158030192057 0.0130132039388 0.0113093058268 0.00875981648763 0.0067876180013 0.0067507425944 0.00649897257487 0.00730768839518 0.0048573811849 0.00438817342122 0.00256220499674 0.0029042561849 0.00255584716797 0.00383631388346 0.00629552205404 0.012326558431 0.0234057108561 0.0375010172526 0.0529721577962 0.541726430257 35
0.0526657104492 0.0313034057617 0.0197474161784 0.0146230061849 0.0110931396484 0.00924301147461 0.00811131795247 0.00739161173503 0.00702412923177 0.00733311971029 0.00722376505534 0.00577926635742 0.00414148966471 0.00365447998047 0.00204467773438 0.00245539347331 0.00168863932292 0.00264739990234 0.00255076090495 0.00389353434245 0.00548934936523 0.00967788696289 0.0179354349772 0.0356165568034 0.0517018636068 0.674963633219 28
0.0994974772135 0.0333976745605 0.0310719807943 0.0274238586426 0.0222676595052 0.0154558817546 0.0106341044108 0.00831476847331 0.00663248697917 0.00483576456706 0.00269953409831 0.00163269042969 0.0010732014974 0.00196202596029 0.000990549723307 0.0018424987793 0.00117111206055 0.00200525919596 0.00203069051107 0.00335439046224 0.00539143880208 0.0110092163086 0.020336151123 0.0417938232422 0.0609029134115 0.582272847493 04
0.0604349772135 0.0341453552246 0.0210520426432 0.0180180867513 0.0158411661784 0.013069152832 0.0104281107585 0.00818379720052 0.00681304931641 0.00624338785807 0.00509389241536 0.0040028889974 0.00323486328125 0.0029296875 0.00151570638021 0.00184377034505 0.00108083089193 0.00174840291341 0.00150934855143 0.00223668416341 0.00313822428385 0.0059700012207 0.0124626159668 0.039306640625 0.0460789998372 0.67361831665 24
0.106772104899 0.0331217447917 0.0233523050944 0.0211092631022 0.017630259196 0.014149983724 0.0118535359701 0.0107536315918 0.0077641805013 0.00423685709635 0.00190989176432 0.00112152099609 0.000990549723307 0.00187301635742 0.000985463460286 0.00177256266276 0.000977834065755 0.00168863932292 0.00128809611003 0.00222524007161 0.00317891438802 0.00718053181966 0.017084757487 0.0417048136393 0.0529670715332 0.612307230632 10
0.061715443929 0.0296351114909 0.0326194763184 0.0316009521484 0.027650197347 0.0237744649251 0.0201212565104 0.0177218119303 0.0157470703125 0.0146903991699 0.0138320922852 0.0111719767253 0.00756708780924 0.00564575195312 0.00362904866536 0.00410842895508 0.00377400716146 0.00481287638346 0.00481033325195 0.0064582824707 0.00853220621745 0.0129013061523 0.0193201700846 0.033566792806 0.0484250386556 0.536168416341 17
0.0533650716146 0.0375595092773 0.0154266357422 0.0116856892904 0.0106023152669 0.00965118408203 0.00964864095052 0.010560353597 0.0114212036133 0.0112813313802 0.0105196634928 0.01007715861 0.00815709431966 0.00603866577148 0.00356674194336 0.00323486328125 0.00209172566732 0.00255076090495 0.00193659464518 0.00267664591471 0.00351587931315 0.00639470418294 0.0130767822266 0.0370712280273 0.0448722839355 0.663017272949 32
0.036558787028 0.0308367411296 0.0146509806315 0.01171875 0.00989405314128 0.010082244873 0.0121485392253 0.0161323547363 0.0204162597656 0.0239194234212 0.0250574747721 0.0297686258952 0.033021291097 0.0190544128418 0.00825119018555 0.00546391805013 0.00348663330078 0.00348790486654 0.00322977701823 0.00435129801432 0.00564702351888 0.00981012980143 0.0177141825358 0.0289560953776 0.0402514139811 0.576090494792 36
0.0403671264648 0.0315183003743 0.0157216389974 0.0104967753092 0.00838851928711 0.00813802083333 0.00963338216146 0.0146001180013 0.0230890909831 0.0314674377441 0.0324465433757 0.0295333862305 0.0238431294759 0.0143496195475 0.00614293416341 0.00483830769857 0.00345738728841 0.00425974527995 0.00525665283203 0.00783157348633 0.0108210245768 0.014289855957 0.018611907959 0.0237948099772 0.0476404825846 0.559462229411 26
0.0730196634928 0.0313301086426 0.0204620361328 0.0189730326335 0.0171953837077 0.0154520670573 0.0127766927083 0.0106671651204 0.00983683268229 0.00925445556641 0.0078010559082 0.0066172281901 0.00508499145508 0.00471496582031 0.00281397501628 0.00312932332357 0.00208409627279 0.00292332967122 0.00286610921224 0.00447591145833 0.00683212280273 0.0132827758789 0.0225537618001 0.0319391886393 0.0555648803711 0.608348846436 15
0.056084950765 0.0380744934082 0.0196774800618 0.0114008585612 0.00843811035156 0.00780487060547 0.00762939453125 0.0074094136556 0.0069580078125 0.00652186075846 0.00567372639974 0.00485992431641 0.00368245442708 0.00353368123372 0.00176874796549 0.00222905476888 0.00128555297852 0.00203704833984 0.00161616007487 0.00240325927734 0.00332387288411 0.00641632080078 0.0148696899414 0.0387878417969 0.0490417480469 0.688471476237 13
0.0551528930664 0.0352643330892 0.0268414815267 0.0263442993164 0.0230255126953 0.0195236206055 0.0160573323568 0.0140965779622 0.0139287312826 0.0139656066895 0.0129381815592 0.0101826985677 0.00691350301107 0.00483957926432 0.00295893351237 0.00331242879232 0.00279235839844 0.00375239054362 0.0041135152181 0.00592803955078 0.00795110066732 0.0125427246094 0.020383199056 0.0318158467611 0.0522130330404 0.573162078857 06
0.0635108947754 0.0196520487467 0.0183080037435 0.0210151672363 0.0201237996419 0.0148607889811 0.010196685791 0.00792058308919 0.00675964355469 0.00638198852539 0.0061518351237 0.00653966267904 0.00598653157552 0.00601196289062 0.0043093363444 0.00431060791016 0.00347900390625 0.00408554077148 0.00389099121094 0.00498708089193 0.00649007161458 0.0119946797689 0.0246696472168 0.036319732666 0.0429356892904 0.639108022054 14
0.0476417541504 0.0287679036458 0.0221799214681 0.0207316080729 0.0217793782552 0.0238749186198 0.0239232381185 0.022528330485 0.0202496846517 0.0190340677897 0.0188179016113 0.0154177347819 0.0100084940592 0.00716400146484 0.00518163045247 0.00535074869792 0.00489934285482 0.00606536865234 0.00616073608398 0.00790532430013 0.00970204671224 0.0133361816406 0.0194180806478 0.0309257507324 0.0481071472168 0.540828704834 02
0.0572954813639 0.0385030110677 0.0249150594076 0.0178286234538 0.0143979390462 0.0127182006836 0.0136655171712 0.0162099202474 0.0183308919271 0.0193367004395 0.0174293518066 0.014341990153 0.0104497273763 0.00638961791992 0.00347900390625 0.00337727864583 0.00270589192708 0.00368372599284 0.00397745768229 0.00612258911133 0.00937779744466 0.0155690511068 0.0217297871908 0.0287017822266 0.0564931233724 0.562970479329 01
0.075133005778 0.0391044616699 0.0205853780111 0.0174763997396 0.0171635945638 0.0179506937663 0.020689646403 0.0248743693034 0.0228716532389 0.0148900349935 0.00780232747396 0.00487645467122 0.00334294637044 0.0041135152181 0.00204849243164 0.00292078653971 0.0017573038737 0.00224431355794 0.00192896525065 0.00280507405599 0.00355784098307 0.00826644897461 0.0184084574382 0.0378138224284 0.0489451090495 0.578428904215 11
0.110964457194 0.0361582438151 0.0223121643066 0.0127919514974 0.00626881917318 0.00273513793945 0.00138219197591 0.000823974609375 0.00063959757487 0.000570933024089 0.000544230143229 0.000631968180339 0.000905354817708 0.00162887573242 0.000752766927083 0.00135294596354 0.000629425048828 0.00130462646484 0.000750223795573 0.00130208333333 0.00153605143229 0.00371805826823 0.00959142049154 0.0446243286133 0.0531069437663 0.682973225911 22
0.0714289347331 0.0374870300293 0.0292778015137 0.0245539347331 0.0185979207357 0.0143852233887 0.0108057657878 0.00923919677734 0.00864919026693 0.00834147135417 0.00717417399089 0.00599034627279 0.00384648640951 0.00325647989909 0.00201924641927 0.00244013468424 0.00187683105469 0.00223159790039 0.00242233276367 0.00347646077474 0.00539143880208 0.0110766092936 0.0215873718262 0.0375417073568 0.0568542480469 0.600048065186 09
0.0564994812012 0.0328025817871 0.0129089355469 0.0109176635742 0.0127334594727 0.0144348144531 0.0115165710449 0.00911331176758 0.00721232096354 0.00548044840495 0.00425974527995 0.00349044799805 0.00270080566406 0.00290044148763 0.00155131022135 0.00204467773438 0.00123723347982 0.00164794921875 0.00175476074219 0.00246302286784 0.00322341918945 0.00647735595703 0.0147933959961 0.0351270039876 0.0455449422201 0.69716389974 27
0.0648562113444 0.0346908569336 0.0287157694499 0.0272420247396 0.0243250528971 0.0192705790202 0.0145136515299 0.0115839640299 0.0101826985677 0.0098139444987 0.00816218058268 0.00543340047201 0.00314076741536 0.00297419230143 0.00185521443685 0.00264231363932 0.00217564900716 0.00322087605794 0.00311787923177 0.00413640340169 0.00554911295573 0.0101051330566 0.0178197224935 0.0367101033529 0.0481910705566 0.599571228027 34
0.0645612080892 0.0397771199544 0.0188344319661 0.0116132100423 0.00833511352539 0.00725428263346 0.00681432088216 0.00635019938151 0.00616455078125 0.00592295328776 0.00529225667318 0.00389099121094 0.00276947021484 0.00268681844076 0.00127665201823 0.00183232625326 0.000993092854818 0.00173060099284 0.00154368082682 0.0024159749349 0.00343322753906 0.0072135925293 0.0137252807617 0.0399805704753 0.0506184895833 0.684969584147 20
0.0621643066406 0.0450541178385 0.0163485209147 0.0115687052409 0.00954310099284 0.00815836588542 0.00682322184245 0.00656890869141 0.00623448689779 0.00602595011393 0.00531133015951 0.00550969441732 0.00459925333659 0.00383504231771 0.00236638387044 0.00245539347331 0.00166320800781 0.00214004516602 0.00174458821615 0.00236511230469 0.00298563639323 0.00610224405924 0.015443166097 0.0406252543132 0.0499025980632 0.674461364746 12
0.052235921224 0.036262512207 0.0242856343587 0.0191357930501 0.0150159200033 0.0112444559733 0.00881958007812 0.00731531778971 0.00630823771159 0.00617090861003 0.00601959228516 0.00569152832031 0.00482050577799 0.00405120849609 0.0022455851237 0.00250371297201 0.00186538696289 0.00270843505859 0.0023930867513 0.0033327738444 0.00455602010091 0.00828043619792 0.0166498819987 0.0350761413574 0.0478337605794 0.665177663167 18
0.070198059082 0.0368105570475 0.0223566691081 0.0165303548177 0.0118611653646 0.00920740763346 0.00747680664062 0.00636037190755 0.00551986694336 0.00536092122396 0.00503921508789 0.00483067830404 0.00392659505208 0.00350952148438 0.00189590454102 0.00229008992513 0.00152333577474 0.00225194295247 0.00212605794271 0.00347264607747 0.0053825378418 0.010498046875 0.0183143615723 0.0355364481608 0.0569127400716 0.650807698568 19
0.0577545166016 0.029177347819 0.024585723877 0.0222829182943 0.0222409566243 0.0233573913574 0.0240236918132 0.0227394104004 0.0212135314941 0.0191192626953 0.0152168273926 0.0105222066243 0.00729370117188 0.00605901082357 0.00418090820312 0.00443903605143 0.00365193684896 0.00411097208659 0.00411860148112 0.00518290201823 0.00721740722656 0.011526743571 0.0184567769368 0.0338770548503 0.0541865030924 0.543464660645 29
0.0663770039876 0.0383809407552 0.0250078837077 0.0249036153158 0.0234781901042 0.0201937357585 0.0159022013346 0.0124270121257 0.0110893249512 0.0100835164388 0.00831349690755 0.0065803527832 0.00448226928711 0.00383377075195 0.00179163614909 0.00205993652344 0.00113296508789 0.00215530395508 0.00194676717122 0.00318654378255 0.00495529174805 0.0102259318034 0.0197334289551 0.0362269083659 0.0550549825033 0.590476989746 37
0.12287012736 0.0262438456217 0.0271352132161 0.0218111673991 0.0135765075684 0.00752258300781 0.0048828125 0.00346755981445 0.00274276733398 0.00204340616862 0.00141779581706 0.0012575785319 0.00161107381185 0.00256474812826 0.00143178304036 0.00207646687826 0.00145975748698 0.00196838378906 0.00157292683919 0.00237528483073 0.00321960449219 0.00640614827474 0.0145899454753 0.0425262451172 0.0536003112793 0.629625956217 16
0.0672607421875 0.0356305440267 0.0320014953613 0.0291328430176 0.0242767333984 0.0198783874512 0.0169715881348 0.0148709615072 0.01318359375 0.0120646158854 0.010814666748 0.00876490275065 0.00640996297201 0.00468826293945 0.0025520324707 0.00295003255208 0.00234095255534 0.00293350219727 0.00291315714518 0.00406010945638 0.00578689575195 0.0109011332194 0.0187555948893 0.0359013875326 0.0513636271159 0.563592274984 07
